1.113474369049072266e+00 2.911449670791625977e-01 2.386505156755447388e-01 3.881755471229553223e-01 -1.204853892326354980e+00 -9.255447387695312500e-01 -1.105442166328430176e+00 -1.641203641891479492e+00 -2.089590311050415039e+00 -1.390135169029235840e+00 -8.536474704742431641e-01 -3.073514103889465332e-01 -3.809042572975158691e-01 -6.730233430862426758e-01 1.397817969322204590e+00 2.363103866577148438e+00 1.494642049074172974e-01 4.304170906543731689e-01 8.314498066902160645e-01 -6.134866476058959961e-01 -1.094548225402832031e+00 -1.250217199325561523e+00 -6.447651982307434082e-01 -2.593878030776977539e+00 -9.150612950325012207e-01 -6.781377196311950684e-01 -3.246482312679290771e-01 7.884691357612609863e-01 -3.555386140942573547e-02 -6.247507333755493164e-01 6.210327744483947754e-01 -1.820298790931701660e+00
1.980265080928802490e-01 6.043049693107604980e-01 -4.214606285095214844e-01 -1.947883218526840210e-01 -1.136087179183959961e+00 7.855672836303710938e-01 1.832053065299987793e+00 1.032606959342956543e+00 -6.246883869171142578e-01 -7.003134489059448242e-01 7.624615430831909180e-01 4.353197813034057617e-01 -7.724334597587585449e-01 -8.150997161865234375e-01 -1.003579974174499512e+00 -5.229766368865966797e-01 -1.710357308387756348e+00 2.634486258029937744e-01 1.611892431974411011e-01 7.272900938987731934e-01 -1.722272515296936035e+00 8.391455411911010742e-01 3.408349752426147461e-01 -1.017356753349304199e+00 1.336159348487854004e+00 5.920304059982299805e-01 -8.436346054077148438e-01 1.300179243087768555e+00 2.594443559646606445e-01 -1.003776490688323975e-01 3.968167603015899658e-01 -3.096919953823089600e-01
-4.266782701015472412e-01 -1.091506257653236389e-01 2.115625292062759399e-01 7.550095319747924805e-01 7.010464668273925781e-01 2.150161981582641602e+00 2.611706256866455078e+00 -1.111798048019409180e+00 7.281913757324218750e-01 8.594864606857299805e-01 1.983350872993469238e+00 -1.900895088911056519e-01 4.907132685184478760e-01 -1.890566349029541016e-01 -9.422813653945922852e-01 -1.025437474250793457e+00 8.143149018287658691e-01 -5.158615112304687500e-01 3.381621241569519043e-01 7.462161183357238770e-01 -6.080454587936401367e-01 -2.956745922565460205e-01 9.164233803749084473e-01 1.015683338046073914e-01 -4.897079765796661377e-01 -1.459036231040954590e+00 9.475491046905517578e-01 -2.638580501079559326e-01 -2.143658876419067383e+00 4.498903751373291016e-01 -4.943798780441284180e-01 1.816669702529907227e+00
1.405974268913269043e+00 1.904221057891845703e+00 8.618149161338806152e-01 2.858047485351562500e-01 -6.673206090927124023e-01 3.203694522380828857e-02 9.601365327835083008e-01 -1.891519784927368164e+00 5.202900767326354980e-01 -2.064300060272216797e+00 4.554605111479759216e-02 -1.217164278030395508e+00 6.613085865974426270e-01 6.491665840148925781e-01 5.259983539581298828e-01 6.400853395462036133e-01 2.092860788106918335e-01 7.093054801225662231e-02 -7.700567245483398438e-01 1.150054931640625000e+00 2.002950906753540039e+00 2.443613409996032715e-01 -1.556311249732971191e+00 -6.361641883850097656e-01 1.396608650684356689e-01 -5.849532485008239746e-01 -1.452495576813817024e-03 1.638162374496459961e+00 1.249293327331542969e+00 2.460890412330627441e-01 -1.688619852066040039e+00 3.301230072975158691e-01
-1.391374349594116211e+00 -3.148292899131774902e-01 1.234809517860412598e+00 1.177013754844665527e+00 -5.770532488822937012e-01 6.168954372406005859e-01 1.585331559181213379e+00 -1.864137947559356689e-01 -1.065055608749389648e+00 3.268606901168823242e+00 3.891447782516479492e-01 -1.690016031265258789e+00 -3.101712465286254883e-01 2.240371704101562500e+00 -1.630732536315917969e+00 6.857516169548034668e-01 -1.635442972183227539e+00 7.783595919609069824e-01 9.567033052444458008e-01 2.200832068920135498e-01 -8.623971939086914062e-01 -1.058387398719787598e+00 -8.367127180099487305e-01 -1.116536617279052734e+00 -2.797690033912658691e-02 2.721015214920043945e-01 6.049485206604003906e-01 1.876476407051086426e-01 3.278597891330718994e-01 -1.215440988540649414e+00 1.775662153959274292e-01 -4.768894612789154053e-01
-1.064832657575607300e-01 2.630893290042877197e-01 1.084641933441162109e+00 6.099499464035034180e-01 -8.871148228645324707e-01 -6.676575541496276855e-01 -6.137748360633850098e-01 8.748969435691833496e-01 7.398880124092102051e-01 6.561880111694335938e-01 1.303470015525817871e+00 6.886047720909118652e-01 1.984504342079162598e+00 -1.433813095092773438e+00 -2.538276612758636475e-01 5.268821716308593750e-01 -2.351028203964233398e+00 -4.436714947223663330e-01 -8.243486881256103516e-01 8.050726652145385742e-01 -1.575955599546432495e-01 1.685926020145416260e-01 -8.614658713340759277e-01 -1.564309716224670410e+00 1.278693199157714844e+00 -2.872984707355499268e-01 -2.113651037216186523e+00 4.338193535804748535e-01 -1.333609819412231445e+00 8.144738078117370605e-01 2.357237815856933594e+00 -8.873356580734252930e-01
8.093980550765991211e-01 -3.204861581325531006e-01 -1.322114586830139160e+00 3.946810662746429443e-01 2.447217226028442383e+00 6.047182679176330566e-01 8.843077421188354492e-01 -1.375207662582397461e+00 -2.159132480621337891e+00 -2.137129545211791992e+00 4.585898518562316895e-01 3.202612698078155518e-02 5.463563203811645508e-01 -2.115796804428100586e-01 -7.616161704063415527e-01 -5.488381981849670410e-01 3.084841966629028320e-01 5.410056114196777344e-01 -1.069952726364135742e+00 1.015161946415901184e-01 -9.806786775588989258e-01 7.084737420082092285e-01 9.876230955123901367e-01 1.722341418266296387e+00 5.304831266403198242e-01 -2.512279450893402100e-01 5.716443657875061035e-01 -1.870261669158935547e+00 -8.765081167221069336e-01 3.496502041816711426e-01 -8.217655420303344727e-01 -2.833195328712463379e-01
-4.592131674289703369e-01 -2.315344810485839844e-01 -1.285222172737121582e+00 -1.236799478530883789e+00 6.066082119941711426e-01 -1.209455847740173340e+00 -7.067611217498779297e-01 1.293620586395263672e+00 -1.250637412071228027e+00 2.015979140996932983e-01 -1.452189803123474121e+00 4.649196565151214600e-01 -1.135660529136657715e+00 -6.390591263771057129e-01 -2.992458641529083252e-01 -1.137359619140625000e+00 3.908281028270721436e-01 3.701664209365844727e-01 -1.196861565113067627e-01 -6.745729446411132812e-01 3.884273767471313477e-01 2.124149799346923828e+00 3.992766737937927246e-01 -8.308427929878234863e-01 6.259188652038574219e-01 1.342780947685241699e+00 1.091946601867675781e+00 2.585744857788085938e-02 6.864432245492935181e-02 -6.112811565399169922e-01 -1.262197345495223999e-01 4.548404812812805176e-01
6.647990345954895020e-01 -1.649581074714660645e+00 7.135581374168395996e-01 -1.608939319849014282e-01 -8.218083977699279785e-01 1.939510822296142578e+00 -1.219370722770690918e+00 -7.131422758102416992e-01 -4.110432565212249756e-01 1.447470933198928833e-01 -2.508074760437011719e+00 4.965994060039520264e-01 -9.750796556472778320e-01 -1.833947896957397461e+00 9.753379225730895996e-01 5.957936644554138184e-01 3.933912888169288635e-02 1.712577939033508301e-01 2.834191918373107910e-01 -6.216545104980468750e-01 1.229603528976440430e+00 5.031061172485351562e-01 1.119998574256896973e+00 -1.918253302574157715e+00 -6.343414187431335449e-01 -6.636667251586914062e-01 -3.003490269184112549e-01 -1.303572654724121094e+00 6.043888926506042480e-01 -6.367425620555877686e-02 -1.143377542495727539e+00 1.529987901449203491e-01
-2.185435444116592407e-01 9.437503665685653687e-02 6.333178281784057617e-01 3.798601925373077393e-01 8.600980043411254883e-01 -1.034990668296813965e+00 7.819397449493408203e-01 7.022230029106140137e-01 2.066328048706054688e+00 7.886343598365783691e-01 1.634609997272491455e-01 3.282655030488967896e-02 -1.535768389701843262e+00 2.789567112922668457e-01 -7.625477313995361328e-01 -4.297155737876892090e-01 2.522029399871826172e+00 9.698689579963684082e-01 -1.308176070451736450e-01 4.313107430934906006e-01 2.956146895885467529e-01 -6.778723597526550293e-01 -8.749490380287170410e-01 -5.022194385528564453e-01 6.662236452102661133e-01 1.411625385284423828e+00 -9.666072726249694824e-01 -6.940282881259918213e-02 4.497930109500885010e-01 7.757302522659301758e-01 -6.637730002403259277e-01 -1.721841335296630859e+00
3.569601178169250488e-01 3.244308233261108398e-01 1.617723464965820312e+00 -1.233169198036193848e+00 -8.498613238334655762e-01 -6.669672727584838867e-01 -4.189530909061431885e-01 1.196193456649780273e+00 -2.376668602228164673e-01 5.084359645843505859e-01 9.411587715148925781e-01 -3.527268469333648682e-01 1.287025809288024902e+00 -2.196926772594451904e-01 6.436505317687988281e-01 1.483428716659545898e+00 2.169398367404937744e-01 1.330858469009399414e+00 2.540478408336639404e-01 1.512671947479248047e+00 1.121793866157531738e+00 -3.329415917396545410e-01 -1.359795928001403809e+00 -1.397608876228332520e+00 -7.386223077774047852e-01 -1.022373557090759277e+00 -1.511676460504531860e-01 -2.125767022371292114e-01 4.794035851955413818e-01 1.377433776855468750e+00 1.488329619169235229e-01 2.568405121564865112e-02
8.046703338623046875e-01 -9.377930164337158203e-01 -1.917079091072082520e-01 9.694606065750122070e-01 8.946991562843322754e-01 1.586767911911010742e+00 9.323543906211853027e-01 -8.261777758598327637e-01 7.551459223031997681e-02 2.043129920959472656e+00 -1.552799716591835022e-03 -1.502528339624404907e-01 3.962236940860748291e-01 -5.949645638465881348e-01 2.624724388122558594e+00 -7.200201507657766342e-04 9.501083493232727051e-01 -4.590944647789001465e-01 1.490931808948516846e-01 3.970584869384765625e-01 -8.171046525239944458e-02 9.193432927131652832e-01 -1.235251069068908691e+00 4.384660720825195312e-01 -1.922329813241958618e-01 3.126905202865600586e+00 4.262396693229675293e-01 1.825958043336868286e-01 4.176376163959503174e-01 9.814416170120239258e-01 2.956936657428741455e-01 -4.800094962120056152e-01
5.429822802543640137e-01 1.279201507568359375e-01 -8.929916620254516602e-01 -1.355886340141296387e+00 -1.103299260139465332e+00 -5.011765360832214355e-01 9.444958567619323730e-01 1.196475982666015625e+00 1.324883460998535156e+00 4.832875728607177734e-01 2.864743769168853760e-01 -2.321873158216476440e-01 2.280013084411621094e+00 -1.077712297439575195e+00 -2.112356126308441162e-01 -3.292664587497711182e-01 -2.893911004066467285e-01 3.561959862709045410e-01 8.541061878204345703e-01 1.226679086685180664e+00 3.850916922092437744e-01 -2.321360826492309570e+00 -3.755096793174743652e-01 -1.720441102981567383e+00 -1.186265230178833008e+00 -7.478256821632385254e-01 -9.182990789413452148e-01 -2.682601690292358398e+00 4.256909191608428955e-01 -2.546257019042968750e+00 3.025568425655364990e-01 -1.624857634305953979e-01
-1.696040779352188110e-01 -6.576963067054748535e-01 -2.025508165359497070e+00 -7.424607872962951660e-01 -1.627224922180175781e+00 -4.788233637809753418e-01 -4.328726232051849365e-01 1.526382267475128174e-01 -2.701187692582607269e-02 7.244049012660980225e-02 1.294966340065002441e+00 1.625999331474304199e+00 8.922516703605651855e-01 -7.926096320152282715e-01 -3.155129551887512207e-01 1.087218374013900757e-01 6.840757727622985840e-01 -2.857365906238555908e-01 -1.255535244941711426e+00 2.088965654373168945e+00 1.730356097221374512e+00 7.919121384620666504e-01 4.801120162010192871e-01 8.114852309226989746e-01 3.381324708461761475e-01 1.742496132850646973e+00 3.733431398868560791e-01 1.625700235366821289e+00 4.235476851463317871e-01 -8.401075601577758789e-01 -9.535698890686035156e-01 1.131877779960632324e+00
-1.094002842903137207e+00 1.539056152105331421e-01 5.959076881408691406e-01 5.240299701690673828e-01 -7.754358649253845215e-01 -1.992906779050827026e-01 7.938092947006225586e-01 4.152058959007263184e-01 -2.116769105195999146e-01 -3.848878741264343262e-01 1.736329346895217896e-01 -1.939032077789306641e+00 7.284959405660629272e-02 1.216887950897216797e+00 1.271666884422302246e+00 -4.630354046821594238e-01 -3.072629272937774658e-01 -7.144949436187744141e-01 -5.945245623588562012e-01 -4.005980193614959717e-01 5.172613859176635742e-01 1.356363177299499512e+00 -8.693189620971679688e-01 4.638941884040832520e-01 8.479613065719604492e-01 -1.126956939697265625e+00 4.497888311743736267e-02 -8.392812609672546387e-01 7.343122363090515137e-01 -1.236646413803100586e+00 1.221326142549514771e-01 -3.337883949279785156e-01
-8.875614404678344727e-01 7.662062346935272217e-02 5.410500168800354004e-01 -8.729556202888488770e-02 -1.746896266937255859e+00 -8.412329852581024170e-02 -3.650801658630371094e+00 -1.066102504730224609e+00 -1.197862386703491211e+00 -3.024374544620513916e-01 -1.074295282363891602e+00 -6.309647560119628906e-01 1.865748047828674316e+00 -1.106758236885070801e+00 7.835992574691772461e-01 1.658267140388488770e+00 -1.571328163146972656e+00 3.531717360019683838e-01 -5.045711994171142578e-01 -6.349948048591613770e-01 -3.411514163017272949e-01 -5.089119672775268555e-01 1.076638698577880859e+00 5.677634477615356445e-01 5.654489994049072266e-01 1.531774178147315979e-03 -2.248651266098022461e+00 7.829951047897338867e-01 -2.031817138195037842e-01 -7.923961281776428223e-01 2.189472764730453491e-01 -1.529385596513748169e-01
-4.632205069065093994e-01 1.723790317773818970e-01 3.472050428390502930e-01 5.978560447692871094e-01 -1.916433572769165039e+00 -5.341290235519409180e-01 1.057357549667358398e+00 -2.110730111598968506e-01 7.734445929527282715e-01 1.691845297813415527e+00 1.636378914117813110e-01 1.250154852867126465e+00 1.560475945472717285e+00 5.044059753417968750e-01 7.857819795608520508e-01 -1.973934918642044067e-01 1.537780165672302246e-01 6.782660484313964844e-01 -6.297776699066162109e-01 5.244377255439758301e-01 -1.710438579320907593e-01 1.095077276229858398e+00 2.446004301309585571e-01 7.539864182472229004e-01 -2.310979127883911133e+00 2.597340941429138184e-01 -1.600827723741531372e-01 -3.727909028530120850e-01 -7.261352241039276123e-02 1.051568031311035156e+00 -2.549742221832275391e+00 2.168896198272705078e+00
-1.943326473236083984e+00 1.227561850100755692e-02 3.047465980052947998e-01 -8.672991991043090820e-01 7.231428027153015137e-01 -5.210663676261901855e-01 -5.135231614112854004e-01 -8.842848539352416992e-01 -3.340477645397186279e-01 -2.663825750350952148e-01 -2.051403671503067017e-01 7.108052968978881836e-01 4.427144527435302734e-01 -1.227406691759824753e-02 6.597126722335815430e-01 -2.723230607807636261e-02 3.964493423700332642e-02 -1.383935689926147461e+00 1.073551058769226074e+00 -9.611521363258361816e-01 4.340529739856719971e-01 3.695077896118164062e-01 -1.407955527305603027e+00 1.003676056861877441e+00 5.137652754783630371e-01 -5.158586502075195312e-01 -2.446625679731369019e-01 7.722967267036437988e-01 5.640828609466552734e-01 -1.511390879750251770e-02 -5.633172988891601562e-01 1.364062726497650146e-01
-9.554851651191711426e-01 5.022473335266113281e-01 2.436690591275691986e-02 2.118666410446166992e+00 6.836141943931579590e-01 -5.390106439590454102e-01 2.294959127902984619e-01 6.723494529724121094e-01 1.517211496829986572e-01 1.427398025989532471e-01 -1.216182112693786621e+00 1.396413803100585938e+00 4.187104478478431702e-02 1.144680500030517578e+00 -6.941861510276794434e-01 -9.087971448898315430e-01 -4.259724617004394531e-01 9.543707966804504395e-02 2.011392265558242798e-01 -1.363238930702209473e+00 -1.219585537910461426e+00 -3.551515638828277588e-01 -2.088876008987426758e+00 7.138164639472961426e-01 -3.767232298851013184e-01 -5.195686817169189453e-01 9.077345132827758789e-01 8.370215296745300293e-01 -3.215675055980682373e-01 -9.469274878501892090e-01 1.300248861312866211e+00 1.051365613937377930e+00
4.567144513130187988e-01 -5.930226445198059082e-01 -5.185277462005615234e-01 -1.682398796081542969e+00 -1.595373392105102539e+00 -4.255557805299758911e-02 -6.812649369239807129e-01 1.603509902954101562e+00 5.952216386795043945e-01 -1.171774387359619141e+00 6.167190894484519958e-02 -1.785871982574462891e+00 -1.256619572639465332e+00 -1.924080252647399902e-01 1.230956077575683594e+00 5.579259395599365234e-01 7.743961215019226074e-01 3.195004761219024658e-01 -9.730970859527587891e-01 -4.280418455600738525e-01 6.210798621177673340e-01 -9.594216942787170410e-01 5.782637279480695724e-03 -1.648196578025817871e-02 -2.326004505157470703e+00 -9.187361001968383789e-01 -5.676882863044738770e-01 -3.398480117321014404e-01 -1.152737498283386230e+00 1.156407445669174194e-01 -9.157645702362060547e-02 2.361360311508178711e+00
1.543792009353637695e+00 1.172285676002502441e+00 1.600418210029602051e+00 -4.488060474395751953e-01 -4.470762237906455994e-02 1.803788989782333374e-01 -1.662573099136352539e+00 4.166715145111083984e-01 1.376711845397949219e+00 6.453083157539367676e-01 -6.714587211608886719e-01 1.148162484169006348e+00 -9.694381356239318848e-01 -2.295990139245986938e-01 -3.909146189689636230e-01 6.549418568611145020e-01 -1.863197803497314453e+00 9.596250653266906738e-01 9.880970716476440430e-01 5.365561842918395996e-01 -1.959301114082336426e+00 1.515322737395763397e-02 9.921302199363708496e-01 9.265564084053039551e-01 1.799006760120391846e-01 1.591290116310119629e+00 -1.285604596138000488e+00 2.427446365356445312e+00 1.554110884666442871e+00 7.819399237632751465e-01 6.177344322204589844e-01 -3.705410361289978027e-01
-1.346333503723144531e+00 -4.588806927204132080e-01 7.162314057350158691e-01 1.255726456642150879e+00 -1.678789854049682617e+00 2.949840068817138672e+00 2.519912958145141602e+00 -6.688296198844909668e-01 -2.268227338790893555e+00 -6.832150220870971680e-01 -3.031422197818756104e-01 -5.620329380035400391e-01 -7.938348650932312012e-01 3.114377558231353760e-01 2.944118976593017578e+00 2.046635141596198082e-03 6.511905789375305176e-01 -6.191977858543395996e-01 -1.299848198890686035e+00 6.556217074394226074e-01 -1.336510926485061646e-01 -3.447077870368957520e-01 -1.371250510215759277e+00 3.914192318916320801e-01 5.625274181365966797e-01 9.010821580886840820e-02 -6.811815500259399414e-02 5.158510804176330566e-01 1.553935408592224121e+00 9.048610329627990723e-01 4.320238232612609863e-01 -1.638221859931945801e+00
1.670802086591720581e-01 -1.846743822097778320e-01 -1.445609450340270996e+00 -3.481510579586029053e-01 -9.200467467308044434e-01 -2.697761535644531250e+00 3.037591874599456787e-01 2.019152879714965820e+00 4.398012906312942505e-02 -1.649605631828308105e+00 -2.142256736755371094e+00 2.398349791765213013e-01 -2.175256460905075073e-01 1.328604221343994141e+00 -6.059684157371520996e-01 -1.250643849372863770e+00 -1.110903859138488770e+00 7.311151623725891113e-01 3.392921760678291321e-02 7.997370958328247070e-01 -6.082291603088378906e-01 -3.231536149978637695e-01 -3.978122770786285400e-01 5.054326653480529785e-01 -9.391897320747375488e-01 -1.713893711566925049e-01 8.505226373672485352e-01 7.313187122344970703e-01 -8.967509865760803223e-01 6.916626691818237305e-01 -1.696220159530639648e+00 -1.552455127239227295e-01
-1.113912314176559448e-01 1.629258394241333008e+00 9.774180054664611816e-01 -1.843320727348327637e+00 9.831082820892333984e-01 -5.624112673103809357e-03 -1.526496052742004395e+00 2.570138275623321533e-01 5.009403824806213379e-01 -1.103396058082580566e+00 -3.623676002025604248e-01 5.490389466285705566e-01 -1.165447473526000977e+00 1.429670810699462891e+00 -5.939598083496093750e-01 5.219546556472778320e-01 -4.249609112739562988e-01 5.367808341979980469e-01 -2.104956805706024170e-01 -5.628558397293090820e-01 4.091066867113113403e-02 2.773596644401550293e-01 1.394180178642272949e+00 6.734501123428344727e-01 3.468307852745056152e-01 -4.303852319717407227e-01 9.867209196090698242e-01 5.205131173133850098e-01 5.576930046081542969e-01 4.529042243957519531e-01 -5.846897885203361511e-02 -2.131418704986572266e+00
8.037271499633789062e-01 1.807172060012817383e+00 4.111499786376953125e-01 -3.263881504535675049e-01 -7.570484280586242676e-02 3.123154044151306152e-01 2.091912031173706055e+00 3.344576358795166016e-01 1.815436363220214844e+00 -2.991812489926815033e-02 -7.197564244270324707e-01 3.489636182785034180e-01 -5.988474488258361816e-01 6.628702282905578613e-01 7.439164519309997559e-01 1.444420337677001953e+00 -3.152473270893096924e-01 2.548050403594970703e+00 1.847121238708496094e+00 -1.583976745605468750e+00 -1.066222906112670898e+00 -4.627946615219116211e-01 2.108045578002929688e+00 -2.881903648376464844e-01 1.063962459564208984e+00 5.737979412078857422e-01 1.098109006881713867e+00 -1.264847874641418457e+00 8.583847880363464355e-01 -5.356326103210449219e-01 1.618575692176818848e+00 8.179223537445068359e-01
1.009295463562011719e+00 7.894291281700134277e-01 4.644820392131805420e-01 2.404538393020629883e-01 7.706884741783142090e-01 1.235826492309570312e+00 -2.744443714618682861e-01 9.242801070213317871e-01 6.315142512321472168e-01 3.075005412101745605e-01 6.200467348098754883e-01 -1.191858761012554169e-02 -1.108144521713256836e+00 7.304208278656005859e-01 8.409818261861801147e-02 1.595594286918640137e+00 1.211103677749633789e+00 -2.051161527633666992e+00 -1.519597172737121582e+00 3.935148119926452637e-01 -1.350122928619384766e+00 4.600362777709960938e-01 1.878523640334606171e-02 -2.846781909465789795e-01 8.778932690620422363e-01 5.805035829544067383e-01 -1.325625777244567871e+00 1.941681981086730957e+00 -4.001328349113464355e-01 5.384902358055114746e-01 1.039300322532653809e+00 -2.953844368457794189e-01
2.424328029155731201e-01 2.144297599792480469e+00 -8.470049500465393066e-01 8.766244053840637207e-01 3.720923364162445068e-01 6.909627914428710938e-01 1.150349378585815430e+00 -3.394896090030670166e-01 -1.537892103195190430e+00 6.707450747489929199e-02 -1.266064286231994629e+00 1.427382975816726685e-01 1.208665370941162109e+00 -1.615704298019409180e+00 -3.970653116703033447e-01 1.216980695724487305e+00 1.074922204017639160e+00 -1.867389976978302002e-01 -3.237590789794921875e-01 -8.990549445152282715e-01 -2.224746793508529663e-01 -1.074338555335998535e+00 -6.191260218620300293e-01 9.482682943344116211e-01 -8.993795514106750488e-01 9.452347159385681152e-01 4.193407595157623291e-01 -7.382243871688842773e-01 6.158195734024047852e-01 -2.790207862854003906e-01 1.321377754211425781e+00 4.432408511638641357e-01
8.919967412948608398e-01 -9.919453859329223633e-01 -7.747189402580261230e-01 3.517779707908630371e-01 3.556704223155975342e-01 -1.107261061668395996e+00 9.129689633846282959e-02 1.979248225688934326e-01 1.363352388143539429e-01 9.550797939300537109e-01 1.213672280311584473e+00 1.260734081268310547e+00 -5.246331691741943359e-01 -2.897545397281646729e-01 6.536982059478759766e-01 -6.165710091590881348e-01 6.349810957908630371e-01 2.333811968564987183e-01 -1.863974094390869141e+00 -2.052774131298065186e-01 -3.079013153910636902e-02 1.101225167512893677e-01 -1.981644868850708008e+00 -1.386307775974273682e-01 1.040706157684326172e+00 -1.378022789955139160e+00 5.867471098899841309e-01 1.020190954208374023e+00 -5.087034702301025391e-01 7.484759688377380371e-01 -5.051170587539672852e-01 1.524486780166625977e+00
2.311748117208480835e-01 -2.050549983978271484e+00 2.503797709941864014e-01 5.191811323165893555e-01 -1.444648742675781250e+00 -7.105723023414611816e-01 6.180410981178283691e-01 -5.015258193016052246e-01 1.459426999092102051e+00 3.176155388355255127e-01 -1.328237652778625488e+00 -1.313463687896728516e+00 7.845057174563407898e-03 8.671625256538391113e-01 -9.555433988571166992e-01 -1.826662868261337280e-01 -2.157683819532394409e-01 1.093043684959411621e+00 2.498116195201873779e-01 -1.890688776969909668e+00 1.345086455345153809e+00 4.179504811763763428e-01 -4.029626548290252686e-01 1.006853580474853516e+00 9.050652384757995605e-01 -6.765469908714294434e-01 7.771453261375427246e-02 9.995862245559692383e-01 1.391682744026184082e+00 -2.315722852945327759e-01 -1.338678479194641113e+00 4.765634834766387939e-01
-1.005934715270996094e+00 -2.146954536437988281e+00 -1.053179383277893066e+00 -2.112992286682128906e+00 2.155419141054153442e-01 -1.492356896400451660e+00 -5.610313415527343750e-01 -1.004506468772888184e+00 -7.202724218368530273e-01 -3.727325201034545898e-01 1.558739691972732544e-01 1.459072589874267578e+00 -1.631063938140869141e+00 -7.874666452407836914e-01 -2.834122776985168457e-01 -1.769609212875366211e+00 2.168851643800735474e-01 6.224712133407592773e-01 -8.367756605148315430e-01 -3.963373601436614990e-01 -1.093969702720642090e+00 1.110965967178344727e+00 -5.258300304412841797e-01 7.192907333374023438e-01 -9.548992663621902466e-02 1.335499048233032227e+00 3.181180730462074280e-02 1.346693038940429688e+00 1.336874604225158691e+00 -3.744797706604003906e-01 1.044726610183715820e+00 -7.141644358634948730e-01
-1.195677593350410461e-01 -5.921066552400588989e-02 -9.638442993164062500e-01 3.406713604927062988e-01 5.191366076469421387e-01 -1.828885972499847412e-01 -2.776791572570800781e+00 -3.586026430130004883e-01 3.703821003437042236e-01 4.835533201694488525e-01 9.370359778404235840e-01 6.940193474292755127e-02 -1.372983336448669434e+00 -9.528982043266296387e-01 1.035727337002754211e-01 -7.256810665130615234e-01 5.811745300889015198e-02 9.941097348928451538e-02 -2.244975864887237549e-01 5.021575093269348145e-01 -4.231118559837341309e-01 2.854466438293457031e-01 -2.957756221294403076e-01 -1.615312218666076660e+00 2.796729803085327148e-01 2.761213541030883789e+00 -8.185738921165466309e-01 8.151285648345947266e-01 2.445410341024398804e-01 9.019821882247924805e-02 6.576131582260131836e-01 3.347781598567962646e-01
9.065913408994674683e-02 -1.194945722818374634e-01 -1.454563885927200317e-01 -1.722908616065979004e+00 -9.566459655761718750e-01 -1.505607843399047852e+00 -1.104248404502868652e+00 -1.026418328285217285e+00 6.885633468627929688e-01 6.631656289100646973e-01 -1.391278147697448730e+00 -2.419015467166900635e-01 -5.451221764087677002e-02 1.349988579750061035e+00 -1.987295746803283691e+00 6.563236117362976074e-01 -9.084504246711730957e-01 -9.138377904891967773e-01 5.299627184867858887e-01 -1.567043960094451904e-01 -5.452234745025634766e-01 3.223525583744049072e-01 1.034267902374267578e+00 -3.212754800915718079e-02 4.453542828559875488e-01 -4.667365252971649170e-01 -1.820022910833358765e-01 1.454499602317810059e+00 1.368105173110961914e+00 -4.290854036808013916e-01 -1.525369584560394287e-01 -1.204843997955322266e+00
-2.561014518141746521e-02 1.851648211479187012e+00 -5.354518294334411621e-01 8.968707919120788574e-01 1.124136090278625488e+00 1.725800633430480957e+00 -1.160143136978149414e+00 -1.282585501670837402e+00 -1.805708110332489014e-01 5.336858034133911133e-01 1.338712811470031738e+00 -1.901231050491333008e+00 -1.238704681396484375e+00 -4.618231952190399170e-01 -1.112224459648132324e+00 2.087030112743377686e-01 -2.931314408779144287e-01 8.824602961540222168e-01 8.585420846939086914e-01 -4.338909387588500977e-01 3.757390081882476807e-01 -1.573361992835998535e+00 1.213210821151733398e+00 -2.218849211931228638e-01 8.358747363090515137e-01 8.371510505676269531e-01 -2.854283899068832397e-02 -7.729579806327819824e-01 -5.651023983955383301e-01 -1.562533676624298096e-01 5.719150900840759277e-01 1.235817193984985352e+00
-8.714382648468017578e-01 2.367848873138427734e+00 4.781589508056640625e-01 5.211939215660095215e-01 2.890704870223999023e-01 1.321437358856201172e+00 5.331454873085021973e-01 -3.872210383415222168e-01 9.039303660392761230e-01 2.522970438003540039e-01 1.228147983551025391e+00 5.111641883850097656e-01 2.324438333511352539e+00 2.509574413299560547e+00 -1.721041947603225708e-01 6.703718900680541992e-01 -8.238403797149658203e-01 1.728755950927734375e+00 -2.092168629169464111e-01 5.325607657432556152e-01 -8.655903488397598267e-02 5.674330592155456543e-01 1.055492162704467773e+00 9.531586617231369019e-02 -6.087895631790161133e-01 -8.436301350593566895e-01 1.079595446586608887e+00 1.716443449258804321e-01 9.052871912717819214e-02 7.661435753107070923e-02 9.842636585235595703e-01 6.824727058410644531e-01
-1.132313847541809082e+00 -6.683354377746582031e-01 1.056965708732604980e+00 -1.551083207130432129e+00 -1.919032931327819824e-01 -5.293085575103759766e-01 5.145058631896972656e-01 1.619462847709655762e+00 -4.674764275550842285e-01 -9.322709441184997559e-01 1.494685113430023193e-01 -7.256118059158325195e-01 6.747373342514038086e-01 -5.717437267303466797e-01 -9.038981795310974121e-01 1.093886613845825195e+00 6.249862536787986755e-02 -5.593362450599670410e-01 -7.785097956657409668e-01 -1.233260154724121094e+00 -9.946350753307342529e-02 5.606912374496459961e-01 -7.847185134887695312e-01 8.643708825111389160e-01 1.027037858963012695e+00 -1.729244470596313477e+00 -2.938806116580963135e-01 -4.372181594371795654e-01 1.707175731658935547e+00 -1.157469749450683594e+00 6.816100478172302246e-01 1.301295030862092972e-02
9.238039255142211914e-01 -1.856655955314636230e+00 -5.003706812858581543e-01 -6.722679734230041504e-01 -6.171176433563232422e-01 -7.883148789405822754e-01 9.718924164772033691e-01 1.358799338340759277e+00 -1.908431887626647949e+00 1.833870708942413330e-01 -7.415081858634948730e-01 6.754132509231567383e-01 -2.134808003902435303e-01 3.334900438785552979e-01 -4.766654670238494873e-01 -2.503812551498413086e+00 1.191850081086158752e-01 5.433533191680908203e-01 -3.485130071640014648e-01 -5.440048575401306152e-01 1.525039911270141602e+00 -5.165879130363464355e-01 5.511041283607482910e-01 2.704378962516784668e-01 -1.094383478164672852e+00 -9.394494891166687012e-01 -4.546872079372406006e-01 5.325528383255004883e-01 -1.328269690275192261e-01 1.833730787038803101e-01 -5.033877491950988770e-01 3.417084515094757080e-01
-6.579751372337341309e-01 1.044958353042602539e+00 4.656939804553985596e-01 1.706187725067138672e+00 1.199315935373306274e-01 1.106259822845458984e+00 -1.235569834709167480e+00 6.374024152755737305e-01 -8.955922126770019531e-01 -1.012937352061271667e-01 6.665055155754089355e-01 1.458715915679931641e+00 5.166323184967041016e-01 8.186090737581253052e-02 -1.701308041810989380e-01 5.184701457619667053e-02 -1.557221889495849609e+00 1.003635168075561523e+00 7.004417181015014648e-01 1.423222064971923828e+00 7.714735269546508789e-01 -1.019104480743408203e+00 6.816738247871398926e-01 -2.010711193084716797e+00 -6.649410128593444824e-01 -3.901219666004180908e-01 6.934087872505187988e-01 -9.781102836132049561e-02 4.898775517940521240e-01 -3.076184988021850586e-01 6.305848360061645508e-01 1.069680571556091309e+00
8.600431084632873535e-01 -1.231424450874328613e+00 5.417838692665100098e-01 1.950946152210235596e-01 -1.022838130593299866e-01 1.886647105216979980e+00 -1.661087989807128906e+00 8.620366454124450684e-03 -5.953158140182495117e-01 -1.834853440523147583e-01 2.331951260566711426e-01 7.101561427116394043e-01 -3.738703727722167969e-01 -4.366338551044464111e-01 -7.651767134666442871e-01 -1.881164610385894775e-01 7.036099210381507874e-03 7.607910633087158203e-01 -4.148582816123962402e-01 -8.508319854736328125e-01 4.528202116489410400e-01 3.029619455337524414e-01 -4.648405909538269043e-01 2.700756788253784180e-01 7.163839936256408691e-01 6.582447290420532227e-01 7.424761056900024414e-01 5.604352951049804688e-01 -7.444481849670410156e-01 -8.670979738235473633e-02 -8.844962120056152344e-01 1.269156634807586670e-01
9.354985356330871582e-01 3.503535091876983643e-01 6.658253073692321777e-01 2.017487883567810059e-01 -5.895772576332092285e-01 -3.647614419460296631e-01 2.012138217687606812e-01 -9.340451359748840332e-01 5.910108089447021484e-01 -5.486851930618286133e-01 -1.366934418678283691e+00 1.974153518676757812e+00 3.059202730655670166e-01 3.715670108795166016e-01 9.465263485908508301e-01 -6.022310853004455566e-01 -4.740775525569915771e-01 1.048367261886596680e+00 -2.508502244949340820e+00 -4.172532260417938232e-01 2.424833327531814575e-01 -1.543530344963073730e+00 5.232844948768615723e-01 -1.301978468894958496e+00 7.425701618194580078e-02 -6.419549584388732910e-01 -2.359101772308349609e-01 1.290222108364105225e-01 -3.021292984485626221e-01 -1.523667573928833008e+00 -5.774016976356506348e-01 -4.807992577552795410e-01
-3.717702329158782959e-01 8.140704035758972168e-02 -1.120154142379760742e+00 -2.341504245996475220e-01 -9.737324714660644531e-01 2.299918234348297119e-02 -6.457145512104034424e-02 -9.036070704460144043e-01 -8.204446174204349518e-03 9.963188767433166504e-01 2.671136260032653809e-01 1.813005208969116211e+00 9.550091624259948730e-01 -1.557590603828430176e+00 1.723560392856597900e-01 3.174327015876770020e-01 -4.811346530914306641e-01 -5.132036209106445312e-01 -7.138406634330749512e-01 2.428746670484542847e-01 2.972556278109550476e-02 5.392873883247375488e-01 1.926521062850952148e+00 3.213990852236747742e-02 -3.122199177742004395e-01 3.949619233608245850e-01 1.059836864471435547e+00 1.170937061309814453e+00 1.052421331405639648e+00 -2.454953908920288086e+00 4.607483744621276855e-02 4.643387198448181152e-01
1.185504198074340820e+00 1.120616197586059570e+00 -2.334825992584228516e-01 -2.242160215973854065e-02 -1.748139858245849609e+00 6.311953067779541016e-02 2.859437167644500732e-01 9.367508888244628906e-01 -1.472226232290267944e-01 2.789738476276397705e-01 -3.258743584156036377e-01 5.400437116622924805e-01 1.597370862960815430e+00 5.734373927116394043e-01 1.977186918258666992e+00 -4.533080756664276123e-01 9.129668474197387695e-01 3.492738604545593262e-01 -2.928791940212249756e-01 1.128314733505249023e+00 6.824959516525268555e-01 9.261621162295341492e-03 4.799697101116180420e-01 -9.892305731773376465e-02 -1.488345623016357422e+00 -1.261606693267822266e+00 -5.502234697341918945e-01 1.457932829856872559e+00 1.222871184349060059e+00 5.623338222503662109e-01 -5.466461181640625000e-02 3.450461030006408691e-01
-6.270678639411926270e-01 2.061846494674682617e+00 -5.281359553337097168e-01 9.597499966621398926e-01 -6.103049516677856445e-01 -1.183471977710723877e-01 1.702803745865821838e-02 -1.385268330574035645e+00 -1.510019004344940186e-01 -3.013635277748107910e-01 1.632602691650390625e+00 4.285146892070770264e-01 1.339326977729797363e+00 -1.014663815498352051e+00 -6.623718738555908203e-01 5.688844323158264160e-01 -5.197502374649047852e-01 -1.036510944366455078e+00 3.850439786911010742e-01 -4.395318031311035156e-01 -1.505037665367126465e+00 -5.147611498832702637e-01 -2.450216859579086304e-01 -1.651720166206359863e+00 1.279970645904541016e+00 1.080048799514770508e+00 2.045695781707763672e+00 6.342172026634216309e-01 -2.035549879074096680e+00 -6.414614915847778320e-01 1.631093382835388184e+00 4.300428926944732666e-01
-1.618943810462951660e+00 1.719184160232543945e+00 4.069024622440338135e-01 1.008063077926635742e+00 -3.873705267906188965e-01 7.266177535057067871e-01 1.249462366104125977e+00 -2.434150129556655884e-01 1.855319142341613770e+00 6.128079891204833984e-01 1.098111420869827271e-01 -3.426557481288909912e-01 4.513302743434906006e-01 -2.811589539051055908e-01 2.111303806304931641e+00 3.608375787734985352e-01 -1.109674930572509766e+00 -8.953598141670227051e-01 -9.800797700881958008e-01 5.722701549530029297e-01 4.046147167682647705e-01 1.492156535387039185e-01 1.717803329229354858e-01 -2.465445548295974731e-01 4.620341062545776367e-01 -1.406790137290954590e+00 -3.175600469112396240e-01 1.085002064704895020e+00 -7.315303087234497070e-01 -6.459399461746215820e-01 2.390515208244323730e-01 1.439092397689819336e+00
2.274118185043334961e+00 -1.063886284828186035e+00 7.844384312629699707e-01 -2.719825208187103271e-01 1.126462578773498535e+00 9.250841736793518066e-01 8.125507831573486328e-01 1.914725065231323242e+00 -7.949280142784118652e-01 9.401833415031433105e-01 6.701618432998657227e-01 -5.426901206374168396e-02 -2.118889242410659790e-01 -4.767055511474609375e-01 2.959229648113250732e-01 -7.534416317939758301e-01 -6.099557280540466309e-01 5.226050615310668945e-01 -1.185212731361389160e-01 7.641254663467407227e-01 3.090789616107940674e-01 -1.821511507034301758e+00 5.721894502639770508e-01 4.041179269552230835e-02 -4.348303079605102539e-01 -1.539828907698392868e-02 7.951110601425170898e-01 -4.266179502010345459e-01 4.384892880916595459e-01 4.494777917861938477e-01 -2.690882682800292969e+00 9.801746010780334473e-01
1.883755564689636230e+00 1.993811279535293579e-01 -6.046768426895141602e-01 -1.320659518241882324e-01 3.354122340679168701e-01 1.911101043224334717e-01 5.193846225738525391e-01 6.452409029006958008e-01 -5.805788636207580566e-01 9.606598615646362305e-01 -5.586064457893371582e-01 -2.714485824108123779e-01 -7.883684635162353516e-01 -1.003661453723907471e-01 3.527660071849822998e-01 2.212064981460571289e+00 1.824026346206665039e+00 -1.175267100334167480e+00 2.842707037925720215e-01 -7.897973805665969849e-02 -1.130483746528625488e+00 9.217070341110229492e-01 1.005462110042572021e-01 2.956311404705047607e-01 1.198400110006332397e-01 -3.307569921016693115e-01 -1.113618463277816772e-01 9.808534383773803711e-02 1.650687932968139648e+00 -1.266495585441589355e+00 3.639471530914306641e-01 -1.365039348602294922e-01
-6.002777814865112305e-01 -3.195161521434783936e-01 4.313904643058776855e-01 9.196891635656356812e-02 -1.687425851821899414e+00 1.587589502334594727e+00 -6.610003113746643066e-01 3.020693063735961914e-01 5.018470287322998047e-01 -1.367223113775253296e-01 3.414361178874969482e-01 -8.845891356468200684e-01 9.140413999557495117e-01 -8.452638387680053711e-01 -4.110551178455352783e-01 -2.080339908599853516e+00 9.612094759941101074e-01 -8.218736052513122559e-01 -4.709968864917755127e-01 -1.062463074922561646e-01 -1.769229412078857422e+00 -4.475801885128021240e-01 1.954185515642166138e-01 2.627187967300415039e-01 -3.736940622329711914e-01 -1.734147034585475922e-02 3.729935586452484131e-01 1.359483480453491211e+00 1.294707775115966797e+00 -1.176390290260314941e+00 -1.544670015573501587e-01 -1.363355159759521484e+00
4.900508522987365723e-01 -9.424675703048706055e-01 -6.461826562881469727e-01 -3.210450410842895508e-01 2.574903368949890137e-01 -2.373395860195159912e-01 1.133717596530914307e-01 -1.927431821823120117e+00 1.052458167076110840e+00 -9.907225370407104492e-01 -2.408953905105590820e+00 -1.393070816993713379e+00 1.533501863479614258e+00 4.112217724323272705e-01 2.105404615402221680e+00 -7.120081186294555664e-01 3.686395585536956787e-01 2.617073774337768555e+00 7.123295068740844727e-01 2.933407306671142578e+00 -4.081375598907470703e-01 5.273053050041198730e-01 -1.086836904287338257e-01 -8.535761237144470215e-01 -1.082525491714477539e+00 8.247435092926025391e-02 -7.299614697694778442e-02 5.040245056152343750e-01 -4.196390509605407715e-01 -3.872143924236297607e-01 -3.278802335262298584e-01 1.335054039955139160e+00
4.729541242122650146e-01 9.572417140007019043e-01 5.632370710372924805e-01 -5.760853290557861328e-01 1.470381021499633789e+00 -6.239455342292785645e-01 2.469520568847656250e+00 4.369518905878067017e-02 -1.975849419832229614e-01 1.025876045227050781e+00 -2.926686108112335205e-01 1.425750613212585449e+00 6.749615073204040527e-01 1.205708503723144531e+00 -1.069936394691467285e+00 -2.111866474151611328e-01 8.300389647483825684e-01 6.059129238128662109e-01 1.017496705055236816e+00 6.605113297700881958e-02 -1.143444299697875977e+00 -1.140462756156921387e+00 -6.230995059013366699e-01 -4.525206685066223145e-01 -1.251861572265625000e+00 -9.105733036994934082e-02 6.220396757125854492e-01 6.210598349571228027e-01 2.763843238353729248e-01 -1.253943294286727905e-01 2.583363294601440430e+00 -5.946629866957664490e-02
-3.153745532035827637e-01 3.455957770347595215e-01 -2.339281141757965088e-01 1.283684134483337402e+00 -1.778549194335937500e+00 6.985176801681518555e-01 8.725311756134033203e-01 2.322318553924560547e+00 -3.587773740291595459e-01 5.181523561477661133e-01 3.387912409380078316e-03 -6.308355927467346191e-02 -2.198671698570251465e-01 7.829540371894836426e-01 -5.100969672203063965e-01 -1.147981166839599609e+00 -5.390511155128479004e-01 3.144314512610435486e-02 -3.549078404903411865e-01 -3.189563453197479248e-01 -4.531866014003753662e-01 -3.251106739044189453e-01 -1.052517771720886230e+00 -7.875819206237792969e-01 2.283741712570190430e+00 -4.880201220512390137e-01 -3.122433125972747803e-01 8.909182250499725342e-02 -4.955915734171867371e-02 -1.397700011730194092e-01 7.795010507106781006e-02 2.346479594707489014e-01
6.021645069122314453e-01 9.831780195236206055e-01 1.021499633789062500e-01 -1.325451254844665527e+00 -2.474717140197753906e+00 -3.283702731132507324e-01 4.912134408950805664e-01 -1.018530368804931641e+00 -1.686427116394042969e+00 8.419231176376342773e-01 8.499459028244018555e-01 1.240746498107910156e+00 5.376725196838378906e-01 -1.937132477760314941e-01 3.340452313423156738e-01 1.116606950759887695e+00 -3.083749413490295410e-01 5.692239403724670410e-01 1.711378060281276703e-02 -3.231906890869140625e-01 -1.193495988845825195e+00 -4.788168668746948242e-01 -1.436342746019363403e-01 -1.060973882675170898e+00 -1.232913970947265625e+00 -9.450886249542236328e-01 -6.747111678123474121e-01 -5.177649855613708496e-01 -8.056008815765380859e-01 -3.390312492847442627e-01 6.251735687255859375e-01 5.569393038749694824e-01
2.674758195877075195e+00 3.430035430938005447e-03 5.439522862434387207e-01 6.985264420509338379e-01 9.021162390708923340e-01 4.169306159019470215e-01 7.371554970741271973e-01 -5.043687820434570312e-01 4.236992597579956055e-01 1.597300171852111816e+00 2.788987457752227783e-01 1.937458105385303497e-02 2.472919702529907227e+00 -2.417190074920654297e+00 -4.196283817291259766e-01 1.416436433792114258e-01 1.304692864418029785e+00 -1.406017661094665527e+00 -5.854247212409973145e-01 -2.006827354431152344e+00 -1.460040211677551270e+00 -1.495203137397766113e+00 9.867437481880187988e-01 -1.831564784049987793e+00 1.294925928115844727e+00 -2.158751934766769409e-01 6.738658547401428223e-01 3.145560979843139648e+00 -1.455805540084838867e+00 1.807380616664886475e-01 -3.482050597667694092e-01 5.696829557418823242e-01
2.066739082336425781e+00 1.118886709213256836e+00 -1.252639770507812500e+00 4.623584747314453125e-01 5.652276277542114258e-01 -7.171814441680908203e-01 -4.226104915142059326e-01 1.614988088607788086e+00 1.939570456743240356e-01 -2.949892915785312653e-02 7.184668183326721191e-01 1.289120167493820190e-01 2.792581021785736084e-01 -1.146314740180969238e+00 -9.998798966407775879e-01 -6.816460490226745605e-01 -1.614634245634078979e-01 -1.642590165138244629e-01 7.269727587699890137e-01 -4.780015349388122559e-01 2.454700469970703125e+00 -9.892942756414413452e-02 -1.495734333992004395e+00 -3.024735212326049805e+00 2.533372044563293457e-01 -5.659964680671691895e-01 2.363989800214767456e-01 1.745436191558837891e-01 -6.142188310623168945e-01 1.770209223031997681e-01 7.221328020095825195e-01 -1.434787213802337646e-01
-1.969664692878723145e+00 2.170493602752685547e+00 4.098661541938781738e-01 -2.393515259027481079e-01 1.170684814453125000e+00 -1.284719944000244141e+00 -7.791557908058166504e-01 -2.344807833433151245e-01 -1.434400320053100586e+00 -4.543154034763574600e-03 1.143820285797119141e+00 3.003245592117309570e-01 -4.209566414356231689e-01 -9.565058350563049316e-01 -1.619188785552978516e+00 -1.817296743392944336e+00 -6.871727854013442993e-02 2.828401029109954834e-01 4.923726320266723633e-01 -1.141703486442565918e+00 1.219703674316406250e+00 -2.142995357513427734e+00 1.047823786735534668e+00 4.923817813396453857e-01 -1.244602680206298828e+00 4.974495470523834229e-01 1.267235517501831055e+00 -1.416076183319091797e+00 1.184373497962951660e+00 -1.394572973251342773e+00 -9.467895328998565674e-02 5.758696794509887695e-01
5.335417389869689941e-01 -1.601338505744934082e+00 5.759139657020568848e-01 5.001918673515319824e-01 1.036399602890014648e+00 -7.142105698585510254e-01 -9.053461551666259766e-01 -1.365798354148864746e+00 -5.286275148391723633e-01 -7.811121940612792969e-01 4.209923371672630310e-02 2.292806625366210938e+00 -8.157968521118164062e-01 -1.132760882377624512e+00 2.478394508361816406e-01 -8.258632570505142212e-02 -1.195873841643333435e-01 -1.274847984313964844e-01 -2.012757301330566406e+00 7.914798259735107422e-01 7.727130055427551270e-01 -1.270452290773391724e-01 -1.687403440475463867e+00 1.253089606761932373e-01 -1.148056626319885254e+00 9.881518483161926270e-01 4.463904201984405518e-01 1.242370009422302246e-01 3.579405546188354492e-01 -7.980183959007263184e-01 2.858486413955688477e+00 -3.993257880210876465e-01
-1.554594933986663818e-02 -1.131306141614913940e-01 1.016345500946044922e+00 -4.227892309427261353e-02 1.127147793769836426e+00 7.481991499662399292e-02 -2.776651978492736816e-01 1.256209969520568848e+00 1.140102624893188477e+00 1.036316752433776855e+00 -8.791714906692504883e-01 -1.891899228096008301e+00 1.096286296844482422e+00 1.198057651519775391e+00 1.260615736246109009e-01 3.315457105636596680e-01 4.044635593891143799e-01 -1.313004732131958008e+00 3.834463357925415039e-01 -1.180261611938476562e+00 -5.484954714775085449e-01 -4.879312962293624878e-02 1.545365571975708008e+00 4.539863467216491699e-01 1.959113329648971558e-01 -7.691029310226440430e-01 -2.420102357864379883e+00 2.420466393232345581e-01 6.446832418441772461e-01 3.251664936542510986e-01 -2.201288342475891113e-01 -9.008733555674552917e-03
2.295176267623901367e+00 -2.310775518417358398e-01 -3.008755445480346680e-01 3.640480041503906250e-01 -4.806983768939971924e-01 -2.633138895034790039e+00 -1.446946501731872559e+00 1.602344810962677002e-01 -1.651864647865295410e+00 -7.942329645156860352e-01 -2.294727861881256104e-01 -8.986358046531677246e-01 5.664854645729064941e-01 -7.772026658058166504e-01 7.886477112770080566e-01 -1.355685353279113770e+00 1.094133377075195312e+00 2.547135651111602783e-01 8.094634413719177246e-01 -4.136878550052642822e-01 -4.819163084030151367e-01 2.965004146099090576e-01 1.524737715721130371e+00 -1.529950499534606934e+00 -7.599263787269592285e-01 3.696279600262641907e-02 3.054018318653106689e-01 -1.059193134307861328e+00 1.906994223594665527e+00 9.812597036361694336e-01 9.159864783287048340e-01 -1.836894631385803223e+00
-9.136202335357666016e-01 7.216230034828186035e-02 5.687373280525207520e-01 5.991119146347045898e-01 -4.674461483955383301e-02 1.053254485130310059e+00 -2.660106420516967773e+00 -3.085154294967651367e-01 2.500246167182922363e-01 1.033000111579895020e+00 -1.102550998330116272e-01 2.487275004386901855e-01 4.723226428031921387e-01 -1.935807615518569946e-01 2.903053760528564453e-01 2.576161324977874756e-01 -4.552873075008392334e-01 1.154142498970031738e+00 -1.552464812994003296e-01 -1.911322921514511108e-01 -9.791427254676818848e-01 1.201575025916099548e-01 -1.178872704505920410e+00 2.107892632484436035e-01 4.094355702400207520e-01 -1.898796200752258301e+00 -4.283306896686553955e-01 -1.753450751304626465e+00 7.221543788909912109e-01 1.384297490119934082e+00 -8.044825792312622070e-01 -5.624518990516662598e-01
-7.696008086204528809e-01 1.107273101806640625e+00 2.631444036960601807e-01 2.777691781520843506e-01 1.665597915649414062e+00 5.728155374526977539e-01 4.317533373832702637e-01 6.943152546882629395e-01 4.591396450996398926e-02 1.329820007085800171e-01 2.368354946374893188e-01 2.687921049073338509e-03 1.412818074226379395e+00 -4.193293452262878418e-01 -1.140926241874694824e+00 -3.104401528835296631e-01 -1.999813675880432129e+00 -5.392029881477355957e-02 1.624142169952392578e+00 -6.590691208839416504e-01 2.554905652999877930e+00 8.246015906333923340e-01 3.882724344730377197e-01 8.844413161277770996e-01 6.514487862586975098e-01 -6.864697337150573730e-01 5.888793468475341797e-01 6.654675006866455078e-01 -4.528011381626129150e-01 -1.524048447608947754e+00 1.042602300643920898e+00 -4.506390094757080078e-01
1.268828511238098145e+00 -5.929406285285949707e-01 3.291299045085906982e-01 -6.589261293411254883e-01 -5.395333766937255859e-01 5.547140240669250488e-01 2.181901693344116211e+00 1.487113118171691895e+00 4.741684794425964355e-01 8.224067836999893188e-02 2.705531120300292969e-01 2.401780366897583008e+00 6.917609572410583496e-01 -2.477008849382400513e-02 -3.773716390132904053e-01 9.027806520462036133e-01 1.177296519279479980e+00 3.328436017036437988e-01 -1.793082952499389648e-01 -4.870121479034423828e-01 -4.467770159244537354e-01 1.737808883190155029e-01 -2.580663859844207764e-01 -1.685309857130050659e-01 -5.343843698501586914e-01 -3.329176604747772217e-01 6.638223528861999512e-01 5.139142870903015137e-01 4.968762993812561035e-01 1.795168876647949219e+00 -4.725051820278167725e-01 3.972908556461334229e-01
8.820707798004150391e-01 4.824002981185913086e-01 2.670925259590148926e-01 -3.372356295585632324e-01 4.288785457611083984e-01 -1.260731071233749390e-01 -2.089173555374145508e+00 4.153940975666046143e-01 1.522232890129089355e-01 5.009712576866149902e-01 1.440137505531311035e+00 4.098715484142303467e-01 9.265837073326110840e-01 -4.040833413600921631e-01 1.334249854087829590e+00 1.207092761993408203e+00 -2.161297321319580078e+00 9.725580811500549316e-01 6.248165965080261230e-01 -2.334897965192794800e-01 -7.025653719902038574e-01 -3.812942206859588623e-01 -9.668427705764770508e-01 1.148671984672546387e+00 -1.520965456962585449e+00 6.984747648239135742e-01 6.949810385704040527e-01 -4.403407573699951172e-01 -6.495201587677001953e-02 -9.405887126922607422e-01 6.631157398223876953e-01 5.477237105369567871e-01
-1.291278362274169922e+00 9.934242367744445801e-01 -7.211629152297973633e-01 -4.675572738051414490e-02 6.342338323593139648e-01 5.185208320617675781e-01 9.346532821655273438e-02 1.238468766212463379e+00 -3.681389391422271729e-01 1.859814167022705078e+00 2.800740003585815430e-01 -5.247730612754821777e-01 4.030106216669082642e-02 4.664508998394012451e-01 7.050592303276062012e-01 9.104484319686889648e-02 -7.361819148063659668e-01 -6.533058732748031616e-02 -8.081812411546707153e-02 8.859153985977172852e-01 -1.683901786804199219e+00 -1.896039724349975586e+00 -5.032463371753692627e-02 -1.468607425689697266e+00 1.700074374675750732e-01 4.282882213592529297e-01 -9.615335464477539062e-01 9.048392176628112793e-01 -2.593565940856933594e+00 -2.005565643310546875e+00 -5.539036989212036133e-01 5.601364374160766602e-01
1.086390733718872070e+00 -6.828337311744689941e-01 -1.741699278354644775e-01 -6.265518665313720703e-01 5.928094387054443359e-01 -8.573107123374938965e-01 7.304707169532775879e-01 -8.561102151870727539e-01 1.097123742103576660e+00 -4.728622138500213623e-01 -1.718900561332702637e+00 -6.118565797805786133e-01 -1.020459055900573730e+00 -1.111180901527404785e+00 -1.420574188232421875e+00 5.146334767341613770e-01 1.249194622039794922e+00 -1.993417739868164062e+00 2.959794700145721436e-01 -1.158297300338745117e+00 5.657155513763427734e-01 3.072318077087402344e+00 -6.563753485679626465e-01 -1.103145003318786621e+00 -4.730608165264129639e-01 9.173578023910522461e-01 1.296583771705627441e+00 1.239694207906723022e-01 -3.359158933162689209e-01 1.426977157592773438e+00 -4.345436580479145050e-03 -1.728267669677734375e+00
-1.051214933395385742e+00 1.264276266098022461e+00 5.138114690780639648e-01 -1.576159834861755371e+00 1.418685466051101685e-01 6.603525280952453613e-01 3.673183619976043701e-01 5.201414227485656738e-01 1.857364654541015625e+00 -3.325029611587524414e-01 6.150711178779602051e-01 2.085015535354614258e+00 -4.032877087593078613e-01 -6.113944053649902344e-01 7.553198337554931641e-01 2.249851524829864502e-01 -7.202985286712646484e-01 1.198593854904174805e+00 8.672338724136352539e-01 1.579832196235656738e+00 -2.483640909194946289e-01 -5.162112116813659668e-01 7.960124611854553223e-01 -6.336968541145324707e-01 -2.983861863613128662e-01 -1.288335204124450684e+00 -1.821249574422836304e-01 -8.672179281711578369e-02 6.164497137069702148e-01 -2.728647291660308838e-01 7.986223697662353516e-01 -6.645354032516479492e-01
2.529030144214630127e-01 6.832499504089355469e-01 -4.721468687057495117e-01 -2.068620443344116211e+00 -2.457151859998703003e-01 4.847420379519462585e-02 1.347246289253234863e+00 -1.642363905906677246e+00 1.836977720260620117e+00 3.327762782573699951e-01 4.312936067581176758e-01 -4.765906929969787598e-01 8.969749212265014648e-01 -7.817465662956237793e-01 -8.408688306808471680e-01 1.010297417640686035e+00 -9.597111344337463379e-01 -2.749750614166259766e+00 -5.231928080320358276e-03 -1.698419451713562012e-01 -8.314014673233032227e-01 -2.298083901405334473e-02 -1.443531990051269531e+00 -7.350859642028808594e-01 -2.640896439552307129e-01 1.853104710578918457e+00 1.664109528064727783e-01 6.965326070785522461e-01 4.575327336788177490e-01 -3.402236104011535645e-01 7.868648171424865723e-01 2.093115806579589844e+00
-6.611625552177429199e-01 -5.369109511375427246e-01 -8.803018927574157715e-01 2.938387691974639893e-01 -5.134878754615783691e-01 5.588718056678771973e-01 -2.531178295612335205e-01 6.322639435529708862e-02 -6.654542088508605957e-01 -2.910730361938476562e+00 6.812699437141418457e-01 -4.816956818103790283e-01 2.260836958885192871e-01 1.356466174125671387e+00 -4.699128270149230957e-01 -9.696373939514160156e-01 1.665592312812805176e+00 -2.356802821159362793e-01 -6.876028776168823242e-01 -8.879557251930236816e-01 4.829758703708648682e-01 1.770103216171264648e+00 -4.740282893180847168e-01 1.210901975631713867e+00 -9.737216234207153320e-01 -6.091580390930175781e-01 2.366174161434173584e-01 -1.163242459297180176e+00 -3.391832113265991211e-01 -6.377311348915100098e-01 4.299355447292327881e-01 -7.710415124893188477e-01
-2.458547592163085938e+00 2.537898421287536621e-01 -4.106414616107940674e-01 -5.788482427597045898e-01 8.367881178855895996e-01 7.234935164451599121e-01 1.642055988311767578e+00 1.868700146675109863e+00 8.487105369567871094e-01 -1.096623420715332031e+00 2.501058205962181091e-02 1.706754684448242188e+00 -5.967061519622802734e-01 -1.277816534042358398e+00 2.697581052780151367e-01 1.348211884498596191e+00 -1.028461098670959473e+00 -1.033558726310729980e+00 1.181864261627197266e+00 -8.482798933982849121e-01 -3.052260875701904297e-01 -5.684913396835327148e-01 6.121678948402404785e-01 2.806221246719360352e-01 -5.397452116012573242e-01 -1.004887700080871582e+00 1.349443435668945312e+00 7.359059453010559082e-01 -1.022830128669738770e+00 8.792568445205688477e-01 -1.141580104827880859e+00 -8.097167611122131348e-01
-1.600455760955810547e+00 -1.609470129013061523e+00 -1.873635292053222656e+00 -7.408667206764221191e-01 -1.919579625129699707e+00 1.535536527633666992e+00 -4.788579344749450684e-01 2.299683094024658203e+00 -8.957079648971557617e-01 1.186243653297424316e+00 7.482761144638061523e-01 -8.613235950469970703e-01 1.987187743186950684e+00 -1.037961125373840332e+00 6.478356719017028809e-01 -7.692580223083496094e-01 8.227449655532836914e-01 -2.940004348754882812e+00 9.879107475280761719e-01 -1.142614603042602539e+00 -8.943578600883483887e-01 1.533364653587341309e+00 1.232833623886108398e+00 1.004447579383850098e+00 -3.522027283906936646e-02 2.119388818740844727e+00 8.758641481399536133e-01 -1.293615698814392090e-01 5.201264619827270508e-01 8.552935123443603516e-01 1.652349978685379028e-01 -1.389939904212951660e+00
-1.911011338233947754e+00 2.083263635635375977e+00 2.139062643051147461e+00 -4.522614777088165283e-01 8.897784948348999023e-01 -6.329450011253356934e-01 1.852681994438171387e+00 -4.136356711387634277e-01 6.826406717300415039e-01 -9.785555005073547363e-01 -1.036593317985534668e+00 -4.902788698673248291e-01 -8.367179036140441895e-01 -9.396577477455139160e-01 -9.808484911918640137e-01 1.157934069633483887e+00 -1.422034651041030884e-01 3.291218578815460205e-01 -3.688419163227081299e-01 1.525593400001525879e-01 -8.443655967712402344e-01 -1.526368498802185059e+00 -1.317418456077575684e+00 1.126218438148498535e+00 9.038862586021423340e-01 7.843385338783264160e-01 1.160821676254272461e+00 5.561937764286994934e-02 -1.784876465797424316e+00 9.580982476472854614e-02 1.437000930309295654e-01 9.196714758872985840e-01
-5.410673618316650391e-01 -1.233568862080574036e-01 1.420503854751586914e+00 1.546549201011657715e+00 9.004014730453491211e-02 5.944359898567199707e-01 -3.200621306896209717e-01 -2.220328569412231445e+00 -9.819624423980712891e-01 -3.625281453132629395e-01 1.330388426780700684e+00 5.316444039344787598e-01 1.102924272418022156e-01 -2.776344418525695801e-01 -1.323257327079772949e+00 -2.353300094604492188e+00 -2.136188745498657227e+00 -6.814346909523010254e-01 1.215746998786926270e+00 9.900367856025695801e-01 -8.109823465347290039e-01 1.781605243682861328e+00 -2.896391868591308594e+00 -1.607332944869995117e+00 4.764719009399414062e-01 -4.761748909950256348e-01 -8.887080550193786621e-01 8.825771212577819824e-01 1.138704180717468262e+00 1.054626226425170898e+00 -7.543923258781433105e-01 9.259219765663146973e-01
-1.324226856231689453e+00 6.763883233070373535e-01 1.243929028511047363e+00 3.409148752689361572e-02 3.876009285449981689e-01 -1.706118345260620117e+00 -6.917545199394226074e-01 -1.038519144058227539e+00 -6.029299497604370117e-01 6.528929471969604492e-01 -2.718930542469024658e-01 5.920724868774414062e-01 -1.049243211746215820e+00 -6.529975533485412598e-01 -1.564932465553283691e-01 2.345364987850189209e-01 -6.578110456466674805e-01 -6.166670918464660645e-01 1.036913871765136719e+00 8.375914096832275391e-01 -1.628865480422973633e+00 -6.759399771690368652e-01 9.586903452873229980e-01 1.139640927314758301e+00 -2.832787632942199707e-01 7.608160376548767090e-01 2.342353314161300659e-01 1.498006582260131836e+00 2.918547391891479492e-01 -4.356990456581115723e-01 7.636471390724182129e-01 6.556526422500610352e-01
1.321176767349243164e+00 -3.046418307349085808e-03 -2.824472449719905853e-02 -3.125916123390197754e-01 -3.855358660221099854e-01 -7.357611507177352905e-02 5.177290439605712891e-01 -4.067777991294860840e-01 3.109141625463962555e-02 -1.028343215584754944e-01 -6.022724509239196777e-01 3.024511337280273438e-01 -1.247176408767700195e+00 4.229435026645660400e-01 -3.292438387870788574e-01 3.003760576248168945e-01 -6.341704726219177246e-01 -1.384758830070495605e+00 1.208916783332824707e+00 6.998500972986221313e-02 -1.089279204607009888e-01 -1.608206927776336670e-01 2.890317440032958984e-01 2.364104986190795898e+00 1.809874653816223145e+00 1.813701272010803223e+00 1.542880237102508545e-01 1.226793527603149414e+00 -9.444957375526428223e-01 1.193582564592361450e-01 -1.624316334724426270e+00 -2.831208705902099609e-01
1.329713821411132812e+00 -6.185532808303833008e-01 3.102077245712280273e-01 -7.162351608276367188e-01 8.090407848358154297e-01 -9.371070861816406250e-01 -1.446900486946105957e+00 -1.383196830749511719e+00 -7.078387737274169922e-01 1.782171845436096191e+00 -8.439190387725830078e-01 -1.767625451087951660e+00 -1.190736651420593262e+00 -2.722897291183471680e+00 -7.004319429397583008e-01 -7.636761069297790527e-01 9.600666761398315430e-01 -1.346034526824951172e+00 -2.874475345015525818e-02 -1.244648575782775879e+00 -7.532734870910644531e-01 3.112006187438964844e-01 -4.115471243858337402e-01 4.005230665206909180e-01 1.663862764835357666e-01 -7.069079205393791199e-03 -6.845209002494812012e-01 3.334867954254150391e-01 -2.038688659667968750e-01 -8.883637189865112305e-01 6.751022934913635254e-01 2.804461121559143066e-01
-6.226106882095336914e-01 8.665349483489990234e-01 -7.291546463966369629e-01 -9.318400621414184570e-01 -1.260300993919372559e+00 7.407177090644836426e-01 -2.253904789686203003e-01 -1.873833388090133667e-01 5.642415285110473633e-01 -2.580836713314056396e-01 3.120211362838745117e-01 6.531899571418762207e-01 5.654318332672119141e-01 6.760710477828979492e-01 5.538558959960937500e-01 -3.934260606765747070e-01 8.557201623916625977e-01 5.290149152278900146e-02 3.797310590744018555e-01 -1.367923736572265625e+00 1.876322388648986816e+00 -3.039638400077819824e-01 -5.388575792312622070e-02 -8.118817806243896484e-01 1.516873359680175781e+00 -5.263790488243103027e-01 -7.730864286422729492e-01 -6.821761131286621094e-01 -6.771057248115539551e-01 -2.125536680221557617e+00 2.248498439788818359e+00 -1.765750885009765625e+00
1.181269288063049316e-01 2.390145212411880493e-01 7.839804887771606445e-01 2.222158432006835938e+00 2.479358911514282227e-01 -5.931111574172973633e-01 4.316464662551879883e-01 -1.918920278549194336e+00 -1.975406050682067871e+00 1.034748181700706482e-01 -1.060082316398620605e+00 9.244149923324584961e-02 1.341217011213302612e-01 4.389959573745727539e-01 2.994564473628997803e-01 -9.430842995643615723e-01 6.404935121536254883e-01 -8.262425661087036133e-01 -3.609176576137542725e-01 1.236037015914916992e+00 3.806154251098632812e+00 -1.018524527549743652e+00 -7.183023542165756226e-02 7.676178589463233948e-03 1.061928987503051758e+00 3.664762079715728760e-01 -5.343586951494216919e-02 8.316542506217956543e-01 3.492466509342193604e-01 1.694927662611007690e-01 1.171977877616882324e+00 9.563467651605606079e-02
1.044636130332946777e+00 -3.726892173290252686e-02 -5.721579194068908691e-01 -7.051777243614196777e-01 -3.746749460697174072e-01 4.222596585750579834e-01 -2.468602359294891357e-01 4.480049610137939453e-01 1.386788129806518555e+00 -3.676272332668304443e-01 -2.290839515626430511e-02 -9.103268384933471680e-02 5.523262619972229004e-01 -3.626750111579895020e-01 -1.311219096183776855e+00 5.159631371498107910e-01 -1.468956172466278076e-01 -1.288493871688842773e+00 9.850743412971496582e-01 -7.762628197669982910e-01 8.349209427833557129e-01 1.370709657669067383e+00 -1.321115374565124512e+00 -3.092639207839965820e+00 1.209070563316345215e+00 -3.019160330295562744e-01 7.275820374488830566e-01 5.637876987457275391e-01 -3.151145577430725098e-01 -5.987733229994773865e-02 -4.423639476299285889e-01 1.410278826951980591e-01
-3.068077862262725830e-01 -4.371669143438339233e-03 2.422064691781997681e-01 -3.451335057616233826e-02 -7.852727174758911133e-01 5.794712305068969727e-01 4.200766980648040771e-02 -1.495603799819946289e+00 -1.049391984939575195e+00 1.499430298805236816e+00 3.219516277313232422e-01 -2.918165735900402069e-02 5.025613307952880859e-01 9.279155135154724121e-01 -2.545640766620635986e-01 8.600376844406127930e-01 -6.978479772806167603e-02 1.119847416877746582e+00 -1.680878400802612305e+00 1.220204532146453857e-01 -2.104071229696273804e-01 -1.533440947532653809e+00 -1.676258087158203125e+00 -3.706744015216827393e-01 -3.857822120189666748e-01 7.973175048828125000e-01 2.283674925565719604e-01 1.501492738723754883e+00 -8.512281775474548340e-01 -9.764674901962280273e-01 -8.768109977245330811e-02 5.370202288031578064e-02
1.620324969291687012e+00 -3.814864754676818848e-01 3.170334696769714355e-01 8.828853964805603027e-01 1.348693966865539551e+00 8.895645737648010254e-01 4.222467541694641113e-01 1.549715995788574219e+00 7.277874350547790527e-01 1.468742638826370239e-01 -3.742112517356872559e-01 -1.161237359046936035e+00 4.314564168453216553e-01 6.928721666336059570e-01 -6.947911977767944336e-01 1.219762802124023438e+00 -1.994335174560546875e+00 7.947615981101989746e-01 -2.601728439331054688e-01 6.114392727613449097e-02 3.729560673236846924e-01 2.364559620618820190e-01 -1.088146716356277466e-01 -6.067446991801261902e-02 1.647299408912658691e+00 -6.098431348800659180e-01 1.998373866081237793e+00 -1.377106785774230957e+00 -8.846265673637390137e-01 -5.781343579292297363e-01 4.211746454238891602e-01 -4.430904090404510498e-01
-5.152264237403869629e-01 -6.516652703285217285e-01 -4.845713973045349121e-01 -3.500412404537200928e-01 -1.299038290977478027e+00 -4.333762526512145996e-01 2.319295108318328857e-01 -9.531322121620178223e-01 1.939029097557067871e+00 1.636863470077514648e+00 1.700691819190979004e+00 -5.191753506660461426e-01 -3.386744260787963867e-01 1.471686661243438721e-01 -4.673475027084350586e-02 -1.762921214103698730e+00 -5.875028371810913086e-01 -6.146311163902282715e-01 8.037526160478591919e-02 2.574005126953125000e-01 -1.789005041122436523e+00 2.533277869224548340e-01 -1.215998053550720215e+00 -4.508388638496398926e-01 -7.444347739219665527e-01 -4.880110174417495728e-02 1.615217685699462891e+00 -1.874087899923324585e-01 1.487230539321899414e+00 -7.307005524635314941e-01 -1.918875217437744141e+00 2.009750127792358398e+00
-1.024950027465820312e+00 1.844065636396408081e-01 7.174602746963500977e-01 3.806870281696319580e-01 -4.980927407741546631e-01 1.321853995323181152e+00 1.029722213745117188e+00 4.029093384742736816e-01 -5.378150343894958496e-01 4.811915159225463867e-01 6.854813694953918457e-01 -3.727762401103973389e-01 -8.225567340850830078e-01 -4.175288975238800049e-01 1.855286478996276855e+00 2.367095835506916046e-02 -5.294184088706970215e-01 5.442531704902648926e-01 -1.132928729057312012e+00 -4.080539643764495850e-01 -1.951138973236083984e+00 -2.939019501209259033e-01 -7.038867473602294922e-01 -1.559169173240661621e+00 7.479346394538879395e-01 1.047176718711853027e+00 -1.003216505050659180e-01 -2.938298583030700684e-01 6.283639669418334961e-01 8.402517437934875488e-01 7.664354890584945679e-02 -1.645871251821517944e-01
4.717888236045837402e-01 -2.118491679430007935e-01 4.842422008514404297e-01 -5.020943880081176758e-01 -2.243420779705047607e-01 3.084191679954528809e-01 -8.756962418556213379e-01 6.853578686714172363e-01 -5.136950016021728516e-01 -6.044044494628906250e-01 2.375712574576027691e-05 -1.493109226226806641e+00 1.050787344574928284e-01 -4.667118936777114868e-02 -1.251314878463745117e+00 -7.462304234504699707e-01 5.886927992105484009e-02 -9.677045047283172607e-02 -1.020210981369018555e+00 5.062789320945739746e-01 -3.724749982357025146e-01 -9.959104061126708984e-01 2.162900120019912720e-01 -4.345231652259826660e-01 7.881743460893630981e-02 -9.112215042114257812e-01 5.345574617385864258e-01 -2.740937285125255585e-03 1.343119263648986816e+00 7.582166790962219238e-01 -8.013061285018920898e-01 6.662184000015258789e-01
-3.439500033855438232e-01 1.628687620162963867e+00 -2.888028919696807861e-01 -5.220444798469543457e-01 -1.579232215881347656e-01 -2.129644751548767090e-01 1.647606968879699707e+00 4.321042299270629883e-01 1.979880809783935547e+00 -1.132750511169433594e+00 7.939665913581848145e-01 -3.898153305053710938e-01 1.833866477012634277e+00 -6.318900585174560547e-01 1.049676299095153809e+00 -5.658947229385375977e-01 2.513483285903930664e+00 -3.192329704761505127e-01 1.048972249031066895e+00 -3.603041768074035645e-01 -4.732596278190612793e-01 7.609423398971557617e-01 1.292671203613281250e+00 1.305828690528869629e+00 3.085264861583709717e-01 9.480409622192382812e-01 6.753223538398742676e-01 1.061823070049285889e-01 5.243666470050811768e-02 7.710975408554077148e-01 1.072255373001098633e+00 1.590436458587646484e+00
-3.386918008327484131e-01 6.042824387550354004e-01 1.123112201690673828e+00 -7.537969350814819336e-01 7.277358174324035645e-01 -1.461739689111709595e-01 -5.325775220990180969e-02 2.080770015716552734e+00 4.703342020511627197e-01 -1.772257328033447266e+00 2.658460438251495361e-01 9.955328702926635742e-02 -1.241282582283020020e+00 5.304539203643798828e-01 -2.301756858825683594e+00 1.027934789657592773e+00 -1.431981205940246582e+00 3.065035641193389893e-01 -1.592321634292602539e+00 -2.754018545150756836e+00 4.527473151683807373e-01 2.876980781555175781e+00 5.848754644393920898e-01 9.831667542457580566e-01 -1.419677615165710449e+00 2.220539189875125885e-02 4.018966555595397949e-01 3.565348386764526367e-01 6.959654092788696289e-01 2.297180294990539551e-01 9.533336162567138672e-01 -5.877609252929687500e-01
-3.218236565589904785e-01 -1.390166640281677246e+00 6.342598199844360352e-01 1.263303875923156738e+00 -7.649283409118652344e-01 -7.354818284511566162e-02 -1.245609521865844727e+00 4.384735822677612305e-01 1.932419657707214355e+00 3.519806563854217529e-01 -2.042720764875411987e-01 7.699393630027770996e-01 3.431145250797271729e-01 7.743383646011352539e-01 6.232420206069946289e-01 -3.307652473449707031e+00 1.029888153076171875e+00 7.998813986778259277e-01 -6.993585824966430664e-01 -1.724501013755798340e+00 -1.298904538154602051e+00 3.034889996051788330e-01 1.010242700576782227e+00 -6.362491250038146973e-01 -2.132298052310943604e-01 5.089496970176696777e-01 -1.321663975715637207e+00 -1.293595552444458008e+00 -1.476534485816955566e+00 1.243493080139160156e+00 -7.618752717971801758e-01 1.532674551010131836e+00
-1.769501119852066040e-01 -1.542300105094909668e+00 -3.138331770896911621e-01 -1.883480429649353027e+00 -1.189414620399475098e+00 1.059328615665435791e-01 -6.061313152313232422e-01 -4.903929829597473145e-01 -1.842005364596843719e-02 -3.338449448347091675e-02 1.141046524047851562e+00 -5.057535171508789062e-01 1.014900565147399902e+00 1.644451856613159180e+00 -3.420550227165222168e-01 -8.398061394691467285e-01 -4.917939007282257080e-01 1.457501411437988281e+00 -4.771471768617630005e-02 4.366094470024108887e-01 -1.151531100273132324e+00 6.837247610092163086e-01 -4.636292457580566406e-01 1.478406488895416260e-01 -1.741214543581008911e-01 2.664101362228393555e+00 1.407001495361328125e+00 3.923510909080505371e-01 1.501382350921630859e+00 1.440892815589904785e+00 1.225339174270629883e+00 -2.396166086196899414e+00
1.101441264152526855e+00 1.037292838096618652e+00 -1.711602807044982910e+00 5.652050971984863281e-01 1.036599278450012207e+00 5.191810727119445801e-01 1.017481535673141479e-01 8.899349570274353027e-01 1.457257151603698730e+00 4.476895630359649658e-01 1.423084139823913574e+00 9.764596074819564819e-02 1.626453101634979248e-01 -3.574682474136352539e-01 -1.340184450149536133e+00 2.251499414443969727e+00 1.011244416236877441e+00 -2.264353513717651367e+00 1.089801862835884094e-01 -2.202899008989334106e-02 8.352684974670410156e-01 -9.992984682321548462e-02 4.213078916072845459e-01 2.745432555675506592e-01 -7.731006145477294922e-01 1.002831220626831055e+00 7.047560811042785645e-01 4.404987692832946777e-01 3.671904802322387695e-01 6.143007799983024597e-02 3.721331357955932617e-01 2.531565725803375244e-01
1.179811835289001465e+00 -4.953612387180328369e-02 6.355305016040802002e-02 -3.302986323833465576e-01 1.002725839614868164e+00 -1.242663860321044922e+00 -1.947273612022399902e+00 1.167649030685424805e+00 -1.088443160057067871e+00 -5.387132167816162109e-01 9.761638194322586060e-02 -1.043412804603576660e+00 -1.529761791229248047e+00 1.017880797386169434e+00 1.006285548210144043e+00 1.601924449205398560e-01 -7.402206957340240479e-02 4.870565142482519150e-03 -2.611379325389862061e-02 -2.619951665401458740e-01 1.140553236007690430e+00 3.436041116714477539e+00 -2.200663566589355469e+00 1.126705646514892578e+00 1.173972964286804199e+00 2.833495736122131348e-01 -2.886892557144165039e-01 -1.941209077835083008e+00 1.447532057762145996e+00 1.209022402763366699e+00 -2.895249426364898682e-01 -1.313564032316207886e-01
-7.675329446792602539e-01 8.539831042289733887e-01 6.354531049728393555e-01 1.397652268409729004e+00 9.423182010650634766e-01 -1.261295318603515625e+00 1.489721894264221191e+00 -1.080400869250297546e-02 6.113081574440002441e-01 9.316511750221252441e-01 -2.911686003208160400e-01 -2.569530606269836426e-01 -2.159639894962310791e-01 -1.542282849550247192e-01 -9.353936910629272461e-01 -3.972375392913818359e-01 -8.947791457176208496e-01 6.398675441741943359e-01 -1.869162559509277344e+00 -8.024835586547851562e-01 -6.107990443706512451e-02 5.722611546516418457e-01 8.132338523864746094e-02 5.684760212898254395e-01 -4.618493914604187012e-01 1.527307510375976562e+00 1.013257265090942383e+00 4.942750930786132812e-01 -6.968188285827636719e-01 1.927548766136169434e+00 -9.743747711181640625e-01 3.172341287136077881e-01
-2.942789196968078613e-01 -1.881771683692932129e-01 3.027844727039337158e-01 -2.356383204460144043e-01 2.890107631683349609e-01 2.856487274169921875e+00 -8.767965435981750488e-01 -1.029325127601623535e+00 9.828149676322937012e-01 -5.532144382596015930e-02 3.185618221759796143e-01 -1.275806277990341187e-01 1.134594798088073730e+00 1.071705203503370285e-02 2.351546049118041992e+00 1.505649089813232422e+00 -1.294486969709396362e-01 -5.449275970458984375e-01 -3.195480108261108398e-01 -1.088478088378906250e+00 -1.085684776306152344e+00 1.527092933654785156e+00 1.485351622104644775e-01 -1.742458194494247437e-01 2.276653647422790527e-01 -5.023378133773803711e-01 -6.809557080268859863e-01 9.823787212371826172e-02 6.140227913856506348e-01 1.798566222190856934e+00 1.737358123064041138e-01 -1.725836038589477539e+00
-7.463415265083312988e-01 -4.894646257162094116e-02 1.328279674053192139e-01 6.365399956703186035e-01 -5.809058547019958496e-01 1.673930525779724121e+00 -6.298645734786987305e-01 -9.259248971939086914e-01 -1.216977357864379883e+00 -5.523735880851745605e-01 2.548086643218994141e-01 1.900100708007812500e+00 1.482198953628540039e+00 3.804488852620124817e-02 1.734981894493103027e+00 -5.804396271705627441e-01 2.847467958927154541e-01 -1.498040318489074707e+00 1.388481974601745605e+00 -1.492187380790710449e+00 2.225500941276550293e-01 -4.485507309436798096e-02 -1.148215055465698242e+00 -1.236861944198608398e+00 3.246347308158874512e-01 -3.528262615203857422e+00 7.479059696197509766e-01 6.327742934226989746e-01 -7.657331824302673340e-01 1.998848319053649902e-01 -8.274786472320556641e-01 1.813479661941528320e-01
7.517247647047042847e-02 -2.993093132972717285e-01 -1.170967936515808105e+00 -9.771662205457687378e-02 -4.981869161128997803e-01 -1.017784953117370605e+00 -1.017664313316345215e+00 -5.012560486793518066e-01 2.229157835245132446e-01 -8.629537224769592285e-01 -8.544336557388305664e-01 4.473055303096771240e-01 -2.361628770828247070e+00 4.062416851520538330e-01 1.092983722686767578e+00 3.392427861690521240e-01 5.616259574890136719e-01 8.297711014747619629e-01 4.540361166000366211e-01 6.897078752517700195e-01 2.514042556285858154e-01 -4.255167245864868164e-01 -3.904271423816680908e-01 2.955667078495025635e-01 6.499021053314208984e-01 2.550604939460754395e-01 4.137019217014312744e-01 3.075924634933471680e+00 -1.122745752334594727e+00 -1.894378423690795898e+00 -1.047647476196289062e+00 2.185066044330596924e-01
5.508660078048706055e-01 -2.073615550994873047e+00 5.968282222747802734e-01 8.827961087226867676e-01 4.697268009185791016e-01 1.277330040931701660e+00 2.150653153657913208e-01 4.545826315879821777e-01 -1.723900251090526581e-02 -3.487144112586975098e-01 -3.886392712593078613e-02 1.171120285987854004e+00 1.187572717666625977e+00 -4.338302910327911377e-01 2.738986611366271973e-01 2.581626892089843750e+00 1.467615216970443726e-01 1.270804047584533691e+00 6.448963880538940430e-01 7.166500687599182129e-01 -3.724391758441925049e-01 1.155462980270385742e+00 5.973713994026184082e-01 -4.110926091670989990e-01 -8.941671848297119141e-01 5.294776335358619690e-02 4.474276304244995117e-01 -3.158391714096069336e-01 2.650608122348785400e-01 -2.440112382173538208e-01 -1.976973414421081543e-01 -1.284504413604736328e+00
4.531647562980651855e-01 -1.224664449691772461e+00 -8.859173655509948730e-01 9.619807600975036621e-01 2.145228147506713867e+00 -1.333784699440002441e+00 -9.927995800971984863e-01 -8.704463243484497070e-01 1.649808049201965332e+00 3.042665421962738037e-01 8.454827070236206055e-01 -9.550210237503051758e-01 1.456289052963256836e+00 -6.031026840209960938e-01 1.206924796104431152e+00 2.512786865234375000e+00 6.256712675094604492e-01 -7.582876086235046387e-01 -3.043624162673950195e-01 -5.914734005928039551e-01 1.153349518775939941e+00 2.149778604507446289e-01 6.242857575416564941e-01 8.429032564163208008e-01 1.266706705093383789e+00 5.057839155197143555e-01 -1.320261955261230469e+00 -1.303244829177856445e+00 -2.429534673690795898e+00 9.418395161628723145e-01 1.371076703071594238e-01 -6.503509283065795898e-01
4.902496635913848877e-01 -5.690540671348571777e-01 -1.370233148336410522e-01 -8.285860419273376465e-01 -1.571985840797424316e+00 4.773407280445098877e-01 -3.410882353782653809e-01 -1.793543398380279541e-01 -3.315205872058868408e-01 5.946900844573974609e-01 -3.131702840328216553e-01 -5.184694528579711914e-01 -1.153001308441162109e+00 -3.895708620548248291e-01 -6.542991399765014648e-01 -1.504336714744567871e+00 -8.598541021347045898e-01 5.096482038497924805e-01 1.000322818756103516e+00 1.180907845497131348e+00 5.145740509033203125e-01 -5.643706917762756348e-01 -1.122149109840393066e+00 -5.860660672187805176e-01 9.196336567401885986e-02 -9.955357909202575684e-01 2.764164805412292480e-01 1.384818792343139648e+00 1.355545163154602051e+00 1.241686820983886719e+00 3.534521535038948059e-02 7.052753567695617676e-01
4.132893085479736328e-01 -4.563801586627960205e-01 -2.035658806562423706e-01 -1.723067164421081543e-01 3.721246421337127686e-01 7.013449072837829590e-01 1.879229068756103516e+00 -1.230530023574829102e+00 -5.431622862815856934e-01 1.984725832939147949e+00 2.020979881286621094e+00 -1.072315573692321777e+00 9.008102416992187500e-01 1.628680586814880371e+00 -7.329621911048889160e-01 5.913208723068237305e-01 -2.200097888708114624e-01 6.805985569953918457e-01 7.226054668426513672e-01 -7.440874725580215454e-02 -2.140732526779174805e+00 -1.902944326400756836e+00 -1.337984681129455566e+00 -4.187721610069274902e-01 -1.347070097923278809e+00 7.021859884262084961e-01 2.010739803314208984e+00 -6.588370203971862793e-01 1.597396135330200195e+00 6.658405661582946777e-01 7.809777259826660156e-01 1.767819046974182129e+00
1.919374585151672363e+00 3.983961883932352066e-03 -1.098327040672302246e+00 1.336983442306518555e+00 -1.155437063425779343e-02 2.093193978071212769e-01 -1.422728657722473145e+00 2.712861299514770508e-01 -5.403191316872835159e-03 8.346640467643737793e-01 9.908061027526855469e-01 1.334399580955505371e-01 6.112708449363708496e-01 1.441230058670043945e+00 3.655343651771545410e-01 -3.499440550804138184e-01 1.972173929214477539e+00 1.742616295814514160e+00 3.013972640037536621e-01 -2.513387203216552734e-01 -2.799434065818786621e-01 -2.594032287597656250e-01 -2.121674776077270508e+00 -6.226218491792678833e-02 -1.056714177131652832e+00 7.684182375669479370e-02 -1.631441563367843628e-01 -8.465242572128772736e-03 -7.286505699157714844e-01 -3.771859109401702881e-01 5.027450323104858398e-01 -1.688039422035217285e+00
-1.156500935554504395e+00 -1.501125335693359375e+00 1.662641316652297974e-01 -3.533887565135955811e-01 1.112553000450134277e+00 -9.804636836051940918e-01 -1.036297321319580078e+00 1.468716144561767578e+00 -3.558078706264495850e-01 -2.123548746109008789e+00 4.718593955039978027e-01 8.317059278488159180e-01 2.920203804969787598e-01 -2.331215143203735352e+00 -8.208554983139038086e-02 1.394099593162536621e+00 1.836010694503784180e+00 -2.895042300224304199e-01 7.105445861816406250e-01 -6.480496525764465332e-01 1.304025173187255859e+00 -1.517502903938293457e+00 2.551726579666137695e+00 -9.932339191436767578e-01 -5.826654285192489624e-02 -3.401775658130645752e-01 -8.316030502319335938e-01 1.311425209045410156e+00 2.034790992736816406e+00 3.119218349456787109e-01 -5.920724272727966309e-01 3.234982788562774658e-01
7.783915996551513672e-01 6.121348738670349121e-01 -1.080712199211120605e+00 -1.427200675010681152e+00 1.017089605331420898e+00 1.242768540978431702e-01 -1.456022411584854126e-01 -2.283568382263183594e+00 -1.375805854797363281e+00 2.960968911647796631e-01 -9.522217512130737305e-01 6.623499989509582520e-01 -3.605942428112030029e-01 -3.700498044490814209e-01 8.605555444955825806e-02 1.258642673492431641e+00 6.433455944061279297e-01 1.591353058815002441e+00 4.307806789875030518e-01 -6.581277251243591309e-01 -1.132915973663330078e+00 -1.505642771720886230e+00 -1.282104015350341797e+00 4.011522233486175537e-01 1.057243943214416504e+00 -1.652907729148864746e+00 -8.909997940063476562e-01 6.141988188028335571e-02 7.056660652160644531e-01 -8.553823232650756836e-01 -7.408177852630615234e-01 -7.337336540222167969e-01
2.463545799255371094e+00 -1.104893833398818970e-01 2.254541367292404175e-01 -1.198584794998168945e+00 1.505136728286743164e+00 -7.094171047210693359e-01 1.236453652381896973e+00 -2.858409881591796875e-01 -1.192462205886840820e+00 -2.381342351436614990e-01 2.445365339517593384e-01 -9.428969621658325195e-01 -7.595116496086120605e-01 -1.339418720453977585e-02 6.533616781234741211e-01 -1.320131421089172363e+00 4.928527474403381348e-01 6.550714969635009766e-01 3.901216015219688416e-02 -1.501238495111465454e-01 8.074391484260559082e-01 1.074339032173156738e+00 -2.233375072479248047e+00 -1.064324378967285156e+00 -1.355127334594726562e+00 5.118074268102645874e-02 1.583598852157592773e+00 4.136609137058258057e-01 7.140636444091796875e-01 -1.034931302070617676e+00 1.650126725435256958e-01 -4.955546259880065918e-01
1.154171347618103027e+00 1.048583865165710449e+00 -2.065726518630981445e-01 1.399905532598495483e-01 -2.084365606307983398e+00 2.169465422630310059e-01 1.068795442581176758e+00 -5.619138479232788086e-01 2.260319709777832031e+00 2.646415233612060547e-01 1.459694355726242065e-01 2.267457962036132812e+00 2.564508676528930664e+00 -3.560861349105834961e-01 -1.752556204795837402e+00 -1.179796814918518066e+00 -3.987461328506469727e-01 8.850222826004028320e-01 -5.900923013687133789e-01 -2.200720071792602539e+00 3.848146200180053711e-01 5.405402779579162598e-01 8.208978772163391113e-01 5.745884180068969727e-01 -7.950327396392822266e-01 -8.483785986900329590e-01 9.854607582092285156e-01 1.041011214256286621e+00 -3.997631967067718506e-01 5.005624890327453613e-01 -1.839398145675659180e+00 1.896689683198928833e-01
-5.327002406120300293e-01 6.314539313316345215e-01 1.781352877616882324e+00 1.311047911643981934e+00 -4.674004018306732178e-01 -5.217986106872558594e-01 1.660173058509826660e+00 -4.258219599723815918e-01 -1.892815232276916504e+00 -7.289600372314453125e-01 1.429168224334716797e+00 -5.194226503372192383e-01 5.426624789834022522e-03 6.940440535545349121e-01 1.531645655632019043e+00 2.633410215377807617e+00 5.548548698425292969e-01 9.147267788648605347e-02 1.127193093299865723e+00 -1.560069441795349121e+00 2.899610102176666260e-01 9.611487984657287598e-01 9.595378488302230835e-02 1.671417474746704102e+00 -4.814155995845794678e-01 9.702093005180358887e-01 -9.620134234428405762e-01 1.448139071464538574e+00 2.457254678010940552e-01 -1.574511885643005371e+00 8.087756037712097168e-01 1.989248692989349365e-01
-5.781836509704589844e-01 -2.823501229286193848e-01 -1.436083078384399414e+00 6.845146417617797852e-01 -6.874280571937561035e-01 -4.932495653629302979e-01 -3.659226596355438232e-01 9.719282984733581543e-01 2.392118930816650391e+00 -3.688666522502899170e-01 -9.287227988243103027e-01 2.419792652130126953e+00 -1.183037161827087402e-01 1.712701797485351562e+00 1.293641328811645508e+00 -1.644907712936401367e+00 -1.953870654106140137e+00 3.326636552810668945e-01 1.433798670768737793e+00 9.283602833747863770e-01 1.636842012405395508e+00 -2.557212412357330322e-01 -1.689222455024719238e+00 1.156297206878662109e+00 -8.523212671279907227e-01 -8.622607588768005371e-01 6.906136870384216309e-01 2.204819440841674805e+00 -9.827983379364013672e-01 -4.320222735404968262e-01 -1.176114320755004883e+00 -1.260765910148620605e+00
8.441497683525085449e-01 8.605003356933593750e-01 1.431369543075561523e+00 -5.280827283859252930e-01 2.643051147460937500e-01 -2.011697292327880859e-01 -8.959808200597763062e-02 -1.055031567811965942e-01 -5.259359478950500488e-01 6.372953653335571289e-01 5.421864390373229980e-01 2.855767607688903809e-01 -1.301176071166992188e+00 7.117472290992736816e-01 -4.119952023029327393e-02 9.130658507347106934e-01 -2.143249988555908203e+00 6.837447881698608398e-01 1.174513697624206543e+00 -1.765581369400024414e-01 -6.390039324760437012e-01 -1.810394644737243652e+00 -6.927715539932250977e-01 -8.370904922485351562e-01 -6.639834046363830566e-01 -5.462149903178215027e-02 -2.126649618148803711e+00 -1.254057884216308594e+00 -1.021867036819458008e+00 -7.410789132118225098e-01 8.075794577598571777e-02 -4.192526042461395264e-01
-1.105332255363464355e+00 1.724308282136917114e-01 -8.458624482154846191e-01 -7.077937722206115723e-01 -4.274028837680816650e-01 -5.275806784629821777e-01 1.448260664939880371e+00 1.042968153953552246e+00 -1.641954779624938965e+00 4.701051115989685059e-01 -7.598417997360229492e-01 8.827156424522399902e-01 -1.314505815505981445e+00 -7.364521026611328125e-01 -9.160863161087036133e-01 -9.211527705192565918e-01 1.494294166564941406e+00 -1.432576179504394531e-01 -2.353745549917221069e-01 -2.751911580562591553e-01 -3.363999724388122559e-02 2.309902667999267578e+00 9.819126129150390625e-01 3.782421052455902100e-01 -2.166160792112350464e-01 -7.654125094413757324e-01 -6.383683532476425171e-02 1.327519297599792480e+00 5.563570857048034668e-01 7.765960097312927246e-01 1.090551614761352539e+00 2.310110330581665039e-01
6.290367245674133301e-01 -2.004875428974628448e-02 -1.163058757781982422e+00 1.246825575828552246e+00 -1.418895363807678223e+00 -4.267638921737670898e-01 1.183048129081726074e+00 1.866344094276428223e+00 8.553828299045562744e-02 -1.876031041145324707e+00 1.431398630142211914e+00 8.302549719810485840e-01 1.566932320594787598e+00 1.764428615570068359e+00 -9.205249547958374023e-01 -7.120038866996765137e-01 -1.069099187850952148e+00 1.146356105804443359e+00 -2.472619712352752686e-01 1.093006610870361328e+00 1.020389437675476074e+00 1.129369258880615234e+00 -1.072726726531982422e+00 -6.202279329299926758e-01 4.462235867977142334e-01 -6.023047566413879395e-01 1.204124808311462402e+00 -5.532675385475158691e-01 -7.089602351188659668e-01 -4.379660189151763916e-01 -6.338428854942321777e-01 -3.608993291854858398e-01
-5.364341735839843750e-01 -8.109164237976074219e-01 1.574303388595581055e+00 1.370659351348876953e+00 1.921752542257308960e-01 -8.493548035621643066e-01 -1.176426634192466736e-01 -1.938230842351913452e-01 -1.192385792732238770e+00 1.334237456321716309e-01 -1.378573298454284668e+00 -1.284995436668395996e+00 -2.956975698471069336e-01 -3.909886777400970459e-01 -1.123957186937332153e-01 -1.269705653190612793e+00 -1.496366858482360840e-01 -1.969530224800109863e+00 -9.133556485176086426e-01 9.754522442817687988e-01 -1.071663618087768555e+00 3.357905149459838867e-01 -1.496707081794738770e+00 5.162644386291503906e-01 6.115279793739318848e-01 -4.191766679286956787e-01 -9.653649926185607910e-01 1.264833092689514160e+00 1.171576499938964844e+00 -8.395433425903320312e-01 -7.796825170516967773e-01 1.278894543647766113e+00
-8.058775663375854492e-01 -8.867829442024230957e-01 -6.636909246444702148e-01 3.692465424537658691e-01 -1.812787413597106934e+00 3.061997890472412109e-01 -1.566846817731857300e-01 1.253301858901977539e+00 -1.345063328742980957e+00 4.024318978190422058e-02 -4.742359220981597900e-01 -2.217708349227905273e+00 -1.094181776046752930e+00 5.074595212936401367e-01 -5.002668499946594238e-01 -5.155380368232727051e-01 1.789142608642578125e+00 -2.279119491577148438e-01 1.634388923645019531e+00 9.773101806640625000e-01 8.628787398338317871e-01 -1.500752091407775879e+00 -6.250318884849548340e-01 -1.026730895042419434e+00 8.754634857177734375e-01 -1.021738052368164062e+00 -1.981136649847030640e-01 1.265799522399902344e+00 -7.431696653366088867e-01 -5.970289111137390137e-01 -1.912288367748260498e-01 1.807735323905944824e+00
5.551009178161621094e-01 -1.779946386814117432e-01 -7.544454336166381836e-01 -8.550171256065368652e-01 -7.014830112457275391e-01 -8.970574736595153809e-01 -1.463604867458343506e-01 -1.091250777244567871e+00 3.424933254718780518e-01 1.690552592277526855e+00 -8.836102485656738281e-01 -1.973632097244262695e+00 -9.399241805076599121e-01 -1.539680123329162598e+00 1.346801817417144775e-01 -8.117550015449523926e-01 4.295253157615661621e-01 5.682916641235351562e-01 -9.863849878311157227e-01 -5.544001460075378418e-01 -1.135061740875244141e+00 5.443398952484130859e-01 1.099814534187316895e+00 1.042661190032958984e+00 -1.432811379432678223e+00 1.467315077781677246e+00 1.071068644523620605e+00 2.101050615310668945e+00 1.002662181854248047e-01 -1.670301079750061035e+00 -8.297830224037170410e-01 -8.124339580535888672e-01
-1.014781355857849121e+00 -7.042440176010131836e-01 5.506848096847534180e-01 6.124578118324279785e-01 -1.182743608951568604e-01 5.685302615165710449e-01 -9.864056706428527832e-01 1.936263442039489746e-01 -1.743480116128921509e-01 7.110564708709716797e-01 6.464114189147949219e-01 1.149343848228454590e+00 -2.929329574108123779e-01 1.472622394561767578e+00 -1.644092679023742676e+00 -9.224939942359924316e-01 -1.752476841211318970e-01 5.833923816680908203e-01 -8.373128771781921387e-01 -1.029917955398559570e+00 9.648439884185791016e-01 3.010383844375610352e-01 1.203375816345214844e+00 -3.428063094615936279e-01 -5.070779100060462952e-02 -6.691414117813110352e-01 -3.335008621215820312e-01 1.057007387280464172e-01 -1.055398941040039062e+00 -1.252158284187316895e-01 -1.725158333778381348e+00 -2.844099104404449463e-01
4.681428670883178711e-01 1.926881194114685059e+00 -2.173587083816528320e-01 -1.098005473613739014e-01 1.450381577014923096e-01 2.197782546281814575e-01 -2.221758365631103516e+00 -1.032780647277832031e+00 5.756554603576660156e-01 1.578221321105957031e-01 -6.861786842346191406e-01 1.030576348304748535e+00 1.032732605934143066e+00 9.156806468963623047e-01 1.276138544082641602e+00 2.358083486557006836e+00 -1.447914958000183105e+00 -1.068224191665649414e+00 -2.836994081735610962e-02 2.833781957626342773e+00 -2.825702428817749023e-01 -9.384314417839050293e-01 -6.516433358192443848e-01 1.406109426170587540e-02 -1.801410317420959473e+00 1.112900301814079285e-02 8.146794140338897705e-02 -4.585223197937011719e-01 -1.147557735443115234e+00 1.462513923645019531e+00 3.675760328769683838e-01 1.150629281997680664e+00
-2.357540607452392578e+00 1.049042120575904846e-01 -4.586693644523620605e-01 -4.927055239677429199e-01 4.623845219612121582e-01 3.625873029232025146e-01 -8.022589087486267090e-01 7.208620309829711914e-01 1.387137651443481445e+00 -1.557481884956359863e-01 7.113601565361022949e-01 -1.416447877883911133e+00 3.811484575271606445e-02 -6.275932490825653076e-02 -1.733775377273559570e+00 -6.250782012939453125e-01 -3.177695512771606445e+00 5.643569231033325195e-01 -9.150807261466979980e-01 2.629911005496978760e-01 -1.112162947654724121e+00 -5.330090522766113281e-01 -4.850984513759613037e-01 -1.696397811174392700e-01 2.791541218757629395e-01 -5.273186564445495605e-01 -2.778424739837646484e+00 7.569488137960433960e-02 -3.848165869712829590e-01 -2.061340659856796265e-01 -3.194386482238769531e+00 1.521312832832336426e+00
1.123702526092529297e+00 9.445718526840209961e-01 4.447888433933258057e-01 -3.618988692760467529e-01 6.786655187606811523e-01 -1.520381331443786621e+00 -2.147450596094131470e-01 6.992992758750915527e-01 -2.617585062980651855e-01 4.674560427665710449e-01 5.983849763870239258e-01 -1.985866427421569824e-01 -1.288614392280578613e+00 8.087497949600219727e-01 -1.984010636806488037e-01 2.738523483276367188e-01 -4.176177978515625000e-01 2.608928382396697998e-01 -2.700144290924072266e+00 1.539164781570434570e-01 1.834732592105865479e-01 -1.247205376625061035e+00 -8.308371901512145996e-01 -1.819035857915878296e-01 7.180584222078323364e-02 -8.758289217948913574e-01 -9.326019138097763062e-02 -5.471963286399841309e-01 -6.807065010070800781e-01 -7.005419135093688965e-01 -4.854365587234497070e-01 3.697676584124565125e-02
-9.668700695037841797e-01 -1.247805118560791016e+00 -1.338825464248657227e+00 4.005721211433410645e-01 1.673299431800842285e+00 1.084749937057495117e+00 -1.812461316585540771e-01 -1.957192659378051758e+00 1.650114953517913818e-01 1.518430113792419434e-01 -9.270424842834472656e-01 -3.590186238288879395e-01 -2.492866218090057373e-01 8.813424706459045410e-01 -3.447903096675872803e-01 -1.084227919578552246e+00 9.783058762550354004e-01 -5.726031064987182617e-01 1.075269818305969238e+00 -5.310211181640625000e-01 1.553158164024353027e-01 -1.734939366579055786e-01 -3.376182317733764648e-01 -7.088285684585571289e-01 5.294847488403320312e-01 -5.468993186950683594e-01 -5.144683122634887695e-01 7.822048068046569824e-01 2.281549572944641113e-01 -8.500614762306213379e-01 -9.432832598686218262e-01 -1.345551609992980957e-01
4.161033034324645996e-01 7.238066196441650391e-01 2.247477531433105469e+00 2.760105729103088379e-01 -6.485249102115631104e-02 1.340091824531555176e-01 -4.957747459411621094e-01 -1.902125328779220581e-01 3.627632260322570801e-01 7.779932022094726562e-01 -4.180147945880889893e-01 -1.129262074828147888e-01 1.221693605184555054e-01 5.758544430136680603e-02 -1.570084244012832642e-01 -4.063373208045959473e-01 -1.393267035484313965e+00 -1.267200469970703125e+00 -1.129125595092773438e+00 1.928978800773620605e+00 -1.622363179922103882e-02 5.463569760322570801e-01 -2.668935954570770264e-01 -1.104320764541625977e+00 -3.429277837276458740e-01 -5.275079011917114258e-01 -1.360369205474853516e+00 -7.511790841817855835e-02 -1.192251686006784439e-02 6.125429868698120117e-01 -2.427624315023422241e-01 5.946887135505676270e-01
1.861987560987472534e-01 -2.987121641635894775e-01 1.212162494659423828e+00 -1.915591955184936523e-01 -9.949007630348205566e-01 2.002714723348617554e-01 9.465028643608093262e-01 -9.687847644090652466e-02 8.799358010292053223e-01 -7.220746874809265137e-01 6.053817272186279297e-01 4.715727567672729492e-01 1.458765506744384766e+00 2.586776256561279297e+00 -1.296501874923706055e+00 -5.051803588867187500e-01 7.454942464828491211e-01 -9.401877522468566895e-01 8.192920684814453125e-01 2.948945462703704834e-01 -3.491690456867218018e-01 6.934047937393188477e-01 4.621266424655914307e-01 1.023537814617156982e-01 -1.716069579124450684e+00 -8.432886004447937012e-01 -3.426450192928314209e-01 2.615733742713928223e-01 5.155724287033081055e-01 -6.368893384933471680e-01 -9.564587473869323730e-01 1.376091122627258301e+00
8.101383447647094727e-01 2.142061591148376465e-01 -5.427539944648742676e-01 1.524067670106887817e-01 -3.126406967639923096e-01 7.983891367912292480e-01 1.431800961494445801e+00 -8.371849358081817627e-02 -5.727275013923645020e-01 8.134842664003372192e-02 1.245873868465423584e-01 -9.091913700103759766e-01 -1.178394675254821777e+00 -1.972373247146606445e+00 8.283328413963317871e-01 5.533255934715270996e-01 2.452545404434204102e+00 -6.402671337127685547e-01 -1.089691638946533203e+00 1.594534987816587090e-04 1.394626736640930176e+00 1.260870456695556641e+00 7.206113338470458984e-01 -1.608502626419067383e+00 -1.147928357124328613e+00 -2.717125713825225830e-01 1.095262408256530762e+00 -1.831290125846862793e-01 -1.953072786331176758e+00 -2.734719514846801758e-01 1.116051077842712402e+00 -5.118944048881530762e-01
-6.153175234794616699e-01 -2.736482620239257812e-01 3.303508758544921875e-01 -3.095875084400177002e-01 8.203819394111633301e-01 1.035376310348510742e+00 1.411540154367685318e-02 -8.412573337554931641e-01 5.056724548339843750e-01 1.736865162849426270e+00 4.100726842880249023e-01 5.618744995445013046e-03 -5.670748949050903320e-01 -8.369212746620178223e-01 4.091004431247711182e-01 -8.188995718955993652e-01 5.059731006622314453e-01 3.968763723969459534e-02 -2.242415398359298706e-01 -7.466215491294860840e-01 -2.869795262813568115e-01 -5.750391483306884766e-01 -1.265578418970108032e-01 1.642504215240478516e+00 -2.272745072841644287e-01 4.303479567170143127e-02 1.409169316291809082e+00 1.345240354537963867e+00 -6.358314156532287598e-01 8.340851217508316040e-02 2.223297655582427979e-01 -9.276425242424011230e-01
-3.038813173770904541e-01 9.702619314193725586e-01 -8.126633763313293457e-01 9.649556875228881836e-01 1.061741352081298828e+00 -1.058987259864807129e+00 -9.215346574783325195e-01 7.141441106796264648e-01 -5.076663494110107422e-01 -6.720979213714599609e-01 -7.992627024650573730e-01 -1.943521142005920410e+00 -7.296910043805837631e-03 1.318164229393005371e+00 9.754235744476318359e-01 -2.106593996286392212e-01 1.527701258659362793e+00 -2.038289785385131836e+00 -5.842319726943969727e-01 -1.570205211639404297e+00 -5.905388668179512024e-02 -9.725203514099121094e-01 4.384242892265319824e-01 1.474486470222473145e+00 -3.161444067955017090e-01 -7.380301356315612793e-01 -1.258106350898742676e+00 -7.751795053482055664e-01 -1.617620706558227539e+00 -3.240837454795837402e-01 4.540927112102508545e-01 6.292755603790283203e-01
9.885210990905761719e-01 -3.205386698246002197e-01 -7.335919737815856934e-01 -2.361798524856567383e+00 1.613910794258117676e+00 -1.336733222007751465e+00 -3.801383078098297119e-01 -3.627176880836486816e-01 4.352062344551086426e-01 1.723090887069702148e+00 -1.913654357194900513e-01 4.767702519893646240e-01 -2.819245159626007080e-01 3.035465776920318604e-01 -1.486383229494094849e-01 -9.139063358306884766e-01 2.723116800189018250e-02 6.551058888435363770e-01 8.886435031890869141e-01 -1.069375038146972656e+00 5.002586841583251953e-01 3.916557878255844116e-02 1.099015951156616211e+00 1.268456697463989258e+00 1.848831653594970703e+00 8.862903714179992676e-01 6.646094918251037598e-01 4.285719618201255798e-02 2.472199797630310059e-01 3.341377258300781250e+00 4.926476180553436279e-01 -3.237320780754089355e-01
8.795546293258666992e-01 -2.008850723505020142e-01 1.336459994316101074e+00 4.072692245244979858e-02 1.246193766593933105e+00 8.553742170333862305e-01 -9.419115185737609863e-01 4.226795211434364319e-02 2.761799812316894531e+00 1.279054403305053711e+00 1.711207181215286255e-01 1.036258459091186523e+00 7.541616559028625488e-01 -3.737509623169898987e-02 9.135956168174743652e-01 1.945613980293273926e+00 -1.588956415653228760e-01 -5.106432437896728516e-01 6.271036863327026367e-01 1.378650426864624023e+00 -1.142719686031341553e-01 7.516532540321350098e-01 1.588236808776855469e+00 -4.985456168651580811e-02 7.766141891479492188e-01 -2.313789725303649902e-02 -2.688680887222290039e-01 -5.267284512519836426e-01 -3.300156593322753906e-01 1.969964653253555298e-01 4.080779850482940674e-01 -1.154662609100341797e+00
2.770230472087860107e-01 1.279668658971786499e-01 1.675051689147949219e+00 -2.443870306015014648e-01 -4.952893406152725220e-02 2.810729146003723145e-01 2.690439939498901367e+00 -8.448540568351745605e-01 2.092054039239883423e-01 4.143124222755432129e-01 -7.706913352012634277e-01 -2.181178927421569824e-01 -3.378478810191154480e-02 -9.647077322006225586e-01 -8.092221617698669434e-01 5.702730417251586914e-01 -9.425293803215026855e-01 -1.649568676948547363e+00 2.110480785369873047e+00 1.487181425094604492e+00 2.037043273448944092e-01 -1.798767089843750000e+00 -4.024217426776885986e-01 2.061238437891006470e-01 -1.209454774856567383e+00 -1.567746140062808990e-02 1.994032859802246094e-01 -2.176951408386230469e+00 -6.502205729484558105e-01 7.451447248458862305e-01 1.150297403335571289e+00 7.125424146652221680e-01
-7.003098726272583008e-03 1.809074401855468750e+00 1.130065202713012695e+00 9.219149947166442871e-01 1.411978602409362793e+00 -9.224243760108947754e-01 -9.376735091209411621e-01 -2.364687323570251465e-01 -1.426010370254516602e+00 3.813618421554565430e-01 5.983266830444335938e-01 6.594023704528808594e-01 -6.175025179982185364e-02 7.152229547500610352e-02 -6.441463232040405273e-01 9.006073474884033203e-01 2.913595199584960938e+00 -5.716619491577148438e-01 1.911512255668640137e+00 -1.218549966812133789e+00 8.975688815116882324e-01 1.286093592643737793e-01 3.162170648574829102e-01 -3.703865408897399902e-01 -5.042239427566528320e-01 1.067260265350341797e+00 1.246175765991210938e+00 -4.734888076782226562e-01 1.506569832563400269e-01 6.243337988853454590e-01 2.025000005960464478e-01 -1.882380723953247070e+00
-5.709629654884338379e-01 5.283123850822448730e-01 -2.559551000595092773e+00 5.012364983558654785e-01 -7.511896640062332153e-02 9.818054735660552979e-02 1.619851589202880859e+00 -3.291349709033966064e-01 -1.167014718055725098e+00 -1.187337160110473633e+00 1.022143244743347168e+00 4.883454144001007080e-01 -5.634080767631530762e-01 -6.692813038825988770e-01 2.919762432575225830e-01 -1.176403999328613281e+00 -7.973726987838745117e-01 6.872715353965759277e-01 8.336777091026306152e-01 7.231885194778442383e-01 -2.699235677719116211e+00 -4.553011655807495117e-01 -6.724813580513000488e-01 1.718449831008911133e+00 -6.872470490634441376e-03 -3.193362057209014893e-01 1.060775876045227051e+00 -4.375637471675872803e-01 -4.703915715217590332e-01 -1.085294365882873535e+00 -1.504935383796691895e+00 6.222447156906127930e-01
