-6.077142953872680664e-01 -1.126142501831054688e+00 -4.653799533843994141e-01 -1.676529794931411743e-01 -5.996168851852416992e-01 -1.288875818252563477e+00 3.107874095439910889e-01 -9.879205822944641113e-01 2.472248792648315430e+00 3.775816857814788818e-01 1.328765392303466797e+00 1.001877784729003906e+00 1.135101467370986938e-01 9.938511848449707031e-01 -3.376050591468811035e-01 -5.561534762382507324e-01
3.875969052314758301e-01 1.695188134908676147e-01 -5.000442862510681152e-01 -3.426657021045684814e-01 -1.005835890769958496e+00 -5.510786771774291992e-01 1.790086477994918823e-01 4.586713612079620361e-01 1.324009180068969727e+00 1.400381922721862793e+00 1.143478602170944214e-01 5.378773808479309082e-01 1.157505393028259277e+00 -1.120370984077453613e+00 8.015489578247070312e-01 3.134103059768676758e+00
7.887192070484161377e-02 8.861864805221557617e-01 -6.591303348541259766e-01 3.663277626037597656e-01 4.174660146236419678e-01 4.256157279014587402e-01 -5.807011127471923828e-01 -1.301024794578552246e+00 2.044104099273681641e+00 -4.212825298309326172e-01 -7.862512022256851196e-02 1.357565879821777344e+00 -8.986083865165710449e-01 -3.463971018791198730e-01 -2.198103517293930054e-01 1.533914208412170410e+00
3.814032971858978271e-01 -1.192461848258972168e+00 1.229214787483215332e+00 -6.202220916748046875e-01 6.493435502052307129e-01 -8.997238278388977051e-01 -1.699645668268203735e-01 -2.090193033218383789e-01 1.156449317932128906e+00 -5.134502649307250977e-01 5.674018263816833496e-01 1.845014095306396484e-01 2.314627617597579956e-01 -2.826787233352661133e-01 -2.260904014110565186e-01 1.914012193679809570e+00
4.914561510086059570e-01 1.824507355690002441e+00 3.482097983360290527e-01 -1.665539145469665527e+00 7.878173589706420898e-01 1.987852811813354492e+00 -5.671696066856384277e-01 3.315287232398986816e-01 1.891975522041320801e+00 2.218911796808242798e-01 1.236101746559143066e+00 5.034095048904418945e-01 -6.309647113084793091e-02 6.993259489536285400e-02 -1.818274497054517269e-03 6.609329581260681152e-01
-1.099738240242004395e+00 1.435104131698608398e+00 -8.034666776657104492e-01 -9.190040230751037598e-01 -1.957348346710205078e+00 -3.191861510276794434e-01 1.261407971382141113e+00 -6.067176461219787598e-01 -1.468958139419555664e+00 4.467372894287109375e-01 -2.183982133865356445e+00 9.295693635940551758e-01 -2.130923032760620117e+00 4.090887904167175293e-01 9.672273695468902588e-02 -1.833173274993896484e+00
-3.695964515209197998e-01 -1.532734334468841553e-01 1.029108464717864990e-01 -9.359885454177856445e-01 -5.885403752326965332e-01 -1.035747528076171875e+00 8.831405639648437500e-01 -7.279819250106811523e-01 5.365755558013916016e-01 1.547771334648132324e+00 2.304785728454589844e+00 -5.870063304901123047e-01 3.796652331948280334e-02 1.328412652015686035e+00 -2.315197885036468506e-01 2.381610870361328125e-01
4.993995279073715210e-02 4.721618294715881348e-01 1.709305346012115479e-01 4.962898092344403267e-04 5.440676212310791016e-01 6.376500725746154785e-01 -1.523153185844421387e+00 1.391520261764526367e+00 -1.087854862213134766e+00 1.074250340461730957e+00 7.272465825080871582e-01 1.446737527847290039e+00 1.242866754531860352e+00 1.215206384658813477e+00 2.623919725418090820e+00 -7.636348158121109009e-02
-1.534749865531921387e+00 -4.970768988132476807e-01 1.451394319534301758e+00 3.250578939914703369e-01 8.670868277549743652e-01 7.187764346599578857e-02 -9.057010412216186523e-01 2.271731853485107422e+00 1.692732453346252441e+00 -1.212208151817321777e+00 -1.455288052558898926e+00 -1.436969757080078125e+00 3.581836819648742676e-01 1.298112273216247559e-01 -4.995585381984710693e-01 2.290363460779190063e-01
-1.225076079368591309e+00 -5.005486011505126953e-01 2.751772403717041016e-01 -1.729267597198486328e+00 -1.121687054634094238e+00 -8.235675841569900513e-02 1.704808592796325684e+00 7.002279162406921387e-01 -1.188258647918701172e+00 4.951986372470855713e-01 -1.268553376197814941e+00 4.216658473014831543e-01 -7.564167380332946777e-01 7.760591506958007812e-01 6.727572083473205566e-01 -9.485518336296081543e-01
-9.322208911180496216e-02 2.968534529209136963e-01 7.311542332172393799e-02 7.916934490203857422e-01 7.453719377517700195e-01 -1.295293450355529785e+00 -1.578384280204772949e+00 -1.605236172676086426e+00 -1.404370784759521484e+00 6.485562324523925781e-01 2.179003357887268066e-01 -5.914687514305114746e-01 8.956290781497955322e-02 1.182173013687133789e+00 1.866007149219512939e-01 -8.438085317611694336e-01
5.624781250953674316e-01 -1.360213518142700195e+00 -2.908803522586822510e-01 7.754301428794860840e-01 -4.242347776889801025e-01 6.822272539138793945e-01 1.117103576660156250e+00 7.030735015869140625e-01 1.559201925992965698e-01 -1.349286794662475586e+00 1.688010245561599731e-01 4.044366478919982910e-01 -3.668497502803802490e-01 6.464599370956420898e-01 -4.523569345474243164e-01 -1.242299556732177734e+00
-5.068018436431884766e-01 5.612255334854125977e-01 5.324503406882286072e-02 -8.847528696060180664e-01 -6.499337553977966309e-01 -1.504090428352355957e+00 2.784933745861053467e-01 2.108430624008178711e+00 5.280487537384033203e-01 -1.168721914291381836e+00 3.595018386840820312e-01 -2.428101748228073120e-01 1.105751693248748779e-01 1.287867277860641479e-01 7.043957710266113281e-01 1.297749161720275879e+00
-1.093195557594299316e+00 -4.048367738723754883e-01 3.125699758529663086e-01 -8.934816122055053711e-01 1.032013654708862305e+00 -5.381270647048950195e-01 7.863428443670272827e-02 2.422121763229370117e+00 1.831613183021545410e+00 3.018286228179931641e-01 -1.513303041458129883e+00 1.693260788917541504e+00 -5.739612579345703125e-01 5.279283523559570312e-01 6.253138184547424316e-01 1.145753741264343262e+00
-1.877152621746063232e-01 1.096899434924125671e-01 1.421473741531372070e+00 2.984767556190490723e-01 6.560400724411010742e-01 3.812754154205322266e-01 1.480445742607116699e+00 -3.634684160351753235e-02 -3.515748083591461182e-01 -1.290296763181686401e-01 1.817552566528320312e+00 -1.627415567636489868e-01 1.129305601119995117e+00 1.197576284408569336e+00 2.599226951599121094e+00 -8.229926228523254395e-01
2.535489559173583984e+00 -2.320583820343017578e+00 4.497205018997192383e-01 9.397494047880172729e-02 -5.504925847053527832e-01 -8.174211382865905762e-01 2.236297369003295898e+00 -6.670714020729064941e-01 1.059506833553314209e-01 6.717658042907714844e-01 1.669256091117858887e+00 1.925706148147583008e+00 1.258191227912902832e+00 -1.349969506263732910e+00 8.632711768150329590e-01 4.578317105770111084e-01
4.591285884380340576e-01 1.863573312759399414e+00 -1.086932495236396790e-01 3.300389051437377930e-01 -2.721074521541595459e-01 -2.926358580589294434e-01 1.267288923263549805e+00 -4.254795014858245850e-01 -6.035457178950309753e-02 -9.172982536256313324e-03 -3.020864129066467285e-01 8.245556354522705078e-01 -5.110461637377738953e-02 -2.694153785705566406e-02 -1.073570489883422852e+00 -1.203230857849121094e+00
-2.143037319183349609e-01 6.962982006371021271e-04 9.563485532999038696e-02 -1.608305454254150391e+00 -2.489863038063049316e-01 2.733274698257446289e-01 1.160109758377075195e+00 -4.939653873443603516e-01 8.234798908233642578e-01 8.119640350341796875e-01 3.279728442430496216e-02 9.991158731281757355e-03 -9.035654664039611816e-01 1.678814142942428589e-01 9.995724558830261230e-01 -5.593534111976623535e-01
-1.059441119432449341e-01 5.866507887840270996e-01 9.319140911102294922e-01 1.831437349319458008e-01 -1.861262083053588867e+00 -1.037526607513427734e+00 1.575251698493957520e+00 1.658554077148437500e+00 -9.735576510429382324e-01 -5.677984952926635742e-01 2.362016141414642334e-01 1.147238850593566895e+00 3.018211722373962402e-01 1.101923704147338867e+00 6.090707182884216309e-01 -1.016126275062561035e+00
1.423518061637878418e+00 2.858178913593292236e-01 -6.672795414924621582e-01 1.003636717796325684e+00 7.023235559463500977e-01 2.269924134016036987e-01 2.004386425018310547e+00 -8.526185750961303711e-01 -1.500265717506408691e+00 -4.139319360256195068e-01 1.349267244338989258e+00 -1.882182002067565918e+00 -1.191415429115295410e+00 -8.569716811180114746e-01 -5.395181775093078613e-01 -2.622306108474731445e+00
4.944685101509094238e-01 1.745684593915939331e-01 6.166735291481018066e-01 7.495043277740478516e-01 4.105807244777679443e-01 5.431600660085678101e-02 -7.032407522201538086e-01 1.090561389923095703e+00 -1.109621208161115646e-02 -6.893602609634399414e-01 4.792877137660980225e-01 4.746506512165069580e-01 -2.921242415904998779e-01 2.399474531412124634e-01 4.355646371841430664e-01 -5.147165656089782715e-01
-2.252379179000854492e+00 7.117936611175537109e-01 1.934555888175964355e+00 9.111626148223876953e-01 3.311000466346740723e-01 -1.796455740928649902e+00 1.777617216110229492e+00 -4.946804046630859375e-01 -4.579181969165802002e-01 3.867861330509185791e-01 -1.101062417030334473e+00 -4.563142731785774231e-02 1.316459417343139648e+00 1.476345539093017578e+00 -8.177344501018524170e-02 1.948169350624084473e+00
-2.331806868314743042e-01 -1.254144906997680664e+00 -2.591062784194946289e-01 1.263756871223449707e+00 -4.241812825202941895e-01 -5.729181170463562012e-01 -2.966065406799316406e+00 -1.390991806983947754e+00 1.326927423477172852e+00 1.761254221200942993e-01 -6.973093003034591675e-02 -2.801005244255065918e-01 -1.593775749206542969e-01 -9.902886748313903809e-01 1.416151404380798340e+00 -7.340669631958007812e-01
-1.281924486160278320e+00 1.184273004531860352e+00 -1.877960205078125000e+00 -9.196932613849639893e-02 1.316314101219177246e+00 9.102653861045837402e-01 1.622023135423660278e-01 7.849547863006591797e-01 -6.706598997116088867e-01 2.185059309005737305e+00 -4.053669571876525879e-01 -7.991849184036254883e-01 4.443457722663879395e-01 -7.553466558456420898e-01 1.756426095962524414e+00 -2.711400687694549561e-01
-2.206633090972900391e+00 7.943697571754455566e-01 3.366072773933410645e-01 1.126862049102783203e+00 1.753284096717834473e+00 1.057311296463012695e+00 -9.264696836471557617e-01 -1.662349700927734375e-01 -1.778737664222717285e+00 -1.390975832939147949e+00 -6.164642572402954102e-01 1.107213139533996582e+00 -9.419435262680053711e-01 1.293811500072479248e-01 1.081747055053710938e+00 -1.283063173294067383e+00
-6.610420942306518555e-01 -1.214768648147583008e+00 -1.064890503883361816e+00 7.180362343788146973e-01 -6.617977023124694824e-01 -9.242810606956481934e-01 6.798558831214904785e-01 -8.636243939399719238e-01 1.995471000671386719e+00 -5.624698400497436523e-01 -2.010909318923950195e+00 -1.837648302316665649e-01 -4.247440099716186523e-01 -5.276829600334167480e-01 -1.009557366371154785e+00 2.983138263225555420e-01
1.478495121002197266e+00 1.577184200286865234e+00 -4.200499951839447021e-01 -2.216739654541015625e-01 -1.497552990913391113e+00 1.276092886924743652e+00 -2.290097475051879883e-01 3.808594942092895508e-01 6.035551428794860840e-01 -1.502297163009643555e+00 1.032339811325073242e+00 -2.002652645111083984e+00 6.488912701606750488e-01 -5.797991752624511719e-01 1.189172625541687012e+00 1.558248698711395264e-01
-1.203177928924560547e+00 1.029575109481811523e+00 -4.306676685810089111e-01 1.203484535217285156e+00 5.125370025634765625e-01 -3.595040738582611084e-02 -8.528541326522827148e-01 1.540360927581787109e+00 2.265657424926757812e+00 5.786666646599769592e-02 7.042379379272460938e-01 8.160381317138671875e-01 5.916017293930053711e-01 7.340073585510253906e-01 2.180132418870925903e-01 2.284024000167846680e+00
9.496409893035888672e-01 -1.625848650932312012e+00 1.144784569740295410e+00 -3.831539452075958252e-01 5.136021375656127930e-01 3.692717254161834717e-01 4.385922253131866455e-01 -2.394135236740112305e+00 -7.439430356025695801e-01 -8.063758611679077148e-01 -6.426276564598083496e-01 4.228287935256958008e-01 -1.195482730865478516e+00 8.161506056785583496e-01 6.561321616172790527e-01 4.233006387948989868e-02
-9.498362541198730469e-01 -4.990516006946563721e-01 1.785612225532531738e+00 -4.433194994926452637e-01 5.701791495084762573e-02 2.932977378368377686e-01 5.919814705848693848e-01 -8.339664936065673828e-01 -3.830728307366371155e-02 -3.570798635482788086e-01 1.082726836204528809e+00 -2.227235883474349976e-01 3.140772879123687744e-02 -1.595610618591308594e+00 9.832279682159423828e-01 -6.348420977592468262e-01
7.981572151184082031e-01 -1.651813983917236328e-01 -7.672564983367919922e-01 1.563642978668212891e+00 -4.020511209964752197e-01 -4.198981523513793945e-01 7.579628825187683105e-01 -1.549749821424484253e-01 1.716508984565734863e+00 5.460942387580871582e-01 1.161093637347221375e-01 -4.402206465601921082e-02 -4.799183607101440430e-01 1.199483275413513184e+00 7.000319957733154297e-01 4.245065897703170776e-02
-1.979038238525390625e+00 7.025129199028015137e-01 4.131352603435516357e-01 -1.116951927542686462e-01 -2.619382739067077637e-01 1.337885737419128418e+00 6.064303517341613770e-01 1.133939847350120544e-01 7.321409136056900024e-02 1.442292779684066772e-01 7.427814006805419922e-01 -1.098638176918029785e+00 -1.475617587566375732e-01 -1.824002414941787720e-01 5.153814554214477539e-01 1.486897002905607224e-02
-9.373554587364196777e-01 3.258336484432220459e-01 -1.880863867700099945e-02 1.691890239715576172e+00 -2.192261666059494019e-01 -5.218850374221801758e-01 1.241004914045333862e-01 -3.373651504516601562e-01 -2.787434756755828857e-01 1.775280475616455078e+00 9.488990306854248047e-01 8.055106401443481445e-01 -6.235025525093078613e-01 1.783252000808715820e+00 5.228300690650939941e-01 1.943021535873413086e+00
-1.409707903861999512e+00 -6.145806312561035156e-01 1.720308065414428711e+00 1.566201448440551758e-01 8.952615857124328613e-01 -1.167601346969604492e+00 2.584700658917427063e-02 -1.940398514270782471e-01 -2.664430141448974609e-01 -1.685418039560317993e-01 1.334861159324645996e+00 1.033552646636962891e+00 -6.640701293945312500e-01 -5.707902908325195312e-01 -1.074416041374206543e+00 1.455490142107009888e-01
7.915423512458801270e-01 -5.603168606758117676e-01 1.263382315635681152e+00 1.144188404083251953e+00 5.647180080413818359e-01 -2.082840204238891602e+00 8.802708387374877930e-01 2.421301305294036865e-01 4.542443752288818359e-01 9.156169295310974121e-01 -6.809715926647186279e-02 -9.557870626449584961e-01 7.614437937736511230e-01 -1.253325343132019043e+00 1.176323533058166504e+00 -1.763778686523437500e+00
-1.058040618896484375e+00 1.168189287185668945e+00 -2.217181205749511719e+00 2.302352041006088257e-01 5.860372185707092285e-01 -5.426100641489028931e-02 -3.025761246681213379e-02 3.442088961601257324e-01 -8.353744149208068848e-01 2.117131203413009644e-01 7.637807130813598633e-01 -6.482341885566711426e-01 2.404160425066947937e-02 -2.167375326156616211e+00 -4.285423159599304199e-01 -6.768061220645904541e-02
6.002783179283142090e-01 6.977905631065368652e-01 -2.218555450439453125e+00 -7.707091569900512695e-01 1.158690690994262695e+00 -3.850636184215545654e-01 1.697603464126586914e+00 -9.978584051132202148e-01 -6.199343204498291016e-01 2.390969693660736084e-01 -1.408394694328308105e+00 6.463101506233215332e-01 -3.468500077724456787e-01 1.503861993551254272e-01 -5.505127906799316406e-01 2.735940933227539062e+00
7.878468036651611328e-01 -1.585319280624389648e+00 2.403207570314407349e-01 -8.972159624099731445e-01 4.585972130298614502e-01 -1.686476469039916992e+00 -7.543401122093200684e-01 2.057283520698547363e-01 -9.508322477340698242e-01 -4.341906905174255371e-01 8.913546055555343628e-02 -1.583112925291061401e-01 5.580502152442932129e-01 1.232481956481933594e+00 -8.979255557060241699e-01 -1.178185939788818359e+00
4.477622509002685547e-01 -3.046804666519165039e-01 -1.633983492851257324e+00 -7.648556232452392578e-01 -1.084859132766723633e+00 -1.689015150070190430e+00 9.270619750022888184e-01 -2.633376419544219971e-01 -8.165252953767776489e-02 2.217275142669677734e+00 -4.013640284538269043e-01 -1.235174179077148438e+00 9.813891649246215820e-01 1.383592724800109863e+00 1.147158980369567871e+00 -3.492063581943511963e-01
-4.975150823593139648e-01 6.463503241539001465e-01 1.953562617301940918e+00 -1.138472631573677063e-01 -1.260951161384582520e-01 -1.664481163024902344e+00 -1.683406904339790344e-02 -6.511932611465454102e-01 -1.068567276000976562e+00 -4.307692348957061768e-01 8.254859447479248047e-01 4.571425914764404297e-02 -4.849303662776947021e-01 1.408113360404968262e+00 6.742770075798034668e-01 -1.877045512199401855e+00
1.891622185707092285e+00 1.304521918296813965e+00 1.021250009536743164e+00 2.251271247863769531e+00 1.465236663818359375e+00 -2.857485786080360413e-02 -1.276872396469116211e+00 -2.075204372406005859e+00 8.669100999832153320e-01 7.638390660285949707e-01 -3.122014105319976807e-01 1.736634016036987305e+00 8.463277220726013184e-01 2.093099057674407959e-01 -1.144186139106750488e+00 3.144366145133972168e-01
-5.125302076339721680e-02 2.197640895843505859e+00 2.281297743320465088e-01 -9.912046194076538086e-01 9.288879036903381348e-01 5.816940069198608398e-01 7.705404758453369141e-01 3.506272733211517334e-01 -1.463022828102111816e+00 1.940544545650482178e-01 -8.351485133171081543e-01 -6.118906736373901367e-01 1.062831521034240723e+00 -7.475289702415466309e-01 -5.310779213905334473e-01 -9.625980854034423828e-01
-6.907588839530944824e-01 -8.474987149238586426e-01 -9.080134034156799316e-01 -4.883068799972534180e-01 -2.752160727977752686e-01 6.970290541648864746e-01 1.916821479797363281e+00 2.548493146896362305e-01 -4.474810361862182617e-01 -2.288681030273437500e+00 1.234596848487854004e+00 -2.521166801452636719e-01 7.115043997764587402e-01 -1.930854469537734985e-01 -1.826027631759643555e+00 1.704958975315093994e-01
-3.077987134456634521e-01 9.495502114295959473e-01 -6.145978346467018127e-02 -1.387281298637390137e+00 2.183750391006469727e+00 -2.257581710815429688e+00 5.260576009750366211e-01 2.644630372524261475e-01 -7.744752764701843262e-01 2.063023805618286133e+00 -9.170055985450744629e-01 -1.344177007675170898e+00 -6.913338899612426758e-01 1.496726274490356445e+00 -1.027048707008361816e+00 -1.330151438713073730e+00
1.933062791824340820e+00 3.861332684755325317e-02 -1.679107844829559326e-01 -8.564085364341735840e-01 -1.376987576484680176e+00 -8.462166786193847656e-01 5.274739861488342285e-01 1.960352063179016113e-01 6.800232529640197754e-01 1.187749862670898438e+00 -1.939788937568664551e+00 -1.224157810211181641e+00 -4.628996253013610840e-01 3.936938345432281494e-01 -4.122969508171081543e-01 -4.830617904663085938e-01
1.215712428092956543e+00 -4.221253693103790283e-01 -8.145876526832580566e-01 2.003268897533416748e-02 -1.158028960227966309e+00 -4.415605366230010986e-01 -2.532354556024074554e-02 1.805261135101318359e+00 3.006318509578704834e-01 -1.142038106918334961e+00 5.625895261764526367e-01 -5.149922370910644531e-01 1.658945441246032715e+00 6.748960018157958984e-01 2.295379340648651123e-01 -2.961423158645629883e+00
2.451593279838562012e-01 -1.083005428314208984e+00 -1.285865306854248047e+00 1.218819499015808105e+00 -5.234608054161071777e-01 -8.996827900409698486e-02 -1.128112316131591797e+00 3.868017792701721191e-01 2.292059361934661865e-01 2.554197311401367188e+00 -1.101626396179199219e+00 3.083947002887725830e-01 9.520127177238464355e-01 2.740611433982849121e-01 -5.674004554748535156e-01 7.264413237571716309e-01
4.657688438892364502e-01 -1.295631647109985352e+00 1.861997604370117188e+00 -1.529526710510253906e+00 7.525525689125061035e-01 7.551265358924865723e-01 -1.390471577644348145e+00 -6.182356476783752441e-01 2.328192293643951416e-01 -6.834093332290649414e-01 9.981800615787506104e-02 -8.002578616142272949e-01 -1.525952100753784180e+00 4.630205929279327393e-01 -1.219267845153808594e+00 1.324664950370788574e+00
1.229152083396911621e+00 -4.701098203659057617e-01 1.341295540332794189e-01 8.831152319908142090e-01 -8.439506292343139648e-01 4.529521167278289795e-01 -1.421766638755798340e+00 5.721561908721923828e-01 3.922558128833770752e-01 9.049871563911437988e-02 -1.085909128189086914e+00 -6.629347205162048340e-01 -2.934561073780059814e-01 2.726806163787841797e+00 -9.569887518882751465e-01 3.015397489070892334e-01
1.044167399406433105e+00 -1.617483973503112793e+00 -4.238768517971038818e-01 -3.959794640541076660e-01 -3.344236314296722412e-01 -6.592224836349487305e-01 1.172327697277069092e-01 -8.703349828720092773e-01 3.500217795372009277e-01 -1.614893436431884766e+00 1.066680401563644409e-01 1.182351827621459961e+00 6.374984979629516602e-01 2.688314914703369141e-01 -1.348791360855102539e+00 -8.037511110305786133e-01
-1.605988025665283203e+00 -8.720961213111877441e-01 -1.174802184104919434e+00 3.986422121524810791e-01 9.758406281471252441e-01 -1.536229252815246582e-01 -8.867232799530029297e-01 -5.641614794731140137e-01 -8.417212963104248047e-01 -2.381351292133331299e-01 -1.183310627937316895e+00 -6.666214466094970703e-01 1.026067256927490234e+00 -5.181164145469665527e-01 -1.864997148513793945e+00 6.442762613296508789e-01
1.359589934349060059e+00 4.813672602176666260e-01 -1.381516903638839722e-01 -1.760991811752319336e+00 3.151232600212097168e-01 -1.248226523399353027e+00 1.595861792564392090e+00 3.428120398893952370e-03 8.794166445732116699e-01 1.038170456886291504e+00 3.469632863998413086e-01 1.107213020324707031e+00 -4.380816817283630371e-01 9.637708067893981934e-01 9.131099581718444824e-01 -1.162554979324340820e+00
-3.636986017227172852e-01 1.237506985664367676e+00 3.344618976116180420e-01 -2.265678882598876953e+00 3.997293114662170410e-02 7.329471409320831299e-02 -1.177960515022277832e+00 -9.703038334846496582e-01 2.479701280593872070e+00 9.908657670021057129e-01 -7.426523566246032715e-01 -7.692579627037048340e-01 -3.987618982791900635e-01 1.114518523216247559e+00 4.276793897151947021e-01 -2.252287715673446655e-01
-6.436528563499450684e-01 4.056562781333923340e-01 -1.493834108114242554e-01 -4.021434187889099121e-01 -3.376470804214477539e+00 -1.006169557571411133e+00 6.581131219863891602e-01 -7.303054928779602051e-01 8.904732465744018555e-01 2.664068937301635742e+00 1.632474541664123535e+00 -1.540695577859878540e-01 -2.055715918540954590e-01 2.266269773244857788e-01 5.045962333679199219e-01 -1.835600286722183228e-01
-1.058058142662048340e+00 -1.296160936355590820e+00 1.208297371864318848e+00 -1.874302476644515991e-01 -6.276605129241943359e-01 1.266477108001708984e+00 2.057554006576538086e+00 7.947798073291778564e-02 -1.828656792640686035e-01 -2.414084672927856445e+00 -3.882757425308227539e-01 -7.560866475105285645e-01 1.758475303649902344e+00 7.928574681282043457e-01 -2.419297099113464355e-01 6.276953220367431641e-01
-1.373216032981872559e+00 -8.601819276809692383e-01 1.081962466239929199e+00 -3.678562939167022705e-01 8.358830809593200684e-01 1.405475616455078125e+00 -3.186655640602111816e-01 -9.654822200536727905e-02 8.262752294540405273e-01 1.866894483566284180e+00 -4.401262402534484863e-01 3.584893047809600830e-01 2.999965548515319824e-01 2.114587306976318359e+00 -7.588150501251220703e-01 1.041963547468185425e-01
2.100222408771514893e-01 4.603929221630096436e-01 2.272312045097351074e-01 9.177637696266174316e-01 -7.024081945419311523e-01 4.110667705535888672e-01 1.036554813385009766e+00 5.591896176338195801e-01 3.302501738071441650e-01 9.525279700756072998e-02 -3.122126162052154541e-01 -1.270145177841186523e+00 3.470836639404296875e+00 8.293642997741699219e-01 1.369966745376586914e+00 1.043353438377380371e+00
6.379507780075073242e-01 -7.313511967658996582e-01 4.691389799118041992e-01 1.006964087486267090e+00 -4.631355404853820801e-01 8.079667687416076660e-01 8.205782175064086914e-01 1.174570322036743164e+00 2.888564169406890869e-01 -2.579074800014495850e-01 6.555624604225158691e-01 6.181181073188781738e-01 4.762520790100097656e-01 -8.111308217048645020e-01 -6.453059315681457520e-01 -1.657761693000793457e+00
-1.017288938164710999e-01 -2.052586823701858521e-01 -3.040120005607604980e-01 2.138472646474838257e-01 -5.183917284011840820e-01 -4.923747181892395020e-01 -5.926623344421386719e-01 8.416638374328613281e-01 2.858339846134185791e-01 -8.770852088928222656e-01 -2.730610668659210205e-01 3.495342284440994263e-02 -7.894757986068725586e-01 -6.958910822868347168e-01 5.643236041069030762e-01 1.433145403861999512e+00
1.441531181335449219e-01 6.159698963165283203e-01 1.461621224880218506e-01 -3.360307514667510986e-01 -1.876579403877258301e+00 7.540705800056457520e-01 -2.090044736862182617e+00 -2.334113717079162598e-01 8.042563796043395996e-01 -5.680415630340576172e-01 3.291161537170410156e+00 6.934677064418792725e-02 -1.621696233749389648e+00 -1.437730312347412109e+00 -8.045079112052917480e-01 8.183797597885131836e-01
5.841483473777770996e-01 -1.443927437067031860e-01 -1.304176926612854004e+00 -9.495987892150878906e-01 6.960948109626770020e-01 4.748898446559906006e-01 -9.528402090072631836e-01 1.322949290275573730e+00 1.348453164100646973e+00 -2.405154466629028320e+00 6.477599740028381348e-01 1.536612153053283691e+00 -1.759656310081481934e+00 2.539376258850097656e+00 5.027894675731658936e-02 7.138447165489196777e-01
1.073173657059669495e-01 -7.206837534904479980e-01 -2.416046619415283203e+00 -2.433732032775878906e+00 -7.108061313629150391e-01 5.422491952776908875e-02 -1.518333256244659424e-01 -3.229635953903198242e-01 -5.015377998352050781e-01 1.639142155647277832e+00 5.242183804512023926e-01 -4.569385051727294922e-01 -6.326318979263305664e-01 6.511911153793334961e-01 -2.398301839828491211e+00 6.465731263160705566e-01
1.184774637222290039e+00 -7.361865136772394180e-03 -1.388552427291870117e+00 -9.368213266134262085e-02 4.964734315872192383e-01 -2.220690399408340454e-01 -1.450414299964904785e+00 4.758882224559783936e-01 -1.732876181602478027e+00 9.973563551902770996e-01 -3.669528663158416748e-01 -1.253209590911865234e+00 1.222029626369476318e-01 -5.343718528747558594e-01 -1.246020793914794922e+00 2.237495966255664825e-02
-1.358970761299133301e+00 1.767742186784744263e-01 -5.666275024414062500e-01 -3.477642238140106201e-01 1.022087931632995605e+00 -1.956979483366012573e-01 1.042996048927307129e+00 -8.226932287216186523e-01 -1.232591271400451660e+00 -2.205395996570587158e-01 1.469034552574157715e+00 -6.930939555168151855e-01 3.627703189849853516e-01 -2.165360689163208008e+00 -4.863650724291801453e-02 7.787878066301345825e-02
-1.717886924743652344e+00 4.928144812583923340e-01 3.825015723705291748e-01 1.273393750190734863e+00 2.551459968090057373e-01 -6.341519355773925781e-01 -5.730425119400024414e-01 -4.836354851722717285e-01 -9.073788523674011230e-01 1.615060865879058838e-01 9.262471199035644531e-01 -2.443434000015258789e+00 1.172808527946472168e+00 4.353059232234954834e-01 -5.391187667846679688e-01 -8.979176878929138184e-01
-8.855906128883361816e-01 -1.292958974838256836e+00 -3.179104328155517578e-01 -8.080844581127166748e-02 -5.421421527862548828e-01 1.104736804962158203e+00 -8.099866658449172974e-02 2.053950786590576172e+00 7.964516431093215942e-02 -6.357336044311523438e-02 1.539635777473449707e+00 1.633121222257614136e-01 2.655671238899230957e-01 -7.264654338359832764e-02 -5.712288245558738708e-02 -6.220147609710693359e-01
-2.547787427902221680e-01 1.226379051804542542e-01 -1.187029838562011719e+00 -1.505795359611511230e+00 -6.505167484283447266e-01 1.342183470726013184e+00 -1.125170111656188965e+00 3.309975862503051758e+00 -1.191745996475219727e+00 1.662274241447448730e+00 1.362872242927551270e+00 -2.058093786239624023e+00 -1.544738531112670898e+00 4.434449076652526855e-01 -1.448302507400512695e+00 -4.610671103000640869e-01
-2.542562484741210938e-01 -1.923458456993103027e+00 2.531172335147857666e-01 -3.287402093410491943e-01 3.225048780441284180e-01 8.852726221084594727e-01 -9.791035056114196777e-01 -1.627870202064514160e+00 1.357365131378173828e+00 -5.290462374687194824e-01 -7.391531467437744141e-01 6.740736216306686401e-02 1.471926331520080566e+00 -1.831423640251159668e+00 -6.375948786735534668e-01 -6.642655134201049805e-01
9.609861373901367188e-01 -8.836938142776489258e-01 -4.127146601676940918e-01 8.740124106407165527e-01 2.875422835350036621e-01 -8.659017682075500488e-01 -3.568556308746337891e-01 8.799964785575866699e-01 -1.391670107841491699e+00 -1.414557933807373047e+00 -2.356976270675659180e+00 1.305853128433227539e-01 -1.437338948249816895e+00 -3.097075819969177246e-01 -7.133151590824127197e-02 1.495183229446411133e+00
1.186310052871704102e+00 1.110957026481628418e+00 3.601141214370727539e+00 2.663017809391021729e-01 -1.038098037242889404e-01 -4.662820398807525635e-01 -1.175946071743965149e-01 -4.725133180618286133e-01 -4.874245822429656982e-01 -1.104062497615814209e-01 1.119693517684936523e+00 -2.551390826702117920e-01 1.258591890335083008e+00 -1.531939268112182617e+00 -7.004931569099426270e-01 1.023390293121337891e+00
-2.038353919982910156e+00 -1.721272468566894531e+00 -3.751859441399574280e-02 8.559362292289733887e-01 1.382180333137512207e+00 -2.341450452804565430e-01 2.955134630203247070e+00 -1.860839128494262695e+00 1.061938285827636719e+00 2.211297154426574707e-01 -4.484140574932098389e-01 -4.385145902633666992e-01 6.650487333536148071e-02 -5.768426060676574707e-01 -1.619110405445098877e-01 -5.558859109878540039e-01
-1.531607747077941895e+00 3.292661309242248535e-01 -1.708801627159118652e+00 -2.246140480041503906e+00 3.621236085891723633e-01 -4.668424427509307861e-01 -1.217230319976806641e+00 -1.399051427841186523e+00 -2.054157257080078125e+00 -1.125715374946594238e+00 -5.445588752627372742e-02 1.054421067237854004e-01 2.813704311847686768e-02 6.727606654167175293e-01 -1.899362564086914062e+00 -1.719957232475280762e+00
6.603635102510452271e-02 5.927715897560119629e-01 -1.375042051076889038e-01 -8.092753887176513672e-01 -2.870180010795593262e-01 1.721909284591674805e+00 1.382050514221191406e+00 -7.532019019126892090e-01 1.437224507331848145e+00 -8.136664628982543945e-01 2.186466932296752930e+00 -1.121887326240539551e+00 1.464258730411529541e-01 6.032554805278778076e-02 -1.237185239791870117e+00 1.778138756752014160e+00
3.509666621685028076e-01 -1.179646492004394531e+00 1.273563623428344727e+00 1.105839967727661133e+00 -3.094842731952667236e-01 3.790907561779022217e-01 -3.841966986656188965e-01 1.454227328300476074e+00 8.620166778564453125e-01 -1.810536384582519531e+00 1.080865144729614258e+00 5.321253538131713867e-01 6.455762982368469238e-01 1.740884482860565186e-01 8.904790878295898438e-01 -1.980158239603042603e-01
1.094416022300720215e+00 1.356185317039489746e+00 -2.319799184799194336e+00 1.063113927841186523e+00 2.914399206638336182e-01 7.615777254104614258e-01 3.730709850788116455e-01 1.027750849723815918e+00 -1.743870079517364502e-01 -6.964382529258728027e-01 8.188374042510986328e-01 1.063598275184631348e+00 1.069860219955444336e+00 8.362857699394226074e-01 -1.725978106260299683e-01 1.164937973022460938e+00
8.257251977920532227e-02 -2.079503834247589111e-01 -2.504101693630218506e-01 2.166041880846023560e-01 8.374049067497253418e-01 -9.027310013771057129e-01 -1.885389387607574463e-01 1.257402420043945312e+00 1.089418292045593262e+00 -4.217719659209251404e-02 -1.692621946334838867e+00 6.081196069717407227e-01 2.399139553308486938e-01 -3.941329568624496460e-02 2.842367172241210938e+00 -5.705564022064208984e-01
-1.805958896875381470e-01 -1.442334502935409546e-01 -8.045707643032073975e-02 1.641815900802612305e-01 5.376285314559936523e-01 1.639462351799011230e+00 9.258424639701843262e-01 8.996661901473999023e-01 -1.328478306531906128e-01 1.284105658531188965e+00 6.523202061653137207e-01 -9.737298488616943359e-01 -3.090377449989318848e-01 1.462998151779174805e+00 -2.815602719783782959e-01 1.155082106590270996e+00
-5.658030509948730469e-01 -2.381068229675292969e+00 -3.191480040550231934e-02 1.838686317205429077e-01 -3.693233728408813477e-01 -2.212388962507247925e-01 2.476680725812911987e-01 7.796781510114669800e-02 -4.646179378032684326e-01 1.322548240423202515e-01 -7.541522979736328125e-01 5.650381445884704590e-01 -8.268184065818786621e-01 -5.377047061920166016e-01 -1.120230913162231445e+00 -6.807368397712707520e-01
1.396955996751785278e-01 -1.045428514480590820e+00 -3.902036547660827637e-01 3.889918327331542969e-01 2.037562988698482513e-02 -4.056781157851219177e-02 5.997965112328529358e-02 -2.028724700212478638e-01 8.510823249816894531e-01 2.857617139816284180e-01 1.511813163757324219e+00 -1.130864977836608887e+00 2.106439590454101562e+00 2.892990363761782646e-03 2.157889604568481445e+00 4.931049942970275879e-01
-1.075942993164062500e+00 1.810520291328430176e-01 -1.376686334609985352e+00 2.828150093555450439e-01 -2.258463859558105469e+00 1.517740011215209961e+00 1.178306698799133301e+00 1.221062183380126953e+00 5.021106600761413574e-01 -6.670843362808227539e-01 -9.520343542098999023e-01 1.183131337165832520e+00 1.112475275993347168e+00 1.093871951103210449e+00 -6.011722683906555176e-01 3.678593039512634277e-01
9.516597986221313477e-01 -1.750970482826232910e+00 9.325027465820312500e-02 -4.880319535732269287e-01 8.377022743225097656e-01 -1.300058960914611816e+00 -9.129664897918701172e-01 -6.260104775428771973e-01 -1.631431818008422852e+00 5.893546938896179199e-01 -1.246041178703308105e+00 -1.791654706001281738e+00 -1.620888829231262207e+00 1.419460296630859375e+00 -5.733914971351623535e-01 1.235399007797241211e+00
-1.549040555953979492e+00 -3.028653860092163086e-01 2.592083811759948730e-01 1.478423923254013062e-01 -6.765626072883605957e-01 -1.515730768442153931e-01 2.204155735671520233e-02 -2.983251214027404785e-01 5.316556692123413086e-01 -5.095329880714416504e-02 9.248096942901611328e-01 1.094781398773193359e+00 -2.293466776609420776e-01 -2.224004745483398438e+00 6.946719884872436523e-01 -3.552940487861633301e-01
-7.691559195518493652e-01 7.884227633476257324e-01 1.277892589569091797e-01 8.917370438575744629e-01 -1.475740432739257812e+00 -1.235167458653450012e-01 -4.106237590312957764e-01 -1.795427799224853516e-01 3.452141582965850830e-01 -3.691716790199279785e-01 2.393163740634918213e-01 2.213265657424926758e+00 2.297843456268310547e+00 8.828878998756408691e-01 -2.581953108310699463e-01 1.070995807647705078e+00
9.545717239379882812e-01 -2.103345870971679688e+00 1.259828567504882812e+00 3.262121602892875671e-02 -1.592998862266540527e+00 1.048009634017944336e+00 -2.231108546257019043e-01 -1.312185883522033691e+00 -1.710699915885925293e+00 -1.837628781795501709e-01 9.263120591640472412e-02 4.773938655853271484e-01 5.402262806892395020e-01 -3.170122861862182617e+00 4.312924742698669434e-01 7.126543521881103516e-01
-8.529500365257263184e-01 1.834504723548889160e+00 2.115791320800781250e+00 2.840007781982421875e+00 1.011614203453063965e-01 4.237329661846160889e-01 9.671574234962463379e-01 -8.963708877563476562e-01 8.050004243850708008e-01 6.551938056945800781e-01 -5.203645303845405579e-02 -1.753502011299133301e+00 -7.989332675933837891e-01 -2.015543133020401001e-01 4.213323295116424561e-01 1.195850372314453125e+00
-2.033733995631337166e-03 -1.048066616058349609e+00 -5.840059518814086914e-01 -9.459744095802307129e-01 -4.755820631980895996e-01 6.692153215408325195e-01 -8.755331635475158691e-01 -6.643645763397216797e-01 -9.463204741477966309e-01 -2.789429724216461182e-01 3.799263536930084229e-01 -5.661833286285400391e-01 -2.172549962997436523e-01 5.186087489128112793e-01 -3.357168138027191162e-01 -6.871125698089599609e-01
-1.433162689208984375e+00 4.175367057323455811e-01 -4.415227845311164856e-02 7.369046658277511597e-02 5.636137723922729492e-01 6.285872459411621094e-01 -2.097219973802566528e-01 1.469987630844116211e-01 1.132404446601867676e+00 1.162225246429443359e+00 1.280799031257629395e+00 -3.307958543300628662e-01 4.339835606515407562e-03 7.905336022377014160e-01 -6.109984517097473145e-01 1.119275569915771484e+00
-1.896015107631683350e-01 1.681594729423522949e+00 1.737036824226379395e+00 -8.274928927421569824e-01 -3.322621285915374756e-01 -4.190398156642913818e-01 1.404118418693542480e+00 9.366323351860046387e-01 8.399767875671386719e-01 9.696844220161437988e-01 -3.227422535419464111e-01 1.307818651199340820e+00 6.688815355300903320e-01 -8.341794013977050781e-01 2.327659577131271362e-01 -7.505301237106323242e-01
1.045831084251403809e+00 1.362912058830261230e+00 -4.442231953144073486e-01 -4.540015161037445068e-01 -6.565942764282226562e-01 -3.119995892047882080e-01 1.191765546798706055e+00 -4.217734038829803467e-01 -3.561752736568450928e-01 -3.689575791358947754e-01 -1.446138143539428711e+00 1.703277826309204102e+00 9.952305555343627930e-01 -9.752841591835021973e-01 -1.496951699256896973e+00 -1.687995903193950653e-02
-9.414970874786376953e-02 7.943818718194961548e-02 1.060579299926757812e+00 -1.103653788566589355e+00 -1.971783190965652466e-01 -8.129363656044006348e-01 -1.307704925537109375e+00 -1.565255761146545410e+00 1.180095911026000977e+00 -7.491648793220520020e-01 -2.493663311004638672e+00 9.170721173286437988e-01 -1.987772464752197266e+00 2.117635965347290039e+00 1.141793489456176758e+00 6.327962279319763184e-01
-1.809789985418319702e-01 6.937973499298095703e-01 -1.581312060356140137e+00 1.597135066986083984e+00 7.055456042289733887e-01 -4.831862449645996094e-01 -5.813258290290832520e-01 1.527105212211608887e+00 -1.342817306518554688e+00 6.011502742767333984e-01 8.198200464248657227e-01 1.060949921607971191e+00 4.022857546806335449e-01 -4.435271918773651123e-01 1.175956249237060547e+00 1.746840357780456543e+00
7.536762952804565430e-01 6.976090669631958008e-01 -5.354006886482238770e-01 -8.329072594642639160e-02 -1.475308775901794434e+00 4.489908218383789062e-01 -1.108739137649536133e+00 6.439616680145263672e-01 -1.304875612258911133e+00 9.889577031135559082e-01 8.603629469871520996e-01 -6.577675342559814453e-01 -1.152287840843200684e+00 1.959124654531478882e-01 -1.428209543228149414e+00 -1.109854459762573242e+00
9.220843315124511719e-01 -7.597824931144714355e-01 8.754491209983825684e-01 4.589111804962158203e-01 1.195031523704528809e+00 -1.380240678787231445e+00 5.214033126831054688e-01 -1.925965666770935059e+00 -8.202936649322509766e-01 -1.258771061897277832e+00 2.219124287366867065e-01 -7.790573239326477051e-01 -2.690153419971466064e-01 4.290497303009033203e-01 -4.284069836139678955e-01 -9.546483159065246582e-01
-5.290153026580810547e-01 4.273406565189361572e-01 -1.149395227432250977e+00 -3.243667781352996826e-01 7.734438776969909668e-01 -7.231302261352539062e-01 -1.681996881961822510e-01 7.469975948333740234e-01 -9.628108739852905273e-01 7.731164693832397461e-01 1.848009467124938965e+00 -9.689676165580749512e-01 1.489875078201293945e+00 -9.806276559829711914e-01 -3.731373846530914307e-01 -1.027712225914001465e+00
2.293135374784469604e-01 -5.327033996582031250e-01 3.832795917987823486e-01 7.030242085456848145e-01 1.766346096992492676e+00 -6.288389563560485840e-01 1.445299625396728516e+00 -1.406881511211395264e-01 -2.857881188392639160e-01 1.169920563697814941e+00 7.086881399154663086e-01 2.265246063470840454e-01 -9.217502921819686890e-02 2.547568380832672119e-01 1.418670266866683960e-01 1.262989733368158340e-02
-1.095610499382019043e+00 6.722264289855957031e-01 -6.636356115341186523e-01 4.473515450954437256e-01 1.702179670333862305e+00 8.901482447981834412e-03 5.088817477226257324e-01 7.156506776809692383e-01 1.040663942694664001e-01 -3.229204416275024414e-01 4.297931194305419922e-01 -7.607426643371582031e-01 9.990385174751281738e-01 1.478949546813964844e+00 -1.208909824490547180e-01 5.123023390769958496e-01
5.265769362449645996e-01 -6.080548763275146484e-01 2.895575284957885742e+00 1.701265573501586914e+00 -1.716630309820175171e-01 -3.486662805080413818e-01 9.481415152549743652e-01 -1.178661346435546875e+00 -3.604889810085296631e-01 -2.040396213531494141e+00 -1.811587810516357422e+00 -1.458293348550796509e-01 1.247736513614654541e-01 -6.100811362266540527e-01 -6.659632921218872070e-01 1.259385943412780762e-01
-9.211754798889160156e-01 -1.718000054359436035e+00 1.930198222398757935e-01 -1.036832928657531738e+00 7.563371211290359497e-02 -2.360344409942626953e+00 -6.074994206428527832e-01 9.673383831977844238e-01 8.664551377296447754e-01 -6.500592231750488281e-01 2.756139962002635002e-03 2.162984132766723633e+00 1.210738182067871094e+00 -1.299910098314285278e-01 -1.467582702636718750e+00 -5.591706633567810059e-01
-7.197462916374206543e-01 4.908934235572814941e-01 -1.155130267143249512e+00 -1.618227243423461914e+00 -4.380043968558311462e-02 -4.414065927267074585e-02 -2.705050945281982422e+00 1.258040070533752441e+00 2.337751686573028564e-01 -5.340051054954528809e-01 1.756630092859268188e-01 -4.430513456463813782e-02 -7.163999974727630615e-02 8.046560287475585938e-01 -4.183608889579772949e-01 -7.171862572431564331e-02
-1.078234314918518066e+00 2.027674466371536255e-01 -8.478372693061828613e-01 -3.068134486675262451e-01 8.474688529968261719e-01 1.830307543277740479e-01 2.392115354537963867e+00 -5.402041077613830566e-01 1.138189315795898438e+00 -1.206515550613403320e+00 9.429143071174621582e-01 8.626812100410461426e-01 7.226341962814331055e-01 1.010605394840240479e-01 8.692737221717834473e-01 3.202700316905975342e-01
-1.598841309547424316e+00 -4.757725000381469727e-01 8.632321357727050781e-01 5.485109686851501465e-01 -9.018528461456298828e-01 7.927432656288146973e-01 8.266658782958984375e-01 1.081371188163757324e+00 -7.044523954391479492e-02 -6.994934082031250000e-01 -2.807582318782806396e-01 1.195472240447998047e+00 9.912933111190795898e-01 6.321990489959716797e-01 8.598435521125793457e-01 8.877204358577728271e-02
-9.661350250244140625e-01 -5.152979493141174316e-01 -3.682375252246856689e-01 6.359971165657043457e-01 2.172268182039260864e-01 2.170309066772460938e+00 1.091324806213378906e+00 -1.819721698760986328e+00 4.411456286907196045e-01 -1.019670844078063965e+00 -3.220134019851684570e+00 7.899917364120483398e-01 1.801539510488510132e-01 5.928850173950195312e-01 -1.244816303253173828e+00 1.065301895141601562e+00
2.768314182758331299e-01 4.592967927455902100e-01 -1.446240782737731934e+00 2.020512342453002930e+00 -6.442934274673461914e-01 8.321256637573242188e-01 -4.874977171421051025e-01 1.158604860305786133e+00 -8.959794044494628906e-01 -1.358181953430175781e+00 -1.185412406921386719e+00 1.284127980470657349e-01 6.088905930519104004e-01 -2.310767471790313721e-01 8.587955236434936523e-01 -1.246945142745971680e+00
-9.125392884016036987e-02 1.706097960472106934e+00 4.975999295711517334e-01 4.902424514293670654e-01 -1.699281096458435059e+00 -7.709388732910156250e-01 1.584702372550964355e+00 6.198657155036926270e-01 1.454097509384155273e+00 1.653239846229553223e+00 -3.204509735107421875e+00 -6.400196552276611328e-01 8.225722908973693848e-01 -3.952023759484291077e-02 1.762453675270080566e+00 -8.058496117591857910e-01
-2.323697954416275024e-01 -7.890587449073791504e-01 -8.439738154411315918e-01 1.146869301795959473e+00 -4.914502203464508057e-01 -6.362986564636230469e-01 -1.270282268524169922e+00 7.817964553833007812e-01 4.492241144180297852e-01 8.288748860359191895e-01 -9.323461651802062988e-01 -2.934355139732360840e-01 -1.649427115917205811e-01 1.629653126001358032e-01 -1.069249033927917480e+00 6.921454668045043945e-01
8.427143096923828125e-01 6.722800731658935547e-01 -1.637103408575057983e-01 1.405101299285888672e+00 -8.159258365631103516e-01 -3.640359640121459961e-01 1.139354705810546875e+00 9.411321282386779785e-01 1.070533514022827148e+00 -5.484691262245178223e-01 1.299296505749225616e-03 3.492937684059143066e-01 3.999448120594024658e-01 -2.149623036384582520e-01 4.941329061985015869e-01 -5.501005053520202637e-01
-6.358015537261962891e-02 -3.279838263988494873e-01 6.512475013732910156e-01 -6.462424993515014648e-01 -1.406060338020324707e+00 -3.876782953739166260e-01 -4.919519126415252686e-01 -5.311840176582336426e-01 -1.368403553962707520e+00 -4.185834825038909912e-01 -6.985844373703002930e-01 -4.832237958908081055e-01 -7.091154158115386963e-02 5.184483900666236877e-02 2.653182983398437500e+00 -1.562590301036834717e-01
1.986571669578552246e+00 9.276380538940429688e-01 -1.937081456184387207e+00 7.193633317947387695e-01 9.028816223144531250e-01 4.385447800159454346e-01 2.345737367868423462e-01 -4.085047841072082520e-01 -2.981005907058715820e+00 -2.128168582916259766e+00 9.677271842956542969e-01 -9.384732693433761597e-02 3.640976250171661377e-01 -1.217729210853576660e+00 2.285999774932861328e+00 -1.462164044380187988e+00
-4.543466269969940186e-01 4.866267144680023193e-01 7.801538109779357910e-01 9.450604915618896484e-01 4.856716096401214600e-01 -3.295914530754089355e-01 1.750512719154357910e+00 1.418936967849731445e+00 -1.400579452514648438e+00 -1.892245411872863770e-01 -1.257375627756118774e-01 -4.211550652980804443e-01 7.235142588615417480e-01 -2.381647586822509766e+00 -3.690245747566223145e-01 -1.972743391990661621e+00
-1.418362498283386230e+00 -1.156049132347106934e+00 4.801719188690185547e-01 -5.251719951629638672e-01 -2.168953716754913330e-01 1.038147330284118652e+00 4.945181012153625488e-01 1.055847048759460449e+00 -1.769842624664306641e+00 1.160417124629020691e-01 -1.061902761459350586e+00 -9.723049402236938477e-02 -4.295723140239715576e-01 1.270387768745422363e+00 -2.814340889453887939e-01 -2.617600560188293457e-01
-3.238862037658691406e+00 6.065308451652526855e-01 2.100375741720199585e-01 1.642225027084350586e+00 -6.239284276962280273e-01 -5.643197521567344666e-02 -5.368828773498535156e-01 1.763774603605270386e-01 9.853465557098388672e-01 1.464875340461730957e+00 -1.467737108469009399e-01 -6.696010828018188477e-01 5.184778571128845215e-01 1.780721187591552734e+00 9.638356566429138184e-01 7.993866801261901855e-01
2.184413373470306396e-02 2.447074651718139648e-01 -8.082016110420227051e-01 3.051832085475325584e-03 6.133955717086791992e-01 -8.443608283996582031e-01 -4.274845123291015625e-01 4.476433098316192627e-01 -1.948271095752716064e-01 -4.224913716316223145e-01 -5.025369524955749512e-01 -1.559860706329345703e+00 4.261821806430816650e-01 9.836293458938598633e-01 -1.309423208236694336e+00 2.306921035051345825e-01
1.568022847175598145e+00 1.015230789780616760e-01 -2.713121473789215088e-01 4.028835594654083252e-01 -2.912642955780029297e-01 -1.205281496047973633e+00 1.068346500396728516e+00 6.479265689849853516e-01 -2.210589945316314697e-01 1.425121068954467773e+00 1.534133315086364746e+00 1.325639367103576660e+00 -1.737960815429687500e+00 -3.843372464179992676e-01 3.731730878353118896e-01 -3.257359862327575684e-01
1.186567068099975586e+00 1.740753352642059326e-01 8.417202234268188477e-01 -4.525766968727111816e-01 -5.984898805618286133e-01 -9.390339851379394531e-01 -7.015917450189590454e-02 3.899149224162101746e-02 -2.601045668125152588e-01 1.840898394584655762e-01 6.342757344245910645e-01 -3.608157634735107422e-01 1.151542812585830688e-01 1.460870623588562012e+00 7.846451401710510254e-01 -1.629925847053527832e+00
-1.935274124145507812e+00 6.477005481719970703e-01 -1.275601506233215332e+00 7.806369662284851074e-01 -5.843995809555053711e-01 8.174158632755279541e-02 -4.189371168613433838e-01 -8.289498090744018555e-01 -1.721521258354187012e+00 7.463893294334411621e-01 -3.330933451652526855e-01 -1.196799755096435547e+00 -2.090460777282714844e+00 4.223555028438568115e-01 -5.187872648239135742e-01 -1.694676756858825684e+00
8.756358027458190918e-01 -8.073092699050903320e-01 -1.786882162094116211e+00 1.977700352668762207e+00 1.113926172256469727e+00 8.435044288635253906e-01 3.705191612243652344e-01 -4.422238171100616455e-01 -2.491066604852676392e-01 -2.353422343730926514e-02 5.302068591117858887e-02 2.005983114242553711e+00 5.818009972572326660e-01 -9.208672046661376953e-01 -2.691560029983520508e+00 4.386439546942710876e-02
-2.515482902526855469e-01 1.645810961723327637e+00 4.117439389228820801e-01 -1.075457096099853516e+00 6.627828478813171387e-01 1.765048503875732422e-02 1.625673651695251465e+00 1.424307584762573242e+00 6.659679412841796875e-01 -7.763500213623046875e-01 -8.866809010505676270e-01 -7.157759070396423340e-01 -3.362963199615478516e-01 -4.503347575664520264e-01 -3.930223882198333740e-01 -1.216572523117065430e+00
2.893267273902893066e-01 -2.375684380531311035e-01 6.364444494247436523e-01 1.210987210273742676e+00 1.330074787139892578e+00 1.786162972450256348e+00 1.905775189399719238e+00 1.837989211082458496e+00 1.077553749084472656e+00 -2.043961048126220703e+00 -7.941479980945587158e-02 1.407215237617492676e+00 -2.127996832132339478e-02 1.048418879508972168e+00 -2.376121282577514648e+00 -1.448637247085571289e+00
1.096509933471679688e+00 1.280499845743179321e-01 -7.196484804153442383e-01 -6.885637044906616211e-01 -3.035225868225097656e-01 -7.069073319435119629e-01 -7.535762190818786621e-01 -1.121348738670349121e+00 2.012492895126342773e+00 -2.517220675945281982e-01 -1.127644896507263184e+00 1.027054071426391602e+00 -5.160977244377136230e-01 8.101285696029663086e-01 2.521734952926635742e+00 1.502547711133956909e-01
-5.982160940766334534e-02 -1.330565690994262695e+00 -1.031955242156982422e+00 -1.355661630630493164e+00 -9.989092350006103516e-01 4.295330643653869629e-01 2.956375852227210999e-02 8.793910592794418335e-02 -6.388217210769653320e-01 1.321361213922500610e-01 -4.160457849502563477e-01 -5.190243124961853027e-01 -7.433103919029235840e-01 4.995521605014801025e-01 4.590711891651153564e-01 1.245996117591857910e+00
1.998591303825378418e+00 3.798932135105133057e-01 8.103643655776977539e-01 -3.188658356666564941e-01 -1.062902808189392090e+00 5.290831327438354492e-01 -9.328005313873291016e-01 1.715984702110290527e+00 -9.284295439720153809e-01 3.231895565986633301e-01 -6.834244728088378906e-01 -8.352016806602478027e-01 -9.612400829792022705e-02 2.590147852897644043e-01 1.565569877624511719e+00 9.725823998451232910e-02
-1.056378558278083801e-01 -1.281079292297363281e+00 -7.744811773300170898e-01 1.477347135543823242e+00 6.662148237228393555e-01 -6.655403971672058105e-01 2.239236593246459961e+00 1.107667386531829834e-02 1.104401797056198120e-01 1.081153392791748047e+00 1.185334444046020508e+00 -7.651738524436950684e-01 9.675702452659606934e-01 -3.076893985271453857e-01 2.468182295560836792e-01 -1.720037460327148438e+00
4.365913271903991699e-01 -5.367273688316345215e-01 1.078129410743713379e+00 -1.726391613483428955e-01 1.834962010383605957e+00 1.358029842376708984e+00 -2.093042246997356415e-02 -3.211080729961395264e-01 -5.406175181269645691e-02 6.781143695116043091e-02 1.041038036346435547e+00 8.721329569816589355e-01 1.531493067741394043e+00 -4.865965843200683594e-01 -2.867012619972229004e-01 -8.465715050697326660e-01
1.476784467697143555e+00 2.353741526603698730e-01 -1.823734045028686523e+00 8.398501873016357422e-01 -1.288110375404357910e+00 -2.330435276031494141e+00 5.298333168029785156e-01 -8.981359601020812988e-01 -1.007608532905578613e+00 2.067611813545227051e-01 2.600486278533935547e-01 -1.255565285682678223e+00 2.151783943176269531e+00 5.362025499343872070e-01 1.248262673616409302e-01 1.192286517471075058e-02
-1.140961527824401855e+00 -7.606856226921081543e-01 -1.145073175430297852e+00 -1.672329545021057129e+00 5.728073120117187500e-01 -2.585535943508148193e-01 -5.999338626861572266e-01 2.270291328430175781e+00 -2.277745902538299561e-01 -4.480674862861633301e-01 -2.605880498886108398e-01 6.025012955069541931e-02 -1.371644139289855957e-01 -8.688723444938659668e-01 -1.840434789657592773e+00 1.497527003288269043e+00
-6.616659760475158691e-01 -1.558428525924682617e+00 8.405203819274902344e-01 -8.891727924346923828e-01 3.175877332687377930e-01 -1.333356946706771851e-01 -1.826768070459365845e-01 2.035181760787963867e+00 -1.081801295280456543e+00 1.583296418190002441e+00 -5.191556811332702637e-01 1.263244748115539551e+00 -1.371646672487258911e-01 -1.170696139335632324e+00 8.479112386703491211e-01 6.891427636146545410e-01
-5.068016648292541504e-01 2.223456501960754395e-01 -2.570623159408569336e-01 -4.113119840621948242e-01 -8.565434217453002930e-01 -7.761370539665222168e-01 -4.472863078117370605e-01 -2.576795220375061035e-01 5.982964038848876953e-01 -4.406241327524185181e-02 -5.519535765051841736e-02 -8.367067575454711914e-01 -1.975449174642562866e-01 1.943672895431518555e-01 -1.149615868926048279e-01 7.024590671062469482e-02
1.599889755249023438e+00 -2.237318515777587891e+00 -1.929885268211364746e+00 3.147311210632324219e-01 -4.251246154308319092e-01 1.196880936622619629e+00 7.131189703941345215e-01 -1.773746252059936523e+00 1.073102474212646484e+00 4.663545489311218262e-01 1.471837997436523438e+00 1.273051500320434570e+00 8.652476221323013306e-02 -1.144034147262573242e+00 6.664190292358398438e-01 -3.716196715831756592e-01
-1.219355762004852295e-01 -1.770941913127899170e-02 -4.683946073055267334e-01 -9.454025030136108398e-01 -1.097937747836112976e-01 5.624662041664123535e-01 -4.559827446937561035e-01 -1.670414328575134277e+00 1.878458261489868164e+00 -9.307454824447631836e-01 -5.363767147064208984e-01 2.574916481971740723e-01 7.075799703598022461e-01 -4.570269882678985596e-01 -1.384586840867996216e-01 2.268364906311035156e+00
8.053216934204101562e-01 2.654229700565338135e-01 1.135017156600952148e+00 -2.331134557723999023e+00 -6.992287039756774902e-01 -1.481750965118408203e+00 1.191407293081283569e-01 -4.583762586116790771e-01 3.695860803127288818e-01 1.402995944023132324e+00 8.524339199066162109e-01 -7.873181104660034180e-01 2.863104455173015594e-02 -2.257003784179687500e+00 5.215496420860290527e-01 4.266209304332733154e-01
-2.590857267379760742e+00 4.253401756286621094e-01 7.397767901420593262e-01 -1.871707104146480560e-02 -8.255887627601623535e-01 -6.500139832496643066e-02 2.263523787260055542e-01 -7.535876035690307617e-01 -2.096317708492279053e-01 -1.954578995704650879e+00 5.927190184593200684e-01 -5.570226311683654785e-01 -1.508930802345275879e+00 1.666909813880920410e+00 -7.986488938331604004e-01 -1.380218029022216797e+00
-2.790177106857299805e+00 -5.750258564949035645e-01 1.599644541740417480e+00 6.979385018348693848e-02 5.593247339129447937e-02 -5.295498967170715332e-01 -2.809719145298004150e-01 -9.605406522750854492e-01 -1.849703192710876465e-01 -2.312332868576049805e+00 1.255020141601562500e+00 -5.727744698524475098e-01 9.206828474998474121e-02 7.740820646286010742e-01 4.917685389518737793e-01 -5.942270159721374512e-02
3.311743140220642090e-01 -2.997066080570220947e-01 4.433419704437255859e-01 -1.052128896117210388e-01 7.351597547531127930e-01 1.471530795097351074e-01 -1.224419325590133667e-01 3.043378889560699463e-01 -3.841299712657928467e-01 7.009777426719665527e-01 -6.627933382987976074e-01 1.422552227973937988e+00 -6.234811618924140930e-02 7.231290936470031738e-01 -5.799283981323242188e-01 7.993676066398620605e-01
-2.478016763925552368e-01 -1.032277345657348633e-01 1.654944777488708496e+00 -7.049324512481689453e-01 -4.584619700908660889e-01 1.047062397003173828e+00 -6.155338883399963379e-01 2.565981149673461914e-01 -1.232535719871520996e+00 6.873398423194885254e-01 1.857199072837829590e-01 -2.089817374944686890e-01 -6.111168116331100464e-02 1.002037048339843750e+00 7.220968604087829590e-01 7.120472788810729980e-01
8.443973660469055176e-01 -6.210977435111999512e-01 -8.795986771583557129e-01 -2.176817655563354492e-01 -8.918101191520690918e-01 -8.872676491737365723e-01 4.979844093322753906e-01 1.130521446466445923e-01 9.009563922882080078e-01 7.415886521339416504e-01 -1.007390260696411133e+00 9.932352304458618164e-01 3.666057810187339783e-02 -3.750683367252349854e-01 -4.475013315677642822e-01 1.616368532180786133e+00
-1.225483775138854980e+00 -1.990473151206970215e+00 -5.115092396736145020e-01 -2.573312520980834961e-01 1.024728044867515564e-01 7.607572525739669800e-02 -2.012561708688735962e-01 -2.335924863815307617e+00 2.829591333866119385e-01 1.177855610847473145e+00 -5.855854153633117676e-01 1.252255916595458984e+00 -3.609601557254791260e-01 -1.829063057899475098e+00 -2.443722486495971680e+00 -1.333314657211303711e+00
1.007536053657531738e+00 3.585210442543029785e-01 -6.439269185066223145e-01 -6.885540485382080078e-01 6.934282183647155762e-01 -1.932702511548995972e-01 4.550253152847290039e-01 -1.309257507324218750e+00 4.423606693744659424e-01 3.372019231319427490e-01 1.994586884975433350e-01 -3.642016351222991943e-01 -1.973446726799011230e+00 -6.659466624259948730e-01 -1.036300420761108398e+00 5.206877589225769043e-01
2.212194949388504028e-01 5.235182046890258789e-01 8.080599308013916016e-01 -2.771866321563720703e-01 -3.515203595161437988e-01 8.055111765861511230e-01 1.165194749832153320e+00 -3.360634148120880127e-01 3.129547238349914551e-01 -6.470960378646850586e-01 2.010196745395660400e-01 1.978808641433715820e-01 1.136271953582763672e+00 7.712609171867370605e-01 1.211969256401062012e+00 3.049327433109283447e-01
5.170975923538208008e-01 -1.459327936172485352e-01 1.671414852142333984e+00 -1.253561377525329590e-01 -9.004143066704273224e-03 9.745759516954421997e-02 -9.998540282249450684e-01 7.419086098670959473e-01 2.778367400169372559e-01 -9.254267811775207520e-01 2.067975997924804688e-01 -1.048444867134094238e+00 -9.751366376876831055e-01 2.945742607116699219e-01 1.134493350982666016e+00 -2.442873239517211914e+00
2.961482107639312744e-01 1.062394857406616211e+00 2.239699959754943848e-01 -1.830973505973815918e+00 1.669496178627014160e+00 -4.315122663974761963e-01 -2.254711836576461792e-02 -2.323597669601440430e+00 6.750621199607849121e-01 -2.048308610916137695e+00 2.222494035959243774e-01 -1.307508230209350586e+00 -1.678292751312255859e+00 -1.331257939338684082e+00 -5.268511176109313965e-01 -2.420642375946044922e+00
6.030991673469543457e-01 -1.339173913002014160e+00 1.549456596374511719e+00 -5.055855512619018555e-01 -1.108376145362854004e+00 1.310126334428787231e-01 7.218706607818603516e-01 4.320535063743591309e-01 -6.753881573677062988e-01 -4.976834058761596680e-01 -2.749258279800415039e-01 7.481601238250732422e-01 -7.211175560951232910e-02 2.764709889888763428e-01 5.851739048957824707e-01 1.641363739967346191e+00
-1.137847542762756348e+00 4.199842214584350586e-01 -7.359448671340942383e-01 -9.712690711021423340e-01 9.929755330085754395e-01 4.406016767024993896e-01 1.349949002265930176e+00 -1.764457523822784424e-01 -7.495907545089721680e-01 5.441766977310180664e-01 -1.062772870063781738e+00 -1.188258767127990723e+00 -5.093099474906921387e-01 1.436522722244262695e+00 9.963346719741821289e-01 -7.610408663749694824e-01
1.161285400390625000e+00 -1.436978340148925781e+00 1.251277565956115723e+00 6.762235164642333984e-01 -8.086451329290866852e-03 -5.069331526756286621e-01 7.536974549293518066e-01 -7.756333947181701660e-01 -1.834291100502014160e+00 -2.530658841133117676e-01 2.291471660137176514e-01 -2.000298023223876953e+00 1.734148263931274414e+00 6.291584372520446777e-01 -1.484858896583318710e-02 8.544204831123352051e-01
-8.072679638862609863e-01 -4.041005074977874756e-01 -1.255624532699584961e+00 -7.241743206977844238e-01 -8.284194022417068481e-02 7.451848983764648438e-01 8.143590763211250305e-03 8.210478425025939941e-01 6.746896505355834961e-01 1.291896343231201172e+00 -3.813273012638092041e-01 -2.724854648113250732e-01 1.282674670219421387e+00 6.107602119445800781e-01 -2.352372169494628906e+00 -3.846557438373565674e-01
-1.790904879570007324e+00 6.964699029922485352e-01 -1.884406566619873047e+00 -7.927343249320983887e-01 -1.385141372680664062e+00 -1.557492017745971680e-01 -6.422307491302490234e-01 9.582222700119018555e-01 -1.020361185073852539e+00 8.407905697822570801e-01 -1.149835109710693359e+00 1.927008293569087982e-02 -5.461472272872924805e-01 1.106904625892639160e+00 3.652728497982025146e-01 -3.770749866962432861e-01
3.802795335650444031e-02 -1.660565733909606934e-01 -1.466712355613708496e+00 -1.580309122800827026e-01 2.415059328079223633e+00 -5.589812397956848145e-01 8.860652446746826172e-01 1.512933373451232910e-01 -8.968653678894042969e-01 7.615815997123718262e-01 -7.367497086524963379e-01 -1.937774181365966797e+00 1.445918440818786621e+00 7.704605907201766968e-02 3.202266246080398560e-02 -4.641345143318176270e-01
-5.223799347877502441e-01 1.970710396766662598e+00 -5.630942806601524353e-02 1.205712080001831055e+00 -2.435306906700134277e-01 -2.487057745456695557e-01 -1.718935966491699219e+00 -1.377832770347595215e+00 7.499738931655883789e-01 -1.230375766754150391e+00 1.266024589538574219e+00 -2.991774380207061768e-01 3.895455002784729004e-01 -1.425179839134216309e+00 -3.534949123859405518e-01 1.561299562454223633e+00
1.294412374496459961e+00 5.741821527481079102e-01 -1.630349159240722656e-01 -2.705461382865905762e-01 -6.306096911430358887e-01 -1.417084455490112305e+00 -9.191339015960693359e-01 1.693762689828872681e-01 -1.123831629753112793e+00 -7.886205911636352539e-01 1.022240400314331055e+00 1.794424176216125488e+00 -2.615377604961395264e-01 1.443180084228515625e+00 -3.286257982254028320e-01 1.101595640182495117e+00
-3.970227241516113281e-01 -1.775339245796203613e+00 -1.455526828765869141e+00 1.850808262825012207e+00 -7.678026556968688965e-01 -1.317866921424865723e+00 -1.374445438385009766e+00 -7.458183765411376953e-01 -1.305688358843326569e-02 3.512232303619384766e-01 -9.970305562019348145e-01 -1.852302670478820801e+00 2.272980660200119019e-01 -2.115474045276641846e-01 1.622239947319030762e+00 -5.169873833656311035e-01
-1.327865272760391235e-01 -7.190682888031005859e-01 -5.235014557838439941e-01 -6.280400753021240234e-01 9.565512537956237793e-01 4.255873560905456543e-01 -1.278333425521850586e+00 7.137631177902221680e-01 -1.587132513523101807e-01 4.157035648822784424e-01 2.143118143081665039e+00 3.982781767845153809e-01 7.247238159179687500e-01 8.456799387931823730e-01 3.878901004791259766e-01 -6.148519515991210938e-01
-4.704402089118957520e-01 1.859242796897888184e+00 -1.501917243003845215e+00 -7.289284467697143555e-01 -1.739982604980468750e+00 -5.557594355195760727e-03 9.982603788375854492e-01 1.389834880828857422e+00 1.333857893943786621e+00 -2.829695045948028564e-01 1.957045674324035645e+00 -3.762224912643432617e-01 1.924196243286132812e+00 3.998810350894927979e-01 1.695640563964843750e+00 3.693013489246368408e-01
-1.339681148529052734e-01 2.437964379787445068e-01 -2.379104644060134888e-01 -3.502086997032165527e-01 -7.690264284610748291e-02 -7.766931056976318359e-01 -7.330636680126190186e-02 -5.053836703300476074e-01 4.244202971458435059e-01 -1.501426100730895996e+00 5.451116561889648438e-01 5.101072788238525391e-01 -1.835726857185363770e+00 -1.792621493339538574e+00 1.139856934547424316e+00 3.450104594230651855e-01
1.151842117309570312e+00 -6.435050368309020996e-01 8.344451189041137695e-01 -1.041694998741149902e+00 -1.120076775550842285e+00 -9.238465428352355957e-01 -9.767172932624816895e-01 -6.630552411079406738e-01 8.023107051849365234e-01 1.053877830505371094e+00 6.080175042152404785e-01 -7.804178595542907715e-01 9.004674553871154785e-01 -1.604365706443786621e+00 2.742972075939178467e-01 -5.850254297256469727e-01
2.222431659698486328e+00 -6.464586257934570312e-01 -1.332999467849731445e+00 -2.102836132049560547e+00 1.037038326263427734e+00 -1.818843603134155273e+00 -5.934470295906066895e-01 7.024236917495727539e-01 5.568228960037231445e-01 -2.161192893981933594e+00 -1.822087168693542480e-01 -4.749948680400848389e-01 2.016567230224609375e+00 2.739049494266510010e-01 1.707962512969970703e+00 -2.105761051177978516e+00
2.792997062206268311e-01 -2.752342820167541504e-01 8.178755044937133789e-01 4.216048717498779297e-01 5.554693937301635742e-01 -1.338635206222534180e+00 -1.173390030860900879e+00 -4.822592139244079590e-01 -1.316259026527404785e+00 -2.478585243225097656e-01 -7.410348057746887207e-01 6.541746258735656738e-01 -1.606634378433227539e+00 -3.309159874916076660e-01 3.715937733650207520e-01 -1.005643606185913086e+00
-8.052741736173629761e-02 1.217868924140930176e+00 -1.242447853088378906e+00 -4.833688139915466309e-01 4.664291143417358398e-01 1.239097952842712402e+00 -1.611395031213760376e-01 1.947972774505615234e-01 -2.356279194355010986e-01 5.687872767448425293e-01 9.583429694175720215e-01 -4.807134270668029785e-01 -6.282724738121032715e-01 -5.713580250740051270e-01 1.002621412277221680e+00 -1.133933544158935547e+00
-8.180847167968750000e-01 2.461835145950317383e+00 -1.879860460758209229e-01 1.402585625648498535e+00 -1.590298175811767578e+00 5.241387486457824707e-01 8.628184795379638672e-01 -9.879506230354309082e-01 9.073200225830078125e-01 -8.098051697015762329e-02 -2.361736446619033813e-01 1.417845785617828369e-01 -1.132422685623168945e+00 5.691498517990112305e-01 1.383131265640258789e+00 -2.360098809003829956e-01
1.425352573394775391e+00 -3.765000104904174805e-01 5.355079770088195801e-01 1.408824682235717773e+00 2.355222702026367188e-01 -2.194425344467163086e+00 3.417091667652130127e-01 1.027520298957824707e+00 2.355977445840835571e-01 -3.623822331428527832e-01 1.041118502616882324e+00 7.829914093017578125e-01 4.580876827239990234e-01 1.570835560560226440e-01 -8.918097615242004395e-01 -3.420956730842590332e-01
8.104467391967773438e-01 -7.792429327964782715e-01 -2.265607357025146484e+00 8.638004064559936523e-01 5.381321907043457031e-01 -1.393204808235168457e+00 -6.646563410758972168e-01 1.156896352767944336e+00 2.009353876113891602e+00 6.105506420135498047e-01 -7.533733844757080078e-01 7.106499075889587402e-01 -1.620516300201416016e+00 1.859296441078186035e+00 3.719376921653747559e-01 1.549010872840881348e+00
-2.548479735851287842e-01 -9.898760914802551270e-01 -6.434313058853149414e-01 1.156862616539001465e+00 2.299924373626708984e+00 -1.363989591598510742e+00 -6.212033703923225403e-02 2.167238891124725342e-01 -2.000455260276794434e-01 2.270351409912109375e+00 -1.208148449659347534e-01 -2.012106031179428101e-02 1.314659267663955688e-01 -2.057160586118698120e-01 1.090407967567443848e+00 5.316420793533325195e-01
1.250986576080322266e+00 -1.454906761646270752e-01 2.301205396652221680e+00 1.731411457061767578e+00 -7.448658943176269531e-01 2.200176715850830078e+00 -5.191740989685058594e-01 -2.064977139234542847e-01 -1.218516975641250610e-01 -1.587193459272384644e-01 -7.837850451469421387e-01 1.788032986223697662e-02 4.195316135883331299e-01 4.005108177661895752e-01 2.763874769210815430e+00 -1.003269076347351074e+00
2.331045866012573242e-01 -1.243912130594253540e-01 8.036470413208007812e-01 -1.679856777191162109e+00 7.528974413871765137e-01 1.448683500289916992e+00 -1.069991946220397949e+00 9.461337924003601074e-01 3.577043712139129639e-01 -9.848123788833618164e-01 -1.374501943588256836e+00 7.149205207824707031e-01 1.219115495681762695e+00 6.735401749610900879e-01 -2.432866334915161133e+00 5.024562031030654907e-02
-2.560353994369506836e+00 -1.320673942565917969e+00 9.074783921241760254e-01 9.756578207015991211e-01 3.907365351915359497e-02 2.935245633125305176e-01 -6.419277787208557129e-01 4.093064367771148682e-01 -5.241615176200866699e-01 -9.729028344154357910e-01 1.533090710639953613e+00 1.694504380226135254e+00 -1.082813292741775513e-01 9.679926633834838867e-01 1.376558542251586914e-01 9.126084446907043457e-01
2.166330575942993164e+00 -4.555301666259765625e-01 -7.141468524932861328e-01 -2.759849727153778076e-01 -1.800208806991577148e+00 -5.372655391693115234e-01 -9.173752740025520325e-03 3.636526167392730713e-01 -7.300785779953002930e-01 -3.986563384532928467e-01 -8.851899504661560059e-01 1.325724244117736816e+00 6.391970515251159668e-01 -6.856269240379333496e-01 8.248372077941894531e-01 3.940555751323699951e-01
-1.193732380867004395e+00 -3.913374245166778564e-01 1.244612932205200195e+00 3.339357674121856689e-01 -1.421315431594848633e+00 -4.162277579307556152e-01 1.116476297378540039e+00 -9.081040024757385254e-01 5.947234034538269043e-01 4.592423141002655029e-01 6.194703578948974609e-01 2.965031862258911133e-01 -2.635142505168914795e-01 8.256937861442565918e-01 2.732414603233337402e-01 -1.572267889976501465e+00
4.871587753295898438e-01 -2.347008705139160156e+00 -8.793649077415466309e-02 -5.727820992469787598e-01 -1.351601481437683105e+00 -5.407992601394653320e-01 -4.160279929637908936e-01 -9.836620688438415527e-01 -1.438000559806823730e+00 -3.624938011169433594e+00 -7.453066706657409668e-01 2.908228337764739990e-01 7.519571781158447266e-01 2.054265141487121582e-01 9.700963497161865234e-01 1.645694255828857422e+00
-5.345523953437805176e-01 -2.118587940931320190e-01 -5.420148372650146484e-01 2.100740909576416016e+00 2.308313101530075073e-01 4.195458590984344482e-01 1.151195764541625977e+00 -1.438851833343505859e+00 8.858872056007385254e-01 -4.550571441650390625e-01 5.276729464530944824e-01 -2.268326655030250549e-02 4.466962814331054688e-01 -1.594668477773666382e-01 -2.530179500579833984e+00 -6.064096093177795410e-01
-8.677608966827392578e-01 -1.058584332466125488e+00 -9.774152636528015137e-01 1.476216465234756470e-01 1.340995788574218750e+00 -1.235190510749816895e+00 7.908938825130462646e-02 7.263984084129333496e-01 1.092098653316497803e-03 2.818818092346191406e-01 1.792259812355041504e+00 8.311467170715332031e-01 -3.812299966812133789e-01 1.011092185974121094e+00 -1.908621430397033691e+00 5.986018776893615723e-01
1.208201766014099121e+00 -2.655912637710571289e-01 5.727385282516479492e-01 3.373437523841857910e-01 8.891855478286743164e-01 -1.951651930809020996e+00 -7.563282847404479980e-01 7.050722241401672363e-01 -2.807618379592895508e-01 6.565042138099670410e-01 8.605462312698364258e-01 -1.389430642127990723e+00 1.986632585525512695e+00 6.339465975761413574e-01 2.927692890167236328e+00 -3.777640163898468018e-01
5.567255616188049316e-01 4.286414086818695068e-01 -5.392535328865051270e-01 7.670320272445678711e-01 -2.313359230756759644e-01 -2.817030251026153564e-01 -7.754837721586227417e-02 6.310772895812988281e-01 -8.325870633125305176e-01 8.692116141319274902e-01 -1.445435643196105957e+00 3.787806928157806396e-01 2.147486686706542969e+00 9.743423461914062500e-01 6.815818548202514648e-01 1.615833491086959839e-01
-1.486052572727203369e-01 5.759726762771606445e-01 1.206102669239044189e-01 -2.463198602199554443e-01 1.579864263534545898e+00 1.957542747259140015e-01 -9.954845905303955078e-02 -1.297718405723571777e+00 4.263118803501129150e-01 -1.002620607614517212e-01 -1.740824460983276367e+00 5.746729373931884766e-01 8.465504646301269531e-01 1.429014801979064941e+00 4.534375667572021484e-02 -9.618627279996871948e-02
3.554340898990631104e-01 -9.918175339698791504e-01 1.200477629899978638e-01 2.727970480918884277e-01 7.016790509223937988e-01 -7.426947355270385742e-01 -1.595936179161071777e+00 2.312888354063034058e-01 4.981912970542907715e-01 -1.309170015156269073e-02 -1.173619389533996582e+00 1.667272329330444336e+00 1.277792692184448242e+00 5.668022036552429199e-01 1.311772704124450684e+00 -7.187812328338623047e-01
1.478616952896118164e+00 6.748204231262207031e-01 -5.344254970550537109e-01 5.699567794799804688e-01 -6.433581709861755371e-01 1.251012086868286133e+00 -5.410345196723937988e-01 -6.327411532402038574e-01 -6.635849475860595703e-01 8.890117406845092773e-01 8.645035624504089355e-01 -6.881225109100341797e-02 -8.848998546600341797e-01 1.781012058258056641e+00 9.375820867717266083e-03 -1.792786121368408203e+00
9.310920834541320801e-01 1.396582484245300293e+00 4.727184474468231201e-01 -9.883532673120498657e-02 1.351419091224670410e+00 4.985167086124420166e-01 -1.277149677276611328e+00 9.387251138687133789e-01 1.582506746053695679e-01 -1.572704911231994629e+00 6.624454855918884277e-01 3.631503582000732422e-01 -9.671779721975326538e-02 8.709111809730529785e-01 4.305486977100372314e-01 1.294447422027587891e+00
-4.293617606163024902e-01 4.496163129806518555e-01 1.693222224712371826e-01 1.764438673853874207e-02 -8.865393996238708496e-01 -6.782470941543579102e-01 -1.527618050575256348e+00 3.062271177768707275e-01 -8.013767004013061523e-01 -8.554601669311523438e-01 2.232429683208465576e-01 2.918951809406280518e-01 -5.508816242218017578e-01 5.793890953063964844e-01 -1.608187317848205566e+00 2.157418876886367798e-01
-4.743215441703796387e-01 2.484790533781051636e-01 2.436691999435424805e+00 -4.332855045795440674e-01 -1.300587177276611328e+00 -9.660097956657409668e-01 3.926719129085540771e-01 -3.370639085769653320e-01 -1.307339221239089966e-01 1.014659285545349121e+00 1.549825906753540039e+00 -1.716727375984191895e+00 1.454441189765930176e+00 -2.134649038314819336e+00 1.160200238227844238e-01 -4.565215855836868286e-02
4.598984122276306152e-01 1.831382393836975098e+00 5.590415596961975098e-01 -5.294911861419677734e-01 -5.728555098176002502e-02 -3.166532814502716064e-01 -2.252709120512008667e-01 2.783523321151733398e+00 7.312496900558471680e-01 -4.014474749565124512e-01 6.828132867813110352e-01 -9.269976615905761719e-01 1.634612321853637695e+00 -6.745307147502899170e-02 7.651906013488769531e-01 1.554732918739318848e+00
1.802753686904907227e+00 -2.167784929275512695e+00 7.847371101379394531e-01 2.844658374786376953e+00 2.012319266796112061e-01 7.135095596313476562e-01 -1.679134964942932129e+00 -2.376972585916519165e-01 -9.529191851615905762e-01 1.602259755134582520e+00 -6.186855435371398926e-01 -3.982553482055664062e-01 6.830251216888427734e-01 1.135003924369812012e+00 -8.700113892555236816e-01 -4.990469515323638916e-01
8.757416605949401855e-01 1.617349237203598022e-01 2.178840339183807373e-01 5.530579686164855957e-01 8.167209625244140625e-01 1.095985889434814453e+00 -1.376556396484375000e+00 -8.996404707431793213e-02 -3.111377656459808350e-01 9.073629975318908691e-01 -1.728446960449218750e+00 -1.784815549850463867e+00 -9.162645936012268066e-01 6.485419869422912598e-01 -6.408099532127380371e-01 -1.026647806167602539e+00
1.041806936264038086e+00 1.096140861511230469e+00 -1.321262598037719727e+00 -1.595589995384216309e+00 -5.497264862060546875e-01 9.310467541217803955e-02 1.655653119087219238e+00 2.482769042253494263e-01 -5.866378545761108398e-01 -2.600679695606231689e-01 -8.043716847896575928e-02 1.403070569038391113e+00 -4.267095401883125305e-02 -1.437928155064582825e-02 -1.120715498924255371e+00 -1.055608510971069336e+00
7.456423640251159668e-01 -2.125682681798934937e-02 8.738820552825927734e-01 -4.213871061801910400e-01 -8.529589176177978516e-01 1.575432866811752319e-01 -4.414767399430274963e-02 -5.489675402641296387e-01 -1.141959071159362793e+00 -7.286340594291687012e-01 7.148348689079284668e-01 2.702919960021972656e+00 1.398109912872314453e+00 5.732148289680480957e-01 -7.323524355888366699e-02 -1.351584911346435547e+00
-8.679956197738647461e-01 -2.146301716566085815e-01 -1.279550433158874512e+00 -1.423298120498657227e+00 1.712573170661926270e+00 1.891767144203186035e+00 8.788346499204635620e-02 -4.714030027389526367e-01 -2.846286594867706299e-01 4.218699336051940918e-01 1.917172789573669434e+00 -1.739464759826660156e+00 1.926542520523071289e+00 -3.225972354412078857e-01 -3.252489268779754639e-01 2.955703735351562500e-01
1.454442739486694336e-01 1.589717268943786621e+00 9.218388199806213379e-01 1.390965580940246582e-01 8.866248726844787598e-01 -1.448022961616516113e+00 1.026271209120750427e-01 1.102071881294250488e+00 6.123016476631164551e-01 -8.361200690269470215e-01 3.996192514896392822e-01 1.219560027122497559e+00 1.060004830360412598e+00 1.524171590805053711e+00 -3.727108240127563477e-02 -1.479732275009155273e+00
6.197479963302612305e-01 7.110716700553894043e-01 -1.586176007986068726e-01 -3.193241059780120850e-01 2.893256209790706635e-02 1.012309432029724121e+00 -6.226228550076484680e-02 -1.849499046802520752e-01 -6.301653385162353516e-01 -8.026943802833557129e-01 7.816467881202697754e-01 1.609536767005920410e+00 -1.555853486061096191e+00 -2.907767891883850098e-01 3.570375740528106689e-01 -8.059837818145751953e-01
-1.952467560768127441e-01 -1.764906883239746094e+00 2.930929325520992279e-02 2.514247894287109375e-01 -1.415027618408203125e+00 9.840191602706909180e-01 1.668440103530883789e+00 2.166825771331787109e+00 -8.985784649848937988e-01 -7.688025832176208496e-01 1.665488243103027344e+00 -2.724531888961791992e-01 1.105967402458190918e+00 1.960979402065277100e-01 -1.403172850608825684e+00 -1.270892143249511719e+00
8.624764680862426758e-01 -2.764338850975036621e-01 4.090853333473205566e-01 -1.922306567430496216e-01 -1.549028009176254272e-01 3.142980039119720459e-01 5.659260153770446777e-01 -2.260760664939880371e-01 -3.703125417232513428e-01 3.937349468469619751e-02 -1.255867481231689453e-01 5.357388257980346680e-01 -1.227367639541625977e+00 -4.113702476024627686e-01 8.839699029922485352e-01 -1.237513497471809387e-01
-1.535739541053771973e+00 1.020727157592773438e-01 3.482223749160766602e-01 2.253974974155426025e-01 8.230940997600555420e-02 4.705952107906341553e-01 1.856354713439941406e+00 5.892497301101684570e-01 -5.006454512476921082e-02 4.909437298774719238e-01 9.996110796928405762e-01 -4.709291458129882812e-01 1.383442521095275879e+00 4.994491934776306152e-01 9.770805239677429199e-01 8.948585391044616699e-02
1.151704311370849609e+00 1.603930115699768066e+00 2.149786353111267090e-01 -4.932999908924102783e-01 5.427207946777343750e-01 -4.342953562736511230e-01 2.627500593662261963e-01 -5.266647338867187500e-01 2.305341809988021851e-01 2.847819328308105469e-01 -8.967570215463638306e-02 -1.139395534992218018e-01 -7.991702854633331299e-02 3.636391460895538330e-01 3.407835364341735840e-01 1.278535246849060059e+00
1.350898265838623047e+00 4.163747131824493408e-01 -1.177436709403991699e+00 7.744711637496948242e-01 4.834955632686614990e-01 4.591878354549407959e-01 9.707966446876525879e-01 -1.132763773202896118e-01 1.637008339166641235e-01 -1.372236609458923340e+00 1.584514260292053223e+00 8.617929220199584961e-01 3.070433139801025391e-01 -1.433794021606445312e+00 -6.291842460632324219e-01 -3.278045356273651123e-01
6.078588962554931641e-01 5.280773639678955078e-01 -4.744378328323364258e-01 6.221906542778015137e-01 8.411921262741088867e-01 8.682100772857666016e-01 -1.314146965742111206e-01 -1.402619123458862305e+00 -2.064546585083007812e+00 6.765307188034057617e-01 1.702343225479125977e+00 -1.419013500213623047e+00 1.470814943313598633e-01 9.259378910064697266e-01 1.229710817337036133e+00 1.380218982696533203e+00
3.666517734527587891e-01 -1.788234233856201172e+00 1.283115267753601074e+00 -3.469773828983306885e-01 7.490107417106628418e-01 -4.346929490566253662e-02 9.450286030769348145e-01 -9.888788312673568726e-02 2.047312974929809570e+00 3.009607195854187012e-01 -1.412136852741241455e-01 9.364284276962280273e-01 -4.623378217220306396e-01 -1.720803737640380859e+00 -6.715870499610900879e-01 -6.588561534881591797e-01
6.170738339424133301e-01 -9.478298574686050415e-02 1.664726972579956055e+00 -9.735924005508422852e-01 9.247575402259826660e-01 -6.600905656814575195e-01 -2.214303016662597656e+00 3.567940592765808105e-01 -2.741763591766357422e-01 4.535373747348785400e-01 5.509930849075317383e-01 -9.207714349031448364e-02 2.084457427263259888e-01 1.066375970840454102e+00 -4.601494222879409790e-02 1.610019564628601074e+00
-1.448323726654052734e+00 9.174165725708007812e-01 1.097203612327575684e+00 4.891500473022460938e-01 2.667057216167449951e-01 -5.438537001609802246e-01 1.823552489280700684e+00 -1.621752262115478516e+00 3.999316096305847168e-01 -6.439591944217681885e-02 -5.348105430603027344e-01 2.210064649581909180e+00 -9.863779544830322266e-01 -1.432157278060913086e+00 -1.150500625371932983e-01 -2.554398477077484131e-01
5.032969713211059570e-01 4.755314588546752930e-01 -2.212201654911041260e-01 -4.324486553668975830e-01 -1.449697315692901611e-01 -7.755900025367736816e-01 -5.757457762956619263e-02 -1.032130360603332520e+00 3.613828122615814209e-01 -8.290965557098388672e-01 -8.143553137779235840e-01 5.331297218799591064e-02 3.462013304233551025e-01 1.643303632736206055e+00 1.724535465240478516e+00 -1.044034004211425781e+00
-2.535265684127807617e-01 6.786977052688598633e-01 9.210329651832580566e-01 9.988221526145935059e-01 -1.482506513595581055e+00 -9.847421050071716309e-01 -8.940322995185852051e-01 1.548530012369155884e-01 1.337725043296813965e+00 -5.074180960655212402e-01 1.539630770683288574e+00 -4.171117246150970459e-01 2.056967258453369141e+00 1.163021802902221680e+00 -4.583159685134887695e-01 -9.849421381950378418e-01
-4.477930963039398193e-01 2.704259753227233887e-01 8.740571141242980957e-01 5.193338394165039062e-01 8.796137571334838867e-01 1.274254918098449707e+00 -1.864349603652954102e+00 2.950176298618316650e-01 1.221542000770568848e+00 -1.091264843940734863e+00 9.943126440048217773e-01 -2.543441057205200195e-01 6.054203510284423828e-01 5.936561226844787598e-01 1.468566775321960449e+00 -5.938975811004638672e-01
-1.851371079683303833e-01 -5.028796792030334473e-01 -7.494767904281616211e-01 -2.750718593597412109e-01 -4.652377367019653320e-01 -1.699684023857116699e+00 -2.385890483856201172e+00 9.739257097244262695e-01 -9.507810324430465698e-02 6.477000117301940918e-01 1.066997289657592773e+00 2.608878612518310547e-01 2.419960126280784607e-02 -7.238410115242004395e-01 -8.738457560539245605e-01 1.199195146560668945e+00
3.924153447151184082e-01 -1.672366380691528320e+00 6.694678068161010742e-01 1.629322886466979980e+00 -2.936489181593060493e-03 -8.893967270851135254e-01 -3.258340358734130859e-01 -5.646509528160095215e-01 9.503448009490966797e-01 8.674952201545238495e-03 3.467737734317779541e-01 -2.952843308448791504e-01 -1.054138064384460449e+00 1.667987823486328125e+00 -1.025745421648025513e-01 -1.157514691352844238e+00
-1.545774221420288086e+00 1.210353732109069824e+00 9.784058928489685059e-01 -6.375543475151062012e-01 -1.358217954635620117e+00 -1.145185828208923340e+00 -2.905763089656829834e-01 -1.154077887535095215e+00 8.395593166351318359e-01 -1.902888417243957520e+00 8.680623024702072144e-02 -7.115097045898437500e-01 -2.420133829116821289e+00 4.177386760711669922e-01 -1.795563697814941406e-01 3.546164333820343018e-01
-1.999343633651733398e+00 2.678575515747070312e-01 3.791252672672271729e-01 9.779810905456542969e-01 1.722670644521713257e-01 6.489122509956359863e-01 9.044293165206909180e-01 6.670109033584594727e-01 8.843384385108947754e-01 -8.729348778724670410e-01 -1.698032379150390625e+00 -1.245810389518737793e+00 1.931133508682250977e+00 -1.269848465919494629e+00 2.803332507610321045e-01 -6.091679334640502930e-01
2.385119497776031494e-01 7.085264921188354492e-01 -1.098505035042762756e-01 -2.016092389822006226e-01 1.022696375846862793e+00 -1.249700546264648438e+00 -1.008658528327941895e+00 -1.880250126123428345e-01 5.315935611724853516e-01 -1.363160371780395508e+00 1.426362156867980957e+00 -2.914532721042633057e-01 -1.147955060005187988e+00 -4.635810256004333496e-01 -4.912921190261840820e-01 6.821040809154510498e-02
-7.252669334411621094e-01 -1.968813657760620117e+00 -7.546262443065643311e-02 3.430308103561401367e-01 6.206261515617370605e-01 -7.350605726242065430e-01 -2.096863687038421631e-01 -5.497919321060180664e-01 1.723085165023803711e+00 -1.476887345314025879e+00 -4.451512396335601807e-01 -1.622743606567382812e+00 4.384838342666625977e-01 -5.273517370223999023e-01 -5.476673319935798645e-02 2.029219627380371094e+00
1.283995270729064941e+00 1.715963840484619141e+00 -2.341686964035034180e+00 4.085519313812255859e-01 -8.064889311790466309e-01 -5.217664837837219238e-01 -7.062304615974426270e-01 -4.834391176700592041e-01 -5.441054105758666992e-01 1.679046988487243652e+00 1.063326954841613770e+00 5.379166603088378906e-01 8.225625753402709961e-02 1.722682595252990723e+00 7.989882826805114746e-01 1.553983688354492188e+00
8.581720292568206787e-02 -2.571299672126770020e-01 6.031091213226318359e-01 -1.008442640304565430e-01 -3.074910044670104980e-01 1.284453988075256348e+00 -5.439851805567741394e-02 2.874475121498107910e-01 -6.926344633102416992e-01 -1.871222972869873047e+00 -1.677961051464080811e-01 -9.180347323417663574e-01 -3.466908335685729980e-01 -9.460192918777465820e-01 -1.933181524276733398e+00 6.815838813781738281e-01
-2.144178390502929688e+00 -5.476194024085998535e-01 -6.056182980537414551e-01 1.035750150680541992e+00 -1.311351418495178223e+00 1.241305112838745117e+00 -2.717303298413753510e-02 1.075739145278930664e+00 -4.254645407199859619e-01 -7.403350472450256348e-01 -1.261811852455139160e+00 1.333694815635681152e+00 -5.018457770347595215e-01 5.060852169990539551e-01 1.832884788513183594e+00 7.473245859146118164e-01
1.879621297121047974e-01 4.335931241512298584e-01 1.468958497047424316e+00 -9.086915254592895508e-01 8.819112181663513184e-01 -2.725842893123626709e-01 1.801700443029403687e-01 -2.918280661106109619e-01 3.118482232093811035e-01 7.430755067616701126e-03 3.702258691191673279e-02 7.019409537315368652e-01 1.823021411895751953e+00 4.579628631472587585e-02 1.577159762382507324e-01 -1.800728961825370789e-02
-7.199915051460266113e-01 -1.239932060241699219e+00 2.215493619441986084e-01 -8.805238604545593262e-01 -3.386464118957519531e-01 -4.917072057723999023e-01 -7.196606993675231934e-01 -2.016280889511108398e+00 -8.463469147682189941e-01 1.315473198890686035e+00 1.278429269790649414e+00 4.574105739593505859e-01 5.705096721649169922e-01 1.459576487541198730e-01 -3.610146641731262207e-01 -2.546386420726776123e-01
-4.239341318607330322e-01 7.446198463439941406e-01 8.961465358734130859e-01 -6.448630243539810181e-02 -3.939333856105804443e-01 6.864930987358093262e-01 -8.159717917442321777e-02 1.111196041107177734e+00 -2.229391098022460938e+00 -2.970269322395324707e-01 1.482035875320434570e+00 -1.124472498893737793e+00 -1.217888832092285156e+00 -4.286470636725425720e-02 4.263794720172882080e-01 1.870340466499328613e+00
4.806352257728576660e-01 -9.611658453941345215e-01 1.573057174682617188e+00 1.421748638153076172e+00 2.261367887258529663e-01 7.702339291572570801e-01 5.571079850196838379e-01 7.648727893829345703e-01 -1.163003921508789062e+00 -1.991418838500976562e+00 -1.722668886184692383e+00 -4.332959949970245361e-01 8.829196691513061523e-01 8.493918776512145996e-01 -2.819066047668457031e+00 -6.312125325202941895e-01
-7.290844619274139404e-02 9.936741590499877930e-01 -5.245942473411560059e-01 -1.150796562433242798e-01 -4.383438229560852051e-01 -1.255441069602966309e+00 4.402546882629394531e-01 9.871380925178527832e-01 -2.800543308258056641e-01 8.876967430114746094e-01 -5.924412012100219727e-01 8.998036980628967285e-01 7.060203552246093750e-01 -1.380822300910949707e+00 -3.915266692638397217e-01 -3.549146652221679688e-01
-2.458163499832153320e-01 3.095462322235107422e-01 -2.387482970952987671e-01 2.190508246421813965e-01 9.160734415054321289e-01 6.017481088638305664e-01 1.296194672584533691e+00 -2.527741789817810059e-01 1.159614697098731995e-02 -2.947075068950653076e-01 -1.139768958091735840e+00 -4.743642732501029968e-02 8.867814540863037109e-01 -1.456378340721130371e+00 -1.713574051856994629e+00 6.133632063865661621e-01
4.413241446018218994e-01 -7.788448333740234375e-01 2.685524225234985352e-01 6.218513250350952148e-01 -9.346839189529418945e-01 2.032082557678222656e+00 -2.508717536926269531e+00 -2.231640517711639404e-01 -7.921385765075683594e-01 1.684210658073425293e+00 -9.079331159591674805e-01 -1.204367041587829590e+00 7.833448648452758789e-01 -5.431060791015625000e-01 -1.068559169769287109e+00 6.903699636459350586e-01
9.902933239936828613e-01 -1.480993509292602539e+00 -1.297741413116455078e+00 1.572868585586547852e+00 6.758823245763778687e-02 -1.729793310165405273e+00 -2.026169776916503906e+00 1.141776442527770996e+00 2.456045709550380707e-02 -1.032368183135986328e+00 3.277259469032287598e-01 2.404275417327880859e+00 1.147464394569396973e+00 1.735689520835876465e+00 -1.824021935462951660e-01 -9.706557989120483398e-01
7.960065007209777832e-01 5.658763647079467773e-01 1.944760382175445557e-01 8.373396098613739014e-02 1.111992597579956055e+00 -1.288407683372497559e+00 -1.082202076911926270e+00 5.203546285629272461e-01 5.624606609344482422e-01 -6.654107570648193359e-02 -6.941082477569580078e-01 2.353132367134094238e-01 1.973462939262390137e+00 1.109431028366088867e+00 2.019200325012207031e-01 1.074622035026550293e+00
2.297292947769165039e+00 1.518537998199462891e+00 -2.245830893516540527e-01 4.108432233333587646e-01 -6.153230071067810059e-01 -7.968460321426391602e-01 -1.792708635330200195e+00 3.865502402186393738e-02 -5.383091568946838379e-01 6.484366208314895630e-02 -3.884429931640625000e-01 6.895252466201782227e-01 -8.821675777435302734e-01 -1.313312798738479614e-01 -2.914458811283111572e-01 -8.642788529396057129e-01
-1.011223122477531433e-01 7.006333470344543457e-01 2.639161944389343262e-01 1.549157857894897461e+00 1.804598569869995117e-01 -1.063512682914733887e+00 -1.681567549705505371e+00 -1.290357112884521484e+00 9.649023413658142090e-01 3.180047869682312012e-01 -8.466507792472839355e-01 1.228204727172851562e+00 1.011082649230957031e+00 -7.634183168411254883e-01 -1.250437021255493164e+00 -3.209522366523742676e-01
1.068558573722839355e+00 -1.484118700027465820e+00 3.649040162563323975e-01 4.199787080287933350e-01 -1.212266385555267334e-01 2.978007793426513672e-01 4.464141130447387695e-01 1.635019779205322266e-01 3.093808889389038086e-01 1.106768965721130371e+00 -4.959775209426879883e-01 -2.298684120178222656e+00 -1.311602592468261719e+00 1.071717381477355957e+00 -5.353598594665527344e-01 2.084890365600585938e+00
1.476253151893615723e+00 7.199732065200805664e-01 6.991504430770874023e-01 -7.379683665931224823e-04 -4.577915072441101074e-01 3.087547719478607178e-01 -5.577841997146606445e-01 5.460662841796875000e-01 2.670427560806274414e-01 -8.194472789764404297e-01 -6.141553074121475220e-02 -3.899319171905517578e-01 -7.764409780502319336e-01 1.219660997390747070e+00 5.788043141365051270e-01 -7.641163468360900879e-01
-1.315017938613891602e+00 -2.164526581764221191e-01 6.709007024765014648e-01 -8.501977920532226562e-01 6.424608230590820312e-01 -1.811739325523376465e+00 1.394027024507522583e-01 -4.806828126311302185e-02 8.265012502670288086e-01 -1.402935385704040527e+00 -6.549493074417114258e-01 -1.297886371612548828e-01 2.564119994640350342e-01 2.801796197891235352e-01 6.628350019454956055e-01 7.972756028175354004e-01
-5.930423140525817871e-01 9.673533439636230469e-01 9.518505334854125977e-01 1.415360569953918457e+00 -6.074882149696350098e-01 2.218283414840698242e-01 -2.190154075622558594e+00 2.203724145889282227e+00 2.498061209917068481e-01 1.796213239431381226e-01 -6.075249910354614258e-01 -1.090640783309936523e+00 -1.861500382423400879e+00 -1.226064324378967285e+00 5.645969510078430176e-01 1.089343667030334473e+00
8.718214631080627441e-01 -1.133663177490234375e+00 -1.033615708351135254e+00 7.952343821525573730e-01 8.752481937408447266e-01 -6.344765424728393555e-01 -1.071382522583007812e+00 -7.504101395606994629e-01 -8.313390612602233887e-01 -7.911602854728698730e-01 -4.204849526286125183e-02 -3.747518658638000488e-01 -1.966455392539501190e-02 -8.681722879409790039e-01 -9.464502930641174316e-01 -1.102929115295410156e+00
-1.768312305212020874e-01 -2.679339945316314697e-01 -1.716648817062377930e+00 4.139966368675231934e-01 1.197416782379150391e-01 1.506738662719726562e+00 7.780523896217346191e-01 -1.603052377700805664e+00 -6.960679888725280762e-01 -1.184203177690505981e-01 -1.442804455757141113e+00 -7.213131189346313477e-01 4.197904840111732483e-02 -5.518340691924095154e-02 -1.593184471130371094e-01 -4.970529675483703613e-01
-8.614665865898132324e-01 -4.373095929622650146e-01 -1.405424356460571289e+00 5.138346552848815918e-02 -2.264505475759506226e-01 1.447161078453063965e+00 1.627760171890258789e+00 1.123655438423156738e+00 1.728087365627288818e-01 -2.816935539245605469e+00 -5.957222580909729004e-01 9.483241438865661621e-01 -4.534531235694885254e-01 -9.941932559013366699e-01 -8.785684108734130859e-01 2.604112029075622559e-01
-6.388112306594848633e-01 1.719035029411315918e+00 4.356648623943328857e-01 5.754902958869934082e-01 8.323789834976196289e-01 -2.969012856483459473e-01 1.021852254867553711e+00 1.421576499938964844e+00 6.682841777801513672e-01 1.231056690216064453e+00 -1.092592954635620117e+00 1.288657307624816895e+00 8.943463563919067383e-01 1.785844922065734863e+00 4.307707548141479492e-01 -3.521841764450073242e-02
-8.500835299491882324e-02 6.149676442146301270e-01 2.053931236267089844e+00 7.058996558189392090e-01 -7.385448217391967773e-01 -2.033552974462509155e-01 1.141065597534179688e+00 -1.179400205612182617e+00 -9.414296597242355347e-03 -3.198583424091339111e-01 2.791680693626403809e-01 -1.803621798753738403e-01 -3.878130018711090088e-01 5.229399204254150391e-01 1.357099652290344238e+00 -2.865652084350585938e+00
6.189267635345458984e-01 5.726810544729232788e-02 2.974634468555450439e-01 5.138655900955200195e-01 3.758389949798583984e-01 3.160471916198730469e-01 8.349528908729553223e-01 8.483526706695556641e-01 3.265307843685150146e-01 4.901754558086395264e-01 7.318633794784545898e-01 -1.818284988403320312e+00 -3.544625043869018555e-01 -8.838042020797729492e-01 -2.813595533370971680e-01 -1.834750533103942871e+00
2.179875969886779785e-01 -9.905143380165100098e-01 4.778969585895538330e-01 1.811648488044738770e+00 -1.930303931236267090e+00 -2.101033627986907959e-01 -9.291614294052124023e-01 2.035671100020408630e-02 8.271809220314025879e-01 -3.172350674867630005e-02 1.965574175119400024e-01 -9.624041616916656494e-02 1.542070031166076660e+00 -6.982478499412536621e-01 -1.145708918571472168e+00 -2.775593996047973633e-01
2.874353647232055664e+00 2.717956006526947021e-01 -1.653390526771545410e+00 6.838699579238891602e-01 -1.005771756172180176e+00 -1.158955842256546021e-01 1.500769138336181641e+00 -2.409945130348205566e-01 7.934305667877197266e-01 -2.105976641178131104e-01 3.264850750565528870e-02 -1.390786170959472656e+00 1.821050167083740234e+00 8.184911012649536133e-01 -8.989617973566055298e-02 -1.647795081138610840e+00
-4.576042890548706055e-01 -1.152089715003967285e+00 9.150615930557250977e-01 -8.272820115089416504e-01 -3.726209998130798340e-01 4.680142402648925781e-01 2.144653648138046265e-01 1.061267852783203125e+00 5.170511454343795776e-02 7.294421195983886719e-01 -1.434839069843292236e-01 3.946250081062316895e-01 -3.426452279090881348e-01 1.748815655708312988e+00 1.090439632534980774e-01 -1.611975908279418945e+00
6.588939428329467773e-01 -2.447362244129180908e-01 1.375477910041809082e-01 -4.334155321121215820e-01 -5.025994777679443359e-01 1.670971155166625977e+00 -1.128241300582885742e+00 2.133942395448684692e-01 -1.008442997932434082e+00 -6.102195382118225098e-01 -2.095557600259780884e-01 2.167350798845291138e-01 5.838246941566467285e-01 -6.487970352172851562e-01 7.940613031387329102e-01 4.143086075782775879e-02
-1.022039413452148438e+00 1.029038667678833008e+00 1.310430288314819336e+00 9.698120355606079102e-01 6.933727860450744629e-01 6.782647967338562012e-01 -7.185912728309631348e-01 1.793625950813293457e+00 -4.746090769767761230e-01 1.920088768005371094e+00 -1.197405979037284851e-01 -1.227160453796386719e+00 1.008859276771545410e+00 1.408166289329528809e+00 1.297735095024108887e+00 -1.040724277496337891e+00
1.105536460876464844e+00 1.757462143898010254e+00 -2.675996422767639160e-01 -2.520555257797241211e-01 -1.915616631507873535e+00 -9.677174687385559082e-01 2.464198768138885498e-01 3.095660209655761719e+00 -1.298376441001892090e+00 2.148339509963989258e+00 -7.002563476562500000e-01 -2.603455483913421631e-01 -9.354094862937927246e-01 -5.009485483169555664e-01 -1.007052302360534668e+00 -9.610622525215148926e-01
-1.765832901000976562e-01 -7.142537236213684082e-01 8.892441987991333008e-01 -1.067727923393249512e+00 -8.961696028709411621e-01 1.348683536052703857e-01 -2.490942627191543579e-01 -3.310624361038208008e-01 2.532039582729339600e-01 7.766410708427429199e-01 3.675502836704254150e-01 1.341524571180343628e-01 -7.854250073432922363e-01 -3.439866602420806885e-01 2.002316474914550781e+00 1.852351725101470947e-01
-1.036011651158332825e-01 -2.006519556045532227e+00 1.890552282333374023e+00 1.413806200027465820e+00 -9.305414557456970215e-01 8.664608597755432129e-01 -3.789612650871276855e-02 -3.398285433650016785e-02 7.948225140571594238e-01 -1.484928280115127563e-01 5.831340551376342773e-01 1.457973122596740723e+00 -1.463829874992370605e+00 -1.037648320198059082e+00 -1.070168733596801758e+00 -6.713663339614868164e-01
1.153795957565307617e+00 -2.616854667663574219e+00 1.311887979507446289e+00 8.386045694351196289e-02 8.522553741931915283e-02 -2.268542766571044922e+00 2.866705358028411865e-01 1.218798995018005371e+00 -6.669379770755767822e-02 1.647874563932418823e-01 -1.293379187583923340e+00 -5.221680402755737305e-01 2.062726020812988281e+00 -1.301286697387695312e+00 -7.936918139457702637e-01 1.927850246429443359e-01
-1.244809985160827637e+00 7.997819185256958008e-01 -5.303450226783752441e-01 -1.290274381637573242e+00 -7.384429574012756348e-01 -2.616875767707824707e-01 1.745175838470458984e+00 -1.319474935531616211e+00 -8.883678317070007324e-01 2.386813610792160034e-01 6.605724096298217773e-01 -8.786683082580566406e-01 6.325562596321105957e-01 -1.240258574485778809e+00 2.855487167835235596e-02 7.430642843246459961e-02
2.062303572893142700e-01 -3.714946210384368896e-01 8.581704497337341309e-01 7.540500760078430176e-01 6.594507694244384766e-01 1.638023614883422852e+00 2.198949456214904785e-01 -9.806200861930847168e-01 6.142649054527282715e-01 4.713309407234191895e-01 -2.010485887527465820e+00 3.743080496788024902e-01 -5.153793096542358398e-01 -9.766842722892761230e-01 -6.879085898399353027e-01 1.320886135101318359e+00
7.085756957530975342e-02 -9.542282819747924805e-01 -8.135479688644409180e-01 -8.536212444305419922e-01 -2.048259735107421875e+00 -1.197413444519042969e+00 3.760522603988647461e-01 -9.583167731761932373e-02 1.308852434158325195e+00 1.510029673576354980e+00 6.831534672528505325e-03 -9.739145040512084961e-01 -3.858671784400939941e-01 -2.798194289207458496e-01 -1.811579704284667969e+00 8.696989417076110840e-01
5.609840750694274902e-01 1.613137722015380859e+00 9.850715994834899902e-01 3.428383171558380127e-01 1.568409919738769531e+00 -7.541303038597106934e-01 -1.443408608436584473e+00 3.997275233268737793e-01 -1.922379493713378906e+00 4.894083831459283829e-03 2.956863045692443848e-01 2.088147878646850586e+00 1.516542196273803711e+00 -2.266963869333267212e-01 3.639780580997467041e-01 -4.828018844127655029e-01
3.099163770675659180e-01 -5.263069868087768555e-01 -2.171704620122909546e-01 -2.009545803070068359e+00 1.519761681556701660e-01 1.067485138773918152e-01 5.351802706718444824e-01 1.036187887191772461e+00 7.313420176506042480e-01 7.518044114112854004e-01 4.234339296817779541e-02 9.017155170440673828e-01 1.074620246887207031e+00 -1.504915356636047363e+00 -7.998944520950317383e-01 -2.732145190238952637e-01
4.530290365219116211e-01 -2.370966374874114990e-01 1.285923242568969727e+00 9.615094065666198730e-01 8.895596861839294434e-01 2.288595139980316162e-01 -4.203496575355529785e-01 -1.327168345451354980e+00 -1.380918025970458984e+00 9.352937936782836914e-01 -4.006344377994537354e-01 -9.437600523233413696e-02 1.016259670257568359e+00 5.985520482063293457e-01 6.279562134295701981e-03 2.672208845615386963e-01
-1.292608380317687988e+00 -1.699968338012695312e+00 -1.117565989494323730e+00 2.217877060174942017e-01 3.942629992961883545e-01 -4.981385767459869385e-01 1.583925783634185791e-01 1.618871688842773438e+00 6.094269156455993652e-01 -2.012969732284545898e+00 1.714924693107604980e+00 1.273911356925964355e+00 -1.415576219558715820e+00 -1.435735106468200684e+00 4.485313892364501953e-01 -1.242076158523559570e+00
3.621197044849395752e-01 2.734258174896240234e-01 -6.696706414222717285e-01 9.738500118255615234e-01 7.919532656669616699e-01 1.858352303504943848e+00 4.914535209536552429e-02 1.174384832382202148e+00 4.264695942401885986e-01 1.664584636688232422e+00 2.281919717788696289e-01 -6.358693242073059082e-01 6.134379506111145020e-01 4.649849832057952881e-01 1.123795032501220703e+00 -1.273370504379272461e+00
8.339664936065673828e-01 9.743888974189758301e-01 3.426271378993988037e-01 1.804286956787109375e+00 -6.998553872108459473e-01 7.583860158920288086e-01 -1.169889122247695923e-01 -1.148369789123535156e+00 -3.825127184391021729e-01 -9.843727946281433105e-02 -3.376205265522003174e-01 3.964142799377441406e-01 -1.029617428779602051e+00 2.629709243774414062e+00 2.049162052571773529e-02 1.508466720581054688e+00
1.011235825717449188e-02 7.936716675758361816e-01 1.101082324981689453e+00 6.367381215095520020e-01 9.304075837135314941e-01 9.258713573217391968e-02 -1.297720074653625488e-01 1.393379926681518555e+00 2.699652612209320068e-01 -2.319599837064743042e-01 -2.475097656250000000e+00 2.682556807994842529e-01 -3.076729774475097656e-01 -3.905997276306152344e-01 6.564423441886901855e-01 7.764598727226257324e-01
